tree
version=v3
num_class=6
num_tree_per_iteration=6
label_index=0
max_feature_idx=106
objective=multiclass num_class:6
feature_names=feature0 feature1 feature2 feature3 feature4 feature5 feature6 feature7 feature8 feature9 feature10 feature11 feature12 feature13 feature14 feature15 feature16 feature17 feature18 feature19 feature20 feature21 feature22 feature23 feature24 feature25 feature26 feature27 feature28 feature29 feature30 feature31 feature32 feature33 feature34 feature35 feature36 feature37 feature38 feature39 feature40 feature41 feature42 feature43 feature44 feature45 feature46 feature47 feature48 feature49 feature50 feature51 feature52 feature53 feature54 feature55 feature56 feature57 feature58 feature59 feature60 feature61 feature62 feature63 feature64 feature65 feature66 feature67 feature68 feature69 feature70 feature71 feature72 feature73 feature74 feature75 feature76 feature77 feature78 feature79 feature80 feature81 feature82 feature83 feature84 feature85 feature86 feature87 feature88 feature89 feature90 feature91 feature92 feature93 feature94 feature95 feature96 feature97 feature98 feature99 feature100 feature101 feature102 feature103 feature104 feature105 feature106
feature_infos=[-34.73944225010851:463.73920497930681] [-575880.08980878419:860586.44135645113] [-2.1575271315245659:3.3732887181156874] [-3.0559753091340447:14.456152553860129] [-105.66825854060858:1742.7847449751362] [-27.202964321901771:143.50720945195098] [-42.635150217540613:137.03678501471643] [-1863152987800.8967:5675041012972.6797] [-2433072.9261156376:7268554.2626902796] [-11555874868356308:35740143998680920] [-1.8634514892860861:3.5000251917625063] [-158.73014494152886:2515.2069674879285] [-778972.60847658338:4308535.015851615] [-68.427193443253799:227.78014098062772] [-70.340263201387103:233.86674774004629] [-1.4644943548900944:9.1177269021449714] [-104794173227663.31:312179483225900.31] [-122926.75306171436:673162.60577803338] [-638012.05822956539:3601973.4981176816] [-105.30468872727994:405.20346734667646] [-3942.8590785928391:5799.0741209586668] [-576604.77316803858:3133947.3916492029] [-0.1905832094295028:6.0759444017424027] [-157.73124159702184:2523.985367091781] [-3.5932481184795835:17.419077689772827] [-317675.79625656537:1763780.5695913979] [-200710.54945682731:1086125.0097024194] [-60.974660100449121:197.75505912755483] [-129.47465016150812:2317.9355308738109] [-1.7313020610364269:8.1946988975251429] [-61.944813128322643:200.96609198865079] [-231.8869619749716:1046.793475212256] [-87.763636192737323:128.81707069241804] [-67.058298155781017:221.47586154031288] [-3.734134988501721:19.019894742277813] [-67.608476254004216:237.67115919267209] [-44478539175333.406:132153566444240.78] [-963897.4990290032:5392607.4935897524] [-17.182350989437246:170.53768418088208] [-4736314769.9025574:14185528332.897268] [-753364.44937879848:4066250.052565685] [-87.70575072389326:1447.6547892079857] [-13189363760.036064:40696791891.41449] [-5226683.7150253244:15926711.063552313] [-48.831846519802028:294.00796610690804] [-3.0960771925263328:32.721315369390496] [-65.390544535649411:304.79274486539106] [-836746.35355688585:4738262.4702774268] [-2482308419.9118128:7559393507.0195217] [-152.28502995179997:497.34996659334951] [-3.5686787349710727:16.379657557867077] [-23599248682340976:75385972779358016] [-814388.85338824987:4731140.4166532652] [-2.9036868063723009:14.275507000056706] [-563926.88007028622:861737.62573383818] [-717302.12159015099:4213111.0706350524] [-97.921423432853658:540.25273530567245] none [-417935.36524005438:1256999.412060672] [-60.218738222874578:199.61663709522875] [-141603175.52254432:218512028.34329093] [-2079599.4855358507:6370775.9431251176] [-2.4149193690977881:11.585084481013016] [-118.86293372778846:2008.5755091527551] [-2248.7383948386896:3357.0269521288938] [-21.962733992990589:32.470548376897497] [-105361115363686.94:312515332844582.38] [-292.26642678922349:1427.0879167131909] [-642499.94316724292:3501082.4768428234] [-1025549.5530036646:5646474.7360683829] [-79.840766257106139:1203.8750995887951] [-2.7779131444095864:11.959249096830726] [-26361481.592488967:81205979.705518782] [-3.1611471201501522:16.367465700092016] [-3.9495731395343441:20.626935555285499] [-180.64181067926361:3059.9461092479082] [-60.211438103460608:200.36501482943007] none [-8768.5846846013083:13291.803107587084] [-47302144556668224:1.4500054755385645e+17] [-1.7231294531440111:2.589137377395113] [-257.33395986801224:896.38506956094716] [-129436432354.07166:388526476551.3739] [-1.8477524127638087:8.7276338128455269] [-484793327367386.88:1495451359893700.8] [-0.064714166579744895:7.999978662646372] [-48575769533653.188:146524220772269.88] [-466711750308.81982:1429353458600.2202] [-33834.061665430643:53938.659524685616] [-1763340014.4909997:5309526849.856349] [-899480.43254081043:5054894.6975798961] [-45274416045659.523:138119189389316.06] [-2226.4299042921684:3347.2706466647901] [-1034271.8710799646:5525277.0714095486] [-85449824.062673867:262515426.53013703] [-51.597235473779648:809.82305233258717] [-3179075.109413153:9631943.0524353031] [-60.87850975322327:199.72554997243515] [-304922.23010696162:1708343.6883522731] [-82.406320489730177:1672.9435827019199] none [-2135493647.7211485:6622074937.8600893] [-74.797617885265254:1297.3483830434436] [-3.6421600851254778:16.714958308051283] [-3.241167243987308:17.690674180278126] [-70.153338420144138:235.97510222461739] [-100.83769092590131:1602.4512270425605]
tree_sizes=4173 4080 4089 3715 2481 3520 4192 4148 4139 4197 4275 4229 4197 4146 4153 4198 4264 4231 4200 4184 4163 4200 4291 4241 4204 4167 4170 4197 4287 4242 4229 4179 4162 4232 4279 4222 4208 4190 4165 4233 4283 4234 4209 4183 4180 4215 4277 4224 4211 4209 4206 4229 4272 4249 4230 4197 4176 4198 4290 4238 4213 4188 4189 4210 4310 4237 4231 4190 4215 4213 4284 4227 4216 4189 4228 4218 4305 4238 4216 4207 4203 4212 4319 4285 4225 4209 4199 4269 4303 4264 4219 4187 4201 4262 4318 4248 4230 4198 4203 4254 4287 4279 4238 4181 4216 4249 4326 4243 4220 4188 4226 4271 4329 4273 4233 4197 4175 4239 4319 4280 4253 4214 4220 4258 4324 4261 4237 4200 4232 4246 4336 4268 4215 4201 4243 4272 4322 4279 4222 4215 4231 4214 4334 4272 4232 4214 4218 4269 4331 4290 4221 4227 4221 4260 4330 4293 4229 4209 4206 4298 4343 4305 4244 4210 4281 4268 4336 4270 4225 4239 4219 4270 4350 4253 4239 4227 4225 4291 4369 4306 4243 4237 4237 4251 4350 4333 4235 4251 4291 4319 4338 4287 4227 4241 4244 4329 4352 4303 4251 4244 4239 4270 4376 4321 4272 4246 4236 4291 4359 4330 4257 4249 4234 4288 4360 4337 4257 4248 4295 4317 4337 4311 4271 4283 4265 4300 4387 4303 4278 4258 4258 4305 4371 4338 4269 4280 4248 4306 4363 4378 4283 4282 4272 4277 4388 4321 4275 4275 4254 4327 4375 4364 4285 4269 4271 4330 4383 4344 4273 4279 4260 4319 4405 4337 4296 4291 4251 4320 4390 4393 4291 4299 4274 4293 4386 4411 4294 4274 4266 4347 4419 4424 4281 4291 4284 4321 4378 4384 4304 4277 4292 4323 4428 4405 4293 4287 4284 4314 4390 4422 4293 4294 4271 4338 4431 4429 4288 4305 4273 4331 4439 4371 4288 4313 4276 4362 4413 4450 4299 4309 4292 4333 4439 4366 4285 4294 4331 4328 4428 4397 4308 4314 4310 4338 4460 4405 4296 4297 4309 4344 4448 4403 4319 4302 4285 4350 4440 4433 4296 4312 4316 4374 4454 4377 4329 4322 4311 4376 4438 4388 4316 4322 4296 4367 4442 4390 4301 4324 4319 4381 4451 4403 4298 4342 4325 4397 4447 4407 4317 4311 4311 4389 4432 4406 4308 4327 4320 4390 4463 4458 4322 4322 4333 4396 4472 4406 4337 4340 4313 4396 4458 4429 4328 4357 4348 4389 4458 4411 4338 4337 4404 4393 4470 4428 4329 4344 4313 4377 4472 4407 4340 4346 4347 4410 4479 4465 4339 4375 4325 4405 4475 4405 4364 4333 4331 4417 4469 4494 4368 4364 4412 4425 4501 4431 4361 4360 4373 4417 4485 4486 4386 4380 4364 4442 4488 4440 4368 4362 4335 4426 4520 4439 4369 4366 4353 4429 4492 4489 4378 4407 4352 4426 4513 4448 4375 4396 4352 4464 4506 4452 4394 4377 4382 4427 4525 4458 4381 4392 4414 4418 4515 4486 4384 4415 4436 4436 4515 4467 4393 4379 4372 4437 4512 4456 4403 4385 4388 4455 4545 4466 4408 4415 4381 4463 4538 4509 4412 4401 4379 4473 4558 4524 4393 4403 4371 4461 4524 4480 4404 4426 4402 4456 4557 4507 4394 4407 4386 4475 4460 4506 4396 4416 4408 4474 4567 4525 4402 4394 4392 4469 4527 4543 4408 4393 4399 4489 4532 4507 4421 4418 4399 4469 4550 4529 4404 4407 4398 4495 4559 4526 4415 4413 4422 4509 4441 4530 4407 4425 4415 4526 3988 4545 4424 4411 4403 4521 4324 4546 4416 4419 4418 4515 4565 4537 4423 4433 4441 4491 4437 4537 4412 4444 4425 4516 3658 4531 4418 4427 4394 4521 4585 4553 4439 4443 4418 4512 4457 4545 4442 4455 4427 4527 4109 4556 4436 4430 4480 4524 3763 4543 4451 4438 4447 4546 3184 3426 4437 4449 4419 4516 2626 4554 4460 4450 4436 4525 3085 4550 4453 4463 4431 4529 3190 4338 4470 4437 4421 4542 3543 3873 4456 4460 4428 4546 2959 4574 4476 4444 4458 4554 3087 3304 4453 4450 4420 4546 2961 4228 4486 4511 4449 3870 2878 4337 4479 4477 4458 4547 2514 3411 4491 4480 4487 4572 2391 3873 4491 4479 4451 4561 2059 3561 4485 4490 4438 4556 2171 3755 4500 4487 4497 4554 2178 3430 4498 4500 4477 4571 1945 3673 4502 4501 4466 4570 1955 3437 4497 4506 4477 4566 1618 3095 4505 4496 4494 4562 1608 3312 4497 4529 4552 4595 1722 2986 4493 4512 4499 4558 1502 2632 4531 4513 4539 4246 1739 2179 4510 4509 4483 4454 1382 2413 4503 4505 4494 4253 1512 2064 4511 4506 4517 3888 1390 2522 4521 4525 4501 3882 1154 1946 4527 4512 4494 3913 1277 2290 4520 4510 4509 2887 1276 2175 4527 4539 4566 2982 1162 2064 4524 4539 4522 3102 1049 2180 4534 4500 4532 3217 1046 1958 4528 4517 3896 2989 1047 1843 4544 4543 4527 2657 928 1718 4541 4559 4524 2788 1048 1844 4524 4537 4517 2535 935 1606 4529 4528 4553 2524 933 1497

Tree=0
num_leaves=39
num_cat=0
split_feature=5 10 46 22 22 71 45 15 19 44 2 13 15 5 44 15 15 15 10 19 15 79 19 59 5 10 10 49 6 46 22 13 10 10 45 71 103 42
split_gain=835.543 282.094 286.572 235.691 173.681 166.916 122.896 115.938 133.259 75.6266 57.4276 55.8552 42.7033 41.005 40.5176 38.2139 36.569 56.221 29.6948 26.1484 20.7788 19.0048 18.6288 16.7948 15.4036 14.7862 34.4379 14.4577 14.2892 14.2863 13.0073 10.5808 10.0835 9.25264 11.0141 9.0313 9.12106 8.39919
threshold=15.213196831721808 0.74536832911843598 29.206567557128174 0.93439957662379902 0.93439957662379902 0.11515547154824017 4.8506809777360695 0.97334714843803705 15.101462439902699 26.588588306501926 2.089851841610892 74.085902613906399 0.089527818226403308 28.937382391983437 27.877682352679983 0.877063646936315 0.10534289637312096 0.81902853255140617 1.0578766284057763 36.327871192074461 0.877063646936315 20580789779809108 37.485046101823166 6.5198556855581122 8.2243558536253989 1.0756361262134997 1.0584014831819362 43.589626108209465 23.797153882139469 5.304405019043763 0.044450071798759809 9.1483375612730651 1.0578766284057763 0.5326976499557986 2.5564339918510073 0.73822558118950143 1.1415992895997775 3286967447.5913033
decision_type=2 2 2 2 2 2 2 2 2 2 2 2 2 2 2 2 2 2 2 2 2 2 2 2 2 2 2 2 2 2 2 2 2 2 2 2 2 2
left_child=1 11 3 6 5 13 7 8 12 19 14 21 24 -2 18 -14 -10 -18 27 20 -4 -1 -11 30 -3 26 -22 -9 -17 -25 -16 -24 -19 -7 -35 -27 -37 -8
right_child=4 2 9 -5 -6 33 37 10 16 22 -12 -13 15 -15 23 28 17 32 -20 -21 25 -23 31 29 -26 35 -28 -29 -30 -31 -32 -33 -34 34 -36 36 -38 -39
leaf_value=-0.83563715101418745 -0.81742408360622143 -0.70276080298988486 -0.80713913479942268 -0.83827195280919164 -0.83336657182025742 -0.63813240846067709 -0.83483312902313467 -0.6022583391906603 -0.53036496150378465 -0.82505519044655384 -0.80968058933083242 -0.54640178396760797 -0.82479454241535222 -0.57546245012932407 -0.55770249811501238 -0.72292673254602902 -0.81742408360622143 -0.66167823720756114 -0.53141404835661399 -0.58319214138461428 -0.75658234287102244 -0.65481070382305329 -0.6047758177359247 -0.5788318027277839 -0.5249221611524264 -0.83827195280919153 -0.54319441947484326 -0.77155877135968676 -0.55474093164879601 -0.73491350267615596 -0.6594032779083453 -0.77870661222927662 -0.54126121347920431 -0.51028873856999413 -0.62824897417186154 -0.63300062527225365 -0.79278569272998378 -0.70484558991018198
leaf_weight=189.76759502291679 23.983266353607178 9.5933065414428729 22.484312206506729 61.157329201698303 20.385776400566101 5.9958165884017935 29.079710453748703 31.77782791852951 50.664650171995163 158.88913959264755 10.492679029703138 7.1949799060821524 59.358584225177765 9.893097370862959 32.0776187479496 32.0776187479496 14.389959812164305 10.192888200283049 175.97721686959267 15.289332300424574 14.689750641584398 5.9958165884017935 5.9958165884017935 8.0943523943424243 9.893097370862959 8.0943523943424243 15.589123129844664 5.9958165884017935 5.9958165884017935 21.28514888882637 20.685567229986191 8.3941432237625104 21.88473054766655 358.25004115700722 8.0943523943424207 7.794561564922331 6.5953982472419739 5.9958165884017935
leaf_count=633 80 32 75 204 68 20 97 106 169 530 35 24 198 33 107 107 48 34 587 51 49 20 20 27 33 27 52 20 20 71 69 28 73 1195 27 26 22 20
internal_value=-0.667085 -0.713762 -0.689263 -0.651949 -0.548541 -0.534247 -0.631436 -0.619225 -0.675694 -0.776486 -0.579775 -0.820042 -0.74761 -0.746763 -0.571622 -0.774638 -0.589127 -0.653197 -0.548682 -0.702416 -0.72664 -0.830099 -0.815188 -0.631315 -0.612473 -0.692337 -0.646719 -0.629131 -0.696441 -0.691911 -0.597574 -0.706235 -0.579525 -0.514912 -0.512895 -0.753769 -0.706235 -0.812613
internal_weight=0 1083.44 880.486 616.67 426.602 406.217 555.512 520.437 214.051 263.816 306.386 202.958 116.918 33.8764 295.894 97.432 97.1322 46.4676 213.751 90.5368 75.2475 195.763 173.279 82.1427 19.4864 52.7632 30.2789 37.7736 38.0734 29.3795 52.7632 14.39 32.0776 372.34 366.344 22.4843 14.39 35.0755
internal_count=5037 3614 2937 2057 1423 1355 1853 1736 714 880 1022 677 390 113 987 325 324 155 713 302 251 653 578 274 65 176 101 126 127 98 176 48 107 1242 1222 75 48 117
is_linear=0
shrinkage=1


Tree=1
num_leaves=39
num_cat=0
split_feature=45 10 2 85 39 86 5 15 66 26 37 5 68 22 49 45 83 46 89 71 15 15 69 66 9 49 96 10 72 66 26 5 76 46 89 8 75 6
split_gain=1029.07 646.275 367.675 103.893 73.1133 60.3021 49.2427 39.628 35.5366 31.5792 27.8974 22.8771 24.3204 30.0804 28.0247 21.6297 19.9549 19.4717 18.318 17.6268 38.0107 30.8806 17.14 28.3268 19.5508 17.0524 15.0347 14.334 14.0682 13.0285 11.9379 11.6772 9.50873 9.11904 3.38326 1.65259 1.50561 2.23639
threshold=4.8506809777360695 0.61713812902190923 2.089851841610892 0.26392646883585774 1536795543.2580378 14765724358880.982 7.4002165406490779 1.01700210107067 15576468843659.17 137306.96597250708 164526.382888263 9.4220716618248321 132122.10297295987 0.072779026753170717 -2.0016356115211273 2.5564339918510073 0.33943903175462903 18.240877412642458 294950101.78144962 0.076721452428120271 1.0327878881053938 0.87945438308392132 243816.2368728953 -3507517371253.2612 -380085791050510.56 10.827398421475534 -185632.9216192773 1.0824145204034883 460638.57995378767 16569171420086.213 58140.733938714016 9.1925177223140242 4.7601889514896589 21.28105237561957 -402716161.76799482 802870.95814871194 706.24165744323625 8.888250921815084
decision_type=2 2 2 2 2 2 2 2 2 2 2 2 2 2 2 2 2 2 2 2 2 2 2 2 2 2 2 2 2 2 2 2 2 2 2 2 2 2
left_child=1 5 15 6 9 7 8 10 -2 -4 25 12 16 14 29 19 -12 -16 -8 20 21 30 33 24 -24 31 -25 35 -28 -14 -3 -1 -7 -13 -5 -22 -21 -38
right_child=3 2 4 34 -6 32 18 -9 -10 -11 11 22 13 -15 17 -17 -18 -19 -20 36 27 -23 23 26 -26 -27 28 -29 -30 -31 -32 -33 -34 -35 -36 -37 37 -39
leaf_value=-1.4581214415446424 -1.4847658143030888 -2.0296432372133113 -1.4581214415446422 -1.5900110866989512 -2.2117765567121177 -2.0809336547733199 -2.2955160139529482 -2.2722550536082733 -1.9856800221618753 -1.8977535920590032 -1.4581214415446435 -2.3007497300305002 -1.6007048417114622 -2.1775195060226871 -2.1508751332642411 -2.0442976422304566 -1.8489055753351853 -1.8413904958392133 -1.9291558885243145 -2.3340242733722709 -2.3373857425733635 -1.8702765826518555 -2.0024279136100414 -2.2955160139529482 -1.6209481639573688 -1.9377201511966722 -1.8098271619561304 -2.0736064522647473 -2.1615328823676192 -1.8977535920590032 -2.3014974037558646 -1.7639525027720238 -2.3159402718165656 -2.0296432372133113 -1.4581214415446422 -2.2494593124704916 -2.3373857425733635 -2.2054960974190556
leaf_weight=2.3883603215217581 3.7531376481056231 2.2746288776397687 5.800303637981413 2.2746288776397714 2.3883603215217581 2.7295546531677237 2.388360321521759 3.0707489848136893 2.2746288776397705 2.2746288776397705 2.2746288776397732 2.7295546531677273 4.2080634236335763 3.7531376481056204 3.7531376481056213 2.7295546531677237 3.0707489848136902 4.4355263113975525 3.1844804286956787 416.48454749584198 35.48421049118042 3.6394062042236328 2.388360321521759 2.3883603215217599 3.0707489848136911 2.5020917654037476 2.274628877639767 2.2746288776397696 2.2746288776397705 2.2746288776397705 5.5728407502174377 2.6158232092857361 4.6629891991615295 2.2746288776397705 13.420310378074642 2.2746288776397696 2.9570175409317008 2.2746288776397705
leaf_count=21 33 20 51 20 21 24 21 27 20 20 20 24 37 33 33 24 27 39 28 3662 312 32 21 21 27 22 20 20 20 20 49 23 41 20 118 20 26 20
internal_value=-2.24417 -2.27415 -2.3121 -1.64497 -1.72572 -1.96201 -1.87189 -1.92384 -1.67379 -1.58196 -1.90186 -1.93419 -1.87041 -1.92489 -1.86027 -2.32499 -1.68261 -1.98324 -2.08617 -2.32661 -2.27139 -2.11104 -2.02131 -1.95825 -1.78785 -1.72457 -2.09234 -2.3174 -1.98568 -1.70493 -2.2227 -1.61799 -2.22917 -2.17752 -1.47724 -2.33209 -2.33335 -2.28004
internal_weight=0 545.57 486.429 27.2955 10.4633 59.1404 11.6006 51.7478 6.02777 8.07493 48.6771 41.1708 23.7699 18.4245 14.6714 475.966 5.34538 8.18866 5.57284 473.237 51.5203 11.4869 17.4009 12.3967 5.45911 7.50628 6.93762 40.0335 4.54926 6.48269 7.84747 5.00418 7.39254 5.00418 15.6949 37.7588 421.716 5.23165
internal_count=5037 4797 4277 240 92 520 102 455 53 71 428 362 209 162 129 4185 47 72 49 4161 453 101 153 109 48 66 61 352 40 57 69 44 65 44 138 332 3708 46
is_linear=0
shrinkage=1


Tree=2
num_leaves=39
num_cat=0
split_feature=71 46 10 45 44 44 5 45 46 71 9 10 46 5 33 36 71 71 40 10 59 28 67 37 72 72 76 26 48 39 72 91 86 6 6 44 43 30
split_gain=904.462 552.026 247.569 190.577 143.22 63.7214 63.0223 65.3812 65.3985 39.4716 29.1352 26.4953 24.9689 22.0765 21.8419 21.1344 19.7774 43.9049 19.2619 19.2538 19.1175 19.7949 18.1937 17.0178 27.3838 20.3509 16.6478 15.975 16.0666 15.7333 16.8881 15.0817 14.3104 12.3868 14.804 7.74398 10.1044 10.1284
threshold=0.99014321174407871 38.022433685412388 0.61713812902190923 2.5564339918510073 37.975915956663407 33.406595378806621 15.213196831721808 1.4999531494202383 21.28105237561957 0.81091148229445154 5094894178162848 1.050571427305429 90.360459186542542 6.4901949981944176 3.8788862914954194 7929897135879.1475 0.28968463785805376 0.086272622720993855 36147.511207757227 1.0615652622981122 17.158844949515586 314.67381963495842 -36.658186774416031 190619.83990312796 206449.86345884312 3874524.3909770884 11.122908496146565 50109.905585394205 84092239.205448076 644709923.02325463 1877878.4110933065 -222553285348.69131 2094925810439.2632 15.804141239319978 36.634921571909068 20.641372659088759 -1562734.6829126182 15.944477301355468
decision_type=2 2 2 2 2 2 2 2 2 2 2 2 2 2 2 2 2 2 2 2 2 2 2 2 2 2 2 2 2 2 2 2 2 2 2 2 2 2
left_child=1 2 10 4 11 9 7 8 16 19 18 29 -6 -11 -10 26 17 -7 -1 20 33 -22 -20 32 27 -26 -13 -25 -29 30 -3 -27 -24 -4 -35 -21 -37 -38
right_child=-2 3 5 -5 12 6 -8 -9 14 13 -12 15 -14 -15 -16 -17 -18 -19 22 35 21 -23 23 24 25 31 -28 28 -30 -31 -32 -33 -34 34 -36 36 37 -39
leaf_value=-1.8004635398748694 -1.9181630436294579 -1.5396298393393946 -1.8665708524993461 -1.9078206242478712 -1.3176720257812542 -1.8110772516253821 -1.9115799295592493 -1.9076351322094809 -1.5956375236369056 -1.4278043273013132 -1.8693347361226407 -1.5862238026885951 -1.5971744576692828 -1.7957463346524194 -1.3505819306967601 -1.7344226667605684 -1.8462481787986498 -1.410887453400113 -1.748050148514313 -1.9068231670603006 -1.5095692178237812 -1.8347704869472337 -1.7821188528986747 -1.462846423239514 -1.3705689039355857 -1.4320335457766133 -1.3051569915176113 -1.5679727110541157 -1.751147303458346 -1.8745910505133707 -1.8264081685983449 -1.6768155848015569 -1.5460714010927403 -1.6298117038862343 -1.8626448814435297 -1.706119435425868 -1.8884796860986333 -1.7344226667605684
leaf_weight=4.2397985160350791 433.60093285143375 5.5443519055843371 34.733733996748924 9.4580120742320997 47.942337065935135 6.5227669477462786 14.676225632429121 9.2949429005384427 6.1966286003589621 3.2613834738731375 4.0767293423414221 3.9136601686477643 3.4244526475667945 3.2613834738731384 8.805735379457472 3.2613834738731375 8.3165278583765012 4.7290060371160507 5.8704902529716483 69.141329646110535 3.9136601686477652 3.5875218212604523 5.8704902529716474 5.7074210792779949 12.230188027024271 4.7290060371160507 4.5659368634223938 10.273357942700388 8.9688045531511289 4.5659368634223929 3.2613834738731384 5.3812827318906766 4.5659368634223938 5.5443519055843336 5.3812827318906784 4.2397985160350791 33.429180607199669 4.8920752108097068
leaf_count=26 2659 34 213 58 294 40 90 57 38 20 25 24 21 20 54 20 51 29 36 424 24 22 36 35 75 29 28 63 55 28 20 33 28 34 33 26 205 30
internal_value=-1.81893 -1.70796 -1.77163 -1.48436 -1.43199 -1.82228 -1.7322 -1.67219 -1.60888 -1.85304 -1.60969 -1.6277 -1.33631 -1.61178 -1.4518 -1.51809 -1.72931 -1.64288 -1.59409 -1.86259 -1.81305 -1.6651 -1.58033 -1.56327 -1.53776 -1.45735 -1.43488 -1.60977 -1.65335 -1.72395 -1.64584 -1.56232 -1.67885 -1.83736 -1.74449 -1.88617 -1.85261 -1.86881
internal_weight=0 387.778 301.841 85.9375 76.4794 229.928 58.5418 43.8656 34.5707 171.386 71.9135 25.1127 51.3668 6.52277 15.0024 11.741 19.5683 11.2518 67.8368 164.863 53.1606 7.50118 63.597 57.7265 47.2901 22.3405 8.4796 24.9496 19.2422 13.3717 8.80574 10.1103 10.4364 45.6594 10.9256 111.702 42.5611 38.3213
internal_count=5037 2378 1851 527 469 1410 359 269 212 1051 441 154 315 40 92 72 120 69 416 1011 326 46 390 354 290 137 52 153 118 82 54 62 64 280 67 685 261 235
is_linear=0
shrinkage=1


Tree=3
num_leaves=35
num_cat=0
split_feature=15 15 5 5 19 31 45 19 15 71 5 10 19 31 75 15 30 5 46 10 6 12 3 3 36 0 6 0 0 0 0 0 0 0
split_gain=900.969 1675.31 320.141 142.419 75.3057 51.1726 37.9316 34.8755 27.3166 27.6062 52.9348 45.968 56.2644 48.1783 33.222 17.7226 12.2888 8.27097 19.0158 2.81395 2.06267 0.787375 1.10853 0.457011 0.260233 4.54747e-13 2.27374e-13 2.84217e-14 7.10543e-15 3.55271e-15 3.55271e-15 8.88178e-16 8.88178e-16 8.88178e-16
threshold=0.60693311258062255 0.10534289637312096 6.9532524063937737 14.736129395260376 35.562594611123153 61.351406644822575 1.1881674797881885 -5.6160948900112979 0.91012269573823967 0.73822558118950143 11.318939664171713 0.98368208819115488 23.945329838177756 61.351406644822575 439.50480178540198 0.084264649235722064 3.017574375145454 13.562092595282513 20.215075942074833 1.079420910756512 -4.4944647623642355 531903.66518658609 0.7009974479252602 0.11826082672718395 -2000231154141.9871 49.905046803010102 -2.8951174565417417 112.0013396183685 92.144131696929733 81.532347787745266 46.179403854668728 64.68766783099305 71.653856963565644 317.02914559000038
decision_type=2 2 2 2 2 2 2 2 2 2 2 2 2 2 2 2 2 2 2 2 2 2 2 2 2 2 2 2 2 2 2 2 2 2
left_child=1 2 4 6 5 -1 21 -4 9 29 11 31 13 16 -15 -7 -13 18 20 -14 -9 25 -23 -12 -17 -3 -27 -10 -19 -2 -25 -11 -22 -29
right_child=8 3 7 -5 -6 15 -8 17 27 10 23 12 19 14 -16 24 -18 28 -20 -21 32 22 -24 30 -26 26 -28 33 -30 -31 -32 -33 -34 -35
leaf_value=-2.1728898856956982 -2.4980572291370304 -1.4819092808828682 -2.1374886023371662 -2.3964424343116142 -2.4133782334491833 -1.8323051251084408 -1.9053042593221017 -2.4027933589882027 -2.4980572291370304 -2.4980572291370304 -2.4472498317243221 -2.11095324884973 -2.3456350368989058 -1.5907822753386704 -2.0775822160663422 -1.4819092808828667 -2.4518686860345684 -2.4980572291370304 -2.182700969334014 -2.4980572291370304 -2.4980572291370304 -1.5835240757082831 -1.4819092808828671 -2.4980572291370304 -1.5327166782955759 -1.4819092808828684 -1.4819092808828662 -2.4980572291370304 -2.4980572291370304 -2.4980572291370304 -2.4980572291370304 -2.4980572291370304 -2.4980572291370304 -2.4980572291370304
leaf_weight=2.4602716788649541 27.948686271905899 6.9871715679764845 3.0507368817925444 1.9682173430919636 2.3618608117103568 2.8539151474833488 2.3618608117103568 3.1491477489471427 291.29616677761078 4.0348455533385303 1.9682173430919672 2.0666282102465612 1.9682173430919636 2.7555042803287506 2.8539151474833488 2.0666282102465621 2.1650390774011612 57.078302949666977 2.853915147483348 3.1491477489471436 5.7078302949666959 1.9682173430919636 2.3618608117103577 3.6412020847201374 1.9682173430919654 6.0030628964305022 12.006125792860976 3.6412020847201338 4.9205433577299109 4.9205433577299109 13.974343135952948 1.9682173430919645 2.4602716788649559 2.7555042803287506
leaf_count=25 284 71 31 20 24 29 24 32 2960 41 20 21 20 28 29 21 22 580 29 32 58 20 24 37 20 61 122 37 50 50 142 20 25 28
internal_value=-2.40647 -2.17379 -2.39688 -1.57105 -1.90886 -1.78141 -1.51978 -2.46902 -2.48458 -2.42995 -2.37474 -2.2643 -2.17048 -2.03063 -1.83845 -1.64159 -2.28538 -2.4823 -2.41338 -2.43943 -2.47155 -1.48873 -1.5281 -2.49295 -1.50669 -1.48191 -1.48191 -2.49806 -2.49806 -2.49806 -2.49806 -2.49806 -2.49806 -2.49806
internal_weight=0 124.588 90.9316 33.6565 11.7109 9.34903 31.6883 79.2207 371.107 73.4145 40.5453 20.9615 14.9585 9.84109 5.60942 6.88876 4.23167 76.17 14.1712 5.11737 11.3172 29.3264 4.33008 19.5838 4.03485 24.9964 18.0092 297.693 61.9988 32.8692 17.6155 6.00306 8.1681 6.39671
internal_count=5037 1266 924 342 119 95 322 805 3771 746 412 213 152 100 57 70 43 774 144 52 115 298 44 199 41 254 183 3025 630 334 179 61 83 65
is_linear=0
shrinkage=1


Tree=4
num_leaves=23
num_cat=0
split_feature=10 10 33 10 49 6 49 71 5 15 46 50 5 3 85 50 0 0 0 2 2 6
split_gain=885.499 2212.3 142.43 40.4487 91.0207 53.7019 26.7659 18.5099 43.0301 43.1013 8.3813 6.8719 10.8771 6.70233 2.77046 0.734959 2.84217e-14 3.55271e-15 1.77636e-15 8.88178e-16 8.88178e-16 8.88178e-16
threshold=0.91713642476574231 0.54216312502323516 28.327566285626165 0.99538541499616739 64.133900628332682 5.8000900120559225 6.0177402770747621 1.0257924790635238 7.7570097108767966 1.0436271399155181 32.37649656189712 1.8096633651933167 7.5502244244215486 0.79278502196152345 0.081466693677685262 0.071313936792816363 97.585444388484618 76.066941405782799 67.454457859253296 1.1344907331766223 1.1058496756649816 -6.4901661906264403
decision_type=2 2 2 2 2 2 2 2 2 2 2 2 2 2 2 2 2 2 2 2 2 2
left_child=1 17 6 4 7 -6 -3 15 9 13 14 -8 -13 -9 21 -2 -5 -1 -17 20 -18 -10
right_child=3 2 -4 16 5 -7 11 8 10 -11 -12 12 -14 -15 -16 18 19 -19 -20 -21 -22 -23
leaf_value=-2.9639043517658861 -2.8855890731076799 -1.8122090773805075 -2.5367301045393087 -2.9639043517658861 -1.8451146566486598 -2.7401464127424409 -1.397598778601769 -2.9639043517658856 -2.9639043517658861 -2.206014558299378 -2.6915033825199526 -1.3975987786017692 -1.7891751718927991 -2.6506432371330626 -2.8072737944494741 -2.9639043517658861 -2.9639043517658861 -2.9639043517658861 -2.9639043517658861 -2.9639043517658861 -2.9639043517658861 -2.9639043517658861
leaf_weight=26.240090310573578 1.2768900394439722 2.1707130670547512 1.4045790433883656 221.47657734155655 1.3407345414161675 1.340734541416168 10.789720833301542 1.4684235453605681 2.5537800788879386 1.9791795611381529 1.4684235453605641 1.5961125493049615 1.2768900394439695 1.2768900394439695 1.2768900394439686 13.535034418106081 3.6391366124153119 7.5336512327194205 5.9375386834144583 1.4045790433883665 3.3837586045265198 7.2144287228584281
leaf_count=411 20 34 22 3469 21 21 169 23 40 31 23 25 20 20 20 212 57 118 93 22 53 113
internal_value=-2.87559 -2.49342 -1.57163 -2.94764 -2.85571 -2.29263 -1.48602 -2.89546 -2.81888 -2.56174 -2.91596 -1.43419 -1.57163 -2.8182 -2.9458 -2.95908 -2.9639 -2.9639 -2.9639 -2.9639 -2.9639 -2.9639
internal_weight=0 51.0118 17.238 270.573 40.6689 2.68147 15.8334 37.9875 17.238 4.72449 12.5135 13.6627 2.873 2.74531 11.0451 20.7495 229.904 33.7737 19.4726 8.42747 7.0229 9.76821
internal_count=5037 799 270 4238 637 42 248 595 270 74 196 214 45 43 173 325 3601 529 305 132 110 153
is_linear=0
shrinkage=1


Tree=5
num_leaves=33
num_cat=0
split_feature=22 22 10 15 71 5 99 76 28 23 102 42 3 5 69 5 5 48 18 26 97 61 0 0 0 0 2 39 0 0 2 0
split_gain=3483.34 31.9929 33.4491 26.6388 45.6722 41.4128 27.4796 5.04537 4.46322 4.00545 1.40573 0.922469 1.43174 0.58248 0.427057 0.951886 2.86532 5.9001 1.96673 7.53764 0.588723 0.352727 2.84217e-14 7.10543e-15 3.55271e-15 3.55271e-15 1.77636e-15 1.77636e-15 8.88178e-16 8.88178e-16 8.88178e-16 4.44089e-16
threshold=0.93439957662379902 0.17052972218315282 1.0743856191063297 1.01700210107067 1.0136088591256387 18.413250344878538 231.93917354751068 -16.165054407079982 220.37435790364032 287.86487632129217 94.775700366907856 -3188213539.6353049 0.49099268655960965 18.413250344878538 513602.3151845765 12.711067217137217 14.128391419740973 14097270.389453491 113140.18295799039 125343.11235250342 -30.205569423411596 1066854.2763446805 90.815700039235324 75.335038138699531 74.263474597387912 75.335038138699531 1.1073540169319014 -52129577.299276643 71.448855968065729 62.469177558714996 1.1000924381031982 63.038824379281166
decision_type=2 2 2 2 2 2 2 2 2 2 2 2 2 2 2 2 2 2 2 2 2 2 2 2 2 2 2 2 2 2 2 2
left_child=1 14 7 8 9 6 -6 -3 -4 -5 -9 12 -12 -2 20 21 17 -17 19 29 -1 23 -22 -16 27 -20 30 -13 -10 -18 -24 -11
right_child=13 2 3 4 5 -7 -8 10 28 31 11 24 -14 -15 15 16 18 -19 25 -21 22 -23 26 -25 -26 -27 -28 -29 -30 -31 -32 -33
leaf_value=-2.6606283558239601 -1.4738270408979781 -2.5591759853544813 -2.5330472144694172 -2.5330472144694172 -2.3983835491387029 -2.6720399069290179 -1.9531121873103938 -2.6309583229508107 -2.7199684215702593 -2.7199684215702593 -2.5953542835030312 -2.7199684215702593 -2.7199684215702593 -1.5361341099315919 -2.7199684215702593 -2.4707401454358031 -2.7199684215702593 -2.7199684215702593 -2.7199684215702593 -2.4707401454358031 -2.7199684215702593 -2.6833172044916629 -2.7199684215702593 -2.7199684215702593 -2.7199684215702593 -2.7199684215702593 -2.7199684215702593 -2.7199684215702593 -2.7199684215702593 -2.7199684215702593 -2.7199684215702593 -2.7199684215702593
leaf_weight=1.6852020174264897 23.031094238162044 2.4876791685819617 1.604954302310946 1.6049543023109416 2.4876791685819626 2.0864405930042267 3.12966088950634 2.2469360232353237 4.5741197615861893 1.7654497325420377 1.6049543023109465 9.1482395231723874 2.1666883081197739 1.6049543023109425 55.451171144843102 1.6049543023109429 2.5679268836975089 2.3271837383508682 21.987873941659931 1.6049543023109434 200.13780149817467 2.7284223139286032 1.6049543023109416 14.364341005682943 6.9013034999370566 5.8580832034349433 5.1358537673950195 9.1482395231723732 1.6852020174264906 2.4074314534664154 5.2161014825105667 2.246936023235321
leaf_count=21 287 31 20 20 31 26 39 28 57 22 20 114 27 20 691 20 32 29 274 20 2494 34 20 179 86 73 64 114 21 30 65 28
internal_value=-2.63016 -2.70495 -2.63434 -2.53588 -2.44972 -2.29161 -2.1503 -2.69623 -2.68182 -2.66656 -2.70715 -2.71306 -2.66694 -1.47789 -2.71689 -2.71185 -2.69911 -2.61824 -2.70835 -2.65918 -2.7195 -2.71859 -2.71997 -2.71997 -2.71997 -2.71997 -2.71997 -2.71997 -2.71997 -2.71997 -2.71997 -2.71997
internal_weight=0 379.572 54.8894 21.1854 13.3211 7.70378 5.61734 33.704 7.86428 5.61734 31.2164 28.9694 3.77164 24.636 324.682 110.902 38.3584 3.93214 34.4263 6.58031 213.78 72.5439 212.095 69.8155 25.1978 27.846 11.9569 18.2965 6.25932 4.97536 6.82106 4.01239
internal_count=5037 4730 684 264 166 96 70 420 98 70 389 361 47 307 4046 1382 478 49 429 82 2664 904 2643 870 314 347 149 228 78 62 85 50
is_linear=0
shrinkage=1


Tree=6
num_leaves=39
num_cat=0
split_feature=5 10 46 22 22 71 45 15 15 15 44 101 2 5 5 44 19 5 90 10 6 19 19 46 6 95 19 22 18 22 71 44 45 42 46 85 71 10
split_gain=623.299 215.23 216.992 165.659 123.072 105.614 80.418 77.2023 94.1605 76.9368 67.0792 45.7904 32.4291 32.0907 30.6756 25.4275 23.0561 20.6989 19.5325 18.3163 17.1261 16.1157 15.3418 14.4788 12.1054 12.0294 10.6496 10.4254 8.58561 7.7309 7.39078 6.84394 6.46743 6.40975 6.22215 5.80017 8.40745 9.85328
threshold=15.580051629960613 0.74536832911843598 25.485086442187733 0.93439957662379902 0.93439957662379902 0.11515547154824017 4.8506809777360695 0.98830419098322186 0.10227953777292635 0.877063646936315 26.761622693058062 1653020050.7985122 2.089851841610892 4.6372075363755849 28.937382391983437 27.877682352679983 33.959898182796842 12.282192286628488 758339.55414988613 1.0578766284057763 39.116810135816969 23.64686854179347 54.13370231040453 1.0000000180025095e-35 14.031578672342304 123.28533728979052 2.7705619698322113 -0.018989818625701049 351085.62481807469 0.17052972218315282 1.0052815635421701 8.0874752391436413 2.5564339918510073 3192653823.9877453 28.806365265780048 0.081466693677685262 0.10946319083797791 1.0644349064743082
decision_type=2 2 2 2 2 2 2 2 2 2 2 2 2 2 2 2 2 2 2 2 2 2 2 2 2 2 2 2 2 2 2 2 2 2 2 2 2 2
left_child=1 11 3 6 5 14 7 8 13 -10 16 18 15 -3 -2 19 20 22 -1 31 27 24 34 -17 -11 -25 -15 28 -4 -18 -19 -9 -7 -8 -12 36 37 -29
right_child=4 2 10 -5 -6 32 33 12 9 21 17 -13 -14 26 -16 23 29 30 -20 -21 -22 -23 -24 25 -26 -27 -28 35 -30 -31 -32 -33 -34 -35 -36 -37 -38 -39
leaf_value=-0.14492475300262639 -0.13200591346056814 -0.083807689924960349 0.070220059541132279 -0.14250239107965876 -0.13824518854807438 0.13791090568218936 -0.14144519823980015 0.11230210041563471 -0.13451150605997586 -0.038600892360917925 -0.078951985639757971 0.11892395488261619 -0.11076502153322279 0.013790284823077767 0.083913300322031856 0.12637471734848213 0.10869419483392123 -0.086425331499391439 0.03108434692387024 0.12279895020818972 0.12195598876079178 0.095098641477127793 0.027667401858610371 -0.01912903490513862 0.090570479909835064 0.079222548231964368 0.13135293165306594 -0.082038178274341261 -0.069155169891129145 -0.023228471502989293 0.059876042572508427 0.011633538470113365 0.054569372190826818 -0.025724423230783923 -0.13838154625805596 -0.11739089068796896 -0.075589122409077517 0.089481809721683847
leaf_weight=188.5855179131031 19.877130001783375 9.2152346372604352 10.967426478862764 55.06587091088295 19.279650390148163 347.94464859366417 24.068596452474598 9.5189461410045606 58.272868007421494 34.080982536077499 19.842134833335876 7.1326192319393149 8.2366937398910505 8.9119156002998334 9.8355522751808149 14.856836587190626 15.425467669963838 5.9137220978736869 6.5231387913227072 163.5436689555645 5.9131654798984519 21.326160907745361 6.2526514232158652 35.754013687372208 9.2173502147197706 19.068416684865952 56.916002333164215 5.9411000013351423 7.403197467327117 6.2387180626392356 8.2982725799083692 23.244336128234863 9.5672924518585187 5.9746834337711325 157.10649305582047 19.21077024936676 42.6647889316082 7.6773867607116699
leaf_count=643 67 31 37 189 66 1185 82 32 198 114 67 24 28 30 33 50 52 20 22 555 20 72 21 120 31 64 193 20 25 21 28 78 32 20 532 65 144 26
internal_value=0 -0.0369566 -0.0154922 0.0221523 0.108347 0.120625 0.0402063 0.0503003 0.00270614 -0.0511892 -0.0812844 -0.129942 0.0846549 0.09097 -0.0605319 0.0907064 -0.0228053 -0.117259 -0.13904 0.109127 -0.0431084 0.0239437 -0.126278 0.0388098 -0.0111029 0.0150798 0.115437 -0.0535069 0.0140531 0.0707039 -0.0010011 0.0408815 0.135681 -0.118432 -0.131717 -0.0699469 -0.0537532 0.0146558
internal_weight=0 1078.37 876.128 557.273 406.504 387.225 502.207 472.163 197.941 122.897 318.855 202.241 274.223 75.0432 29.7127 265.986 121.442 197.413 195.109 196.307 99.7778 64.6245 183.201 69.6793 43.2983 54.8224 65.8279 93.8647 18.3706 21.6642 14.212 32.7633 357.512 30.0433 176.949 75.494 56.2833 13.6185
internal_count=5037 3654 2965 1887 1383 1317 1698 1596 669 415 1078 689 927 254 100 899 410 668 665 665 337 217 620 234 145 184 223 317 62 73 48 110 1217 102 599 255 190 46
is_linear=0
shrinkage=0.1


Tree=7
num_leaves=39
num_cat=0
split_feature=45 10 2 85 86 5 71 71 10 15 43 35 69 11 104 101 82 79 14 10 82 34 48 11 101 24 9 2 10 104 71 10 6 104 18 17 51 6
split_gain=509.51 436.8 202.119 29.3696 27.1801 21.508 20.0525 15.6519 30.4468 19.0516 15.2491 14.6072 16.2422 15.7181 15.5656 14.8023 12.8688 12.2715 12.0585 11.8794 11.5941 11.4505 10.0544 9.79094 8.07528 7.91846 4.60757 4.25192 4.06125 2.78054 1.17205 4.44383 10.531 3.29072 2.33247 1.07866 0.838599 0.481374
threshold=3.3066600324236641 0.61713812902190923 1.7456015960845537 0.26392646883585774 20619811125072.645 7.4002165406490779 0.73822558118950143 0.076721452428120271 1.0372073162201254 0.97642037753234578 527936.63931644347 23.138620366258582 89556.164667519057 476.75207248890422 1.987355138230475 599651799.31363583 -5158285764.6882229 58659602112114992 -5.244493238565112 1.0821139564987325 7213329535.4056492 0.83200124034183587 156431010.02023366 277.75883332539166 78593183.634180605 2.1394356094108482 7117574219202313 2.1065031898274644 1.0718617468312519 0.97445464560307349 0.81091148229445154 0.99538541499616739 -8.3799368882940488 2.4512910250492514 518072.4056138965 57592.634400218689 4945409476314283 23.797153882139469
decision_type=2 2 2 2 2 2 2 2 2 2 2 2 2 2 2 2 2 2 2 2 2 2 2 2 2 2 2 2 2 2 2 2 2 2 2 2 2 2
left_child=1 4 7 5 11 25 27 8 9 10 -3 12 24 14 15 18 -16 22 -14 -10 -20 -13 -7 -23 -1 28 30 -4 -2 -25 31 32 -9 -34 -33 -11 -5 -32
right_child=3 2 6 36 -6 17 -8 26 19 35 -12 21 13 -15 16 -17 -18 -19 20 -21 -22 23 -24 29 -26 -27 -28 -29 -30 -31 37 34 33 -35 -36 -37 -38 -39
leaf_value=-0.035108118376745878 0.28088227410624772 0.31345726425294745 0.4166146694015247 0.37770465715597779 -0.06730795826588136 0.30278785217062915 0.093011711981177747 0.1659230606075017 -0.089402583059961099 -0.092631444079627631 0.016534359689222872 0.24216118813593879 0.16021841480374466 0.078540742304518227 0.24910443489259004 0.11319449940810203 -0.010342825248266662 -0.0952984962315752 0.28736145151347542 0.10330717613052837 0.41618143256190776 0.18107066758483595 0.025585631446237152 -0.097190313376673457 0.19867213591863286 0.18815344281843679 0.032523274023997573 0.29179201205226529 0.43026794509928801 0.040810469255569352 -0.091974289690636257 -0.090938966867342041 -0.083876804487920495 0.052507080776020912 -0.0089314359100239778 0.0044481833377479681 0.33494155816729265 -0.043387504045617017
leaf_weight=3.2492637261748305 3.3931375592947024 4.86657916754484 6.3254600912332517 24.131709977984432 3.8466059640049926 2.7554881274700156 3.6631501242518416 2.3228608891367939 34.644491888582706 2.581446573138237 2.6833289712667465 4.6667189076542845 4.6423406451940457 5.0913898572325698 4.3049790039658546 4.2711018025875083 3.4390344694256774 2.5774590596556664 19.622838854789745 3.5242052525281897 10.849706105887888 3.5690196603536588 2.491658553481102 2.9614898189902306 2.7097757905721664 4.1551546230912209 3.1978720724582663 4.7996706143021584 3.9250262454152107 2.8798258379101753 264.60631360113621 89.712274417281151 12.04634667187929 2.0736991688609114 3.6077110469341269 2.0561806857585907 5.6617231369018546 2.0549738630652419
leaf_count=24 20 33 33 117 34 20 26 22 331 24 21 29 32 35 28 30 24 20 125 27 68 24 20 21 20 26 30 27 21 20 2594 873 116 20 35 19 28 20
internal_value=0 -0.0296734 -0.0675538 0.307328 0.191707 0.211222 0.295944 -0.0800556 -0.0276704 0.109936 0.207927 0.205495 0.227611 0.24546 0.263492 0.288975 0.133887 0.0833845 0.310355 -0.0716092 0.333228 0.114089 0.171156 0.0505767 0.0711996 0.298405 -0.0870044 0.362763 0.361004 -0.0291546 -0.0880199 -0.0793226 -0.0313879 -0.0638472 -0.0877686 -0.0495893 0.369578 -0.0915999
internal_weight=0 520.871 444.767 49.0914 76.1041 19.2979 14.7883 429.978 50.3562 12.1875 7.54991 72.2575 58.1804 52.2214 47.13 39.386 7.74401 7.82461 35.1149 38.1687 30.4725 14.0771 5.24715 9.41034 5.95904 11.4733 379.622 11.1251 7.31816 5.84132 376.424 109.763 16.4429 14.12 93.32 4.63763 29.7934 266.661
internal_count=5037 4765 4251 272 514 127 86 4165 455 97 54 480 386 342 307 255 52 60 225 358 193 94 40 65 44 67 3710 60 41 41 3680 1066 158 136 908 43 145 2614
is_linear=0
shrinkage=0.1


Tree=8
num_leaves=39
num_cat=0
split_feature=71 46 10 45 46 46 44 44 85 19 30 15 59 74 5 86 23 45 71 105 7 62 69 81 44 71 71 44 2 96 69 26 26 52 83 62 103 13
split_gain=707.648 281.04 152.466 92.0226 53.2436 49.1462 46.7452 37.4145 30.1423 20.8547 27.8902 18.6647 16.6226 16.0603 13.4602 13.376 15.3778 18.0143 12.6745 12.9965 12.573 12.173 11.837 14.7943 11.7361 14.7699 25.9598 10.6796 10.2452 9.84342 9.91769 9.65472 9.63277 9.50498 9.0267 8.7823 10.8216 8.72707
threshold=0.99014321174407871 38.022433685412388 0.61713812902190923 2.5564339918510073 107.04479141318539 13.947705141398332 41.793765779055704 37.975915956663407 0.081466693677685262 18.417257789721244 14.35811230509019 1.0327878881053938 5.2751825782902575 1.5297535909720661 9.110812106297713 5533658091802.4385 339.07587293722088 0.496829467210885 0.91455097844001532 9.9390342423460059 280071180479.40009 0.49494682668413825 309394.98769013764 15.935125563756564 19.824399050196025 0.28968463785805376 0.11515547154824017 34.141531445238961 1.109945363639224 -556584.52085150476 181526.16974288021 84206.774198065381 99049.891100746361 541223.99658716877 0.29728622100904684 0.34687421717347494 0.59662491670097662 5.8937388894652596
decision_type=2 2 2 2 2 2 2 2 2 2 2 2 2 2 2 2 2 2 2 2 2 2 2 2 2 2 2 2 2 2 2 2 2 2 2 2 2 2
left_child=1 2 11 4 7 18 9 12 28 10 21 14 32 -12 15 16 -1 37 19 -4 -14 22 23 -7 -21 26 31 -23 -8 -16 -31 -26 -3 -24 -17 -32 -37 -18
right_child=-2 3 5 -5 -6 6 8 -9 -10 -11 13 -13 20 -15 29 34 17 -19 -20 24 -22 27 33 -25 25 -27 -28 -29 -30 30 35 -33 -34 -35 -36 36 -38 -39
leaf_value=0.0094698655173470273 -0.096907586498011566 0.025194591639643112 -0.077865141569749219 -0.086060702791098398 -0.079993255619556489 0.32208802547362492 0.30260788579134978 0.30698933290371977 -0.024193357772125418 -0.056408344246279302 0.29599985695533843 -0.072355480271267883 0.30015420223540779 0.056583091102028471 0.31689156257506412 0.11259569084479387 0.12157686765606163 0.027336349816429337 0.14805949047126638 -0.076846688230129037 0.085172810070561017 -0.050990524796161174 -0.026717872719826355 0.044314235301012653 -0.08145615082512847 -0.083788952137296258 0.30662594997293113 0.12715177501463257 0.11707566077879675 0.29477568474031979 0.053864114084284265 0.098482044179530298 0.21152511322460474 0.16475174902444273 0.28005073100378103 0.3071768558224392 0.14053706321973877 0.3110989968951125
leaf_weight=13.253575697541239 389.04699465632439 8.6070117056369799 73.616987958550453 8.6646994799375516 4.5765018016099921 3.5306947231292751 11.181055426597597 70.899446830153465 5.2718369513750067 28.331098735332489 6.2665341198444349 3.4552397876977912 10.285111665725706 5.0676829367876053 6.8455792963504782 5.4965571612119657 3.9837949424982089 6.8268168419599524 3.2101140171289435 14.227176859974859 3.6987717747688285 25.095017597079281 11.10659648478031 4.1961904764175415 5.4781389832496696 6.906004160642623 4.1478583663702002 3.8864766508340827 4.0560196638107291 6.4750497490167644 6.304994165897372 6.5439411550760269 4.094296693801879 3.3822351694107047 7.7690878957509995 5.5637712180614498 13.008651271462439 6.2281960099935532
leaf_count=72 2659 48 480 58 26 20 53 304 33 182 35 20 50 30 34 28 21 36 19 94 20 161 71 27 34 45 23 21 22 32 33 40 21 20 39 28 67 31
internal_value=0 0.0901125 0.0413477 0.22683 0.253368 -0.00171297 0.0455459 0.269002 0.181911 0.0147665 0.0470137 0.155303 0.168073 0.188953 0.164924 0.126927 0.0902554 0.153094 -0.0478295 -0.0534987 0.243291 0.0155906 0.0712842 0.171239 -0.00541201 0.0386301 0.090914 -0.0271013 0.25322 0.208253 0.184533 0.016489 0.0852587 0.0179783 0.210667 0.155839 0.190458 0.237165
internal_weight=0 421.539 310.713 110.826 102.161 225.502 111.371 97.5846 20.5089 90.8625 62.5314 85.2113 26.6852 11.3342 81.7561 43.558 30.2924 17.0388 114.13 110.92 13.9839 51.1972 22.2157 7.72689 37.3031 23.0759 16.1699 28.9815 15.2371 38.198 31.3525 12.0221 12.7013 14.4888 13.2656 24.8774 18.5724 10.212
internal_count=5037 2378 1851 527 469 1410 675 443 108 567 385 441 139 65 421 227 160 88 735 716 70 320 138 47 236 142 97 182 75 194 160 74 69 91 67 128 95 52
is_linear=0
shrinkage=0.1


Tree=9
num_leaves=39
num_cat=0
split_feature=15 5 15 15 15 19 15 71 5 10 19 31 19 59 19 15 46 15 28 73 12 3 5 10 71 45 10 53 16 30 12 3 19 38 40 10 46 5
split_gain=592.663 560.729 93.081 38.9058 26.2457 26.128 38.7322 24.476 38.4779 27.5386 25.1781 16.3258 14.9263 12.8505 5.41957 8.92069 15.4074 4.36227 3.49694 3.21483 3.08943 2.82132 2.20368 1.22168 0.84571 0.885061 0.546724 0.512504 0.326491 0.0857696 0.0572738 0.0315403 0.0019636 0.00152163 0.000500207 0.000261701 0.000162211 8.90236e-05
threshold=0.60693311258062255 12.160141539853312 0.072900969985212324 0.11607461905918796 0.91012269573823967 25.87196050837747 0.096615002737381911 0.73822558118950143 11.318939664171713 0.98368208819115488 23.945329838177756 35.896436011341983 1.1255829264322361 -4.4909093186084874 3.5562957882294266 0.10227953777292635 12.959021631065701 0.10534289637312096 369.18661999350587 0.83777821611645764 375713.75226129481 0.22927776278280584 13.562092595282513 1.079420910756512 0.99716499856149921 0.74196602822830215 1.0854927077187848 2.5797704427122521 -14154107079249.291 -4.0759516271141756 507070.30947013228 0.7179169470176695 -5.6160948900112979 25.047068794770777 229671.9963793346 0.54216312502323516 29.206567557128174 14.913578239032415
decision_type=2 2 2 2 2 2 2 2 2 2 2 2 2 2 2 2 2 2 2 2 2 2 2 2 2 2 2 2 2 2 2 2 2 2 2 2 2 2
left_child=1 2 12 22 7 14 23 -2 9 -9 11 -11 -1 -13 17 16 -16 19 34 -4 -12 -17 -3 -7 -19 30 32 -10 -23 -30 33 -31 -24 -26 -14 -6 -37 -38
right_child=4 3 5 -5 35 6 -8 8 27 10 20 13 18 -15 15 21 -18 24 -20 -21 -22 28 26 -25 25 -27 -28 -29 29 31 -32 -33 -34 -35 -36 36 37 -39
leaf_value=0.23675117491492897 -0.090862228377038071 -0.0074416707361587165 0.53823995483505083 0.301901428138799 -0.090900024303700117 -0.091502109039978866 0.35005360526128348 -0.090533333719073766 -0.090627103129131692 0.049577869651579724 -0.091236298097718521 0.17131597702633719 -0.093296198763139077 0.39699191148774737 0.033353920708123645 0.29150529505920292 0.34160428330734144 0.33950443864049429 0.066437018899582465 0.40573058694593761 0.073646926463217063 0.40770681560888999 -0.093458221177538908 0.019457003387399641 0.3771186453831758 0.43156630854827177 -0.03416907309630187 -0.033750009080393155 0.36577761147758403 0.38989884202515945 0.39048135646646465 0.37852958089196154 -0.090484418241883136 0.37925046043964306 -0.091338944503180211 -0.090543712921435468 -0.090775504129207762 -0.090435771757781308
leaf_weight=2.4087362661957723 30.376907788217068 3.5224102139472953 3.2899847775697699 2.7241151481866828 31.893409408628941 2.2078594565391523 6.8150902017951012 5.3386681750416782 15.864535488188269 3.5047087073326137 3.017213709652423 4.4423728883266476 2.2924539148807526 5.8404735103249505 2.3599047064781216 3.7871391326189068 5.1824280247092247 4.4960266649723044 1.8806737363338468 4.1283766850829124 1.8229793831706045 5.0663164854049763 2.3152155652642241 1.8022625073790548 17.971855878829967 3.7338910549879065 1.7702341675758351 1.7600003778934468 4.0220444425940594 4.0317949205636818 4.0284279882907859 6.1805986762046814 54.208221510052681 4.1147725731134406 3.0336307361721992 171.16295400261879 56.336694628000259 8.936670280992983
leaf_count=19 334 35 21 18 349 23 37 61 179 32 32 30 21 38 21 20 31 23 18 24 20 26 20 19 87 20 20 20 20 20 20 30 621 20 32 1948 625 103
internal_value=0 0.158433 0.315821 -0.0679524 -0.0762486 0.349858 0.204956 -0.0226239 0.0272155 0.109698 0.167084 0.235968 0.0212419 0.299496 0.371525 0.339576 0.245156 0.394957 -0.0507884 0.464497 -0.0291357 0.370421 -0.0842511 -0.0416339 0.379937 0.386027 -0.0888924 -0.0849473 0.385906 0.378147 0.379516 0.383018 -0.0906062 0.377516 -0.0921814 -0.0906311 -0.0905949 -0.090729
internal_weight=0 157.374 92.8343 64.5402 340.298 83.2188 10.8252 71.9679 41.591 23.9664 18.6277 13.7876 9.61549 10.2828 72.3936 30.6302 7.54233 41.7633 7.20676 7.41836 4.84019 23.0879 61.8161 4.01012 34.345 29.8489 58.2937 17.6245 19.3008 14.2344 26.1151 10.2124 56.5234 22.0866 5.32608 268.33 236.436 65.2734
internal_count=5037 1266 552 714 3771 462 79 746 412 213 152 100 90 68 383 168 52 215 71 45 52 116 696 42 170 147 661 199 96 70 127 50 641 107 53 3025 2676 728
is_linear=0
shrinkage=0.1


Tree=10
num_leaves=39
num_cat=0
split_feature=10 10 10 49 71 62 71 5 12 82 2 49 39 71 33 50 105 30 10 71 5 9 46 46 22 15 15 13 5 50 85 71 45 5 2 15 44 15
split_gain=423.946 406.135 39.3667 42.8489 22.9082 19.9234 15.3106 26.2438 21.4729 18.9667 4.26517 2.4573 2.00134 1.77107 2.34709 0.717741 0.0475562 0.00438905 0.00258389 0.000261791 6.39591e-05 6.35178e-05 3.94014e-05 3.42743e-05 1.95033e-05 1.42297e-05 1.54095e-05 1.10019e-05 9.96225e-06 9.07519e-06 7.64067e-06 7.4088e-06 6.9133e-06 5.9665e-06 6.49595e-06 6.63863e-06 5.65861e-06 9.28881e-06
threshold=0.74536832911843598 0.54216312502323516 0.99538541499616739 44.832105952457098 1.0157391061179075 0.96225665995891052 1.0349084017364716 10.668165734952959 227580.57594939854 14651652508.59033 1.096583493490406 5.248089927734874 489737456.7878719 0.99014321174407871 16.752639146392731 2.5920450313825447 18.292173780824218 11.235126027803028 0.92424748257971523 1.0416344240392947 15.213196831721808 -1672427502821630.8 25.946498349038304 29.206567557128174 0.97287137286263548 0.10036347066089917 0.60693311258062255 70.108787765073728 7.1430756508460949 0.078922907165972264 0.029630300061058105 0.91455097844001532 -0.12013467815371144 15.107528161992432 2.089851841610892 0.93099770843346163 27.390792622890579 0.98048422702050153
decision_type=2 2 2 2 2 2 2 2 2 2 2 2 2 2 2 2 2 2 2 2 2 2 2 2 2 2 2 2 2 2 2 2 2 2 2 2 2 2
left_child=1 27 3 6 -5 -6 18 8 -8 12 -3 -12 -10 -13 15 16 17 21 -2 -9 23 -15 30 36 25 28 -27 -1 -25 -20 -21 -28 -33 34 35 -31 37 -4
right_child=2 10 20 4 5 -7 7 19 9 -11 11 13 -14 14 -16 -17 -18 -19 29 22 -22 -23 -24 24 -26 26 31 -29 -30 33 -32 32 -34 -35 -36 -37 -38 -39
leaf_value=-0.087929156275310325 -0.091758139263633881 0.22282192144181048 -0.087781602036045486 0.029471347929862286 0.53619876330297678 0.094710857904776291 0.42075749049961192 -0.089431524437224158 -0.09080777521781791 0.33316583426411983 0.44960448492824096 0.3102788633144834 0.053673678539535863 0.36206608807694374 0.44692579230544593 0.40949204951977669 0.37381983072804026 0.36527051901857988 -0.088142767760633983 -0.08772342130622951 -0.087659743968518888 0.36166443643927837 -0.088400219776622754 -0.087905110771513653 -0.087516233548397854 -0.087706095472507975 -0.087859850133815087 -0.087691884319440694 -0.088294573520766542 -0.08802504664384031 -0.088014241055680661 -0.088134402551513766 -0.087894698269150848 -0.087736176735626448 -0.087691638414164816 -0.087865183665122193 -0.087779689947257156 -0.087701540941063846
leaf_weight=29.185436572879556 1.9002476371824766 1.8354260623455037 22.299335546791553 3.274427503347396 2.8530087098479271 1.5928666852414606 2.3439099565148371 1.3388464152812938 3.0682402215898037 1.8777139112353323 4.3735624477267256 4.3298462629318228 1.3944597393274305 5.1029734611511257 4.35023508965969 3.8846948742866507 4.1550773531198493 4.2260247468948355 1.2352466285228754 4.3329039663076401 65.014554783701897 17.23594585061074 1.2805920317769048 1.3585321195423596 1.6354563124477852 6.0204971320927134 27.120781883597374 2.094478052109479 1.2715017423033712 3.740994859486821 1.1413851417601106 2.0330271646380424 2.9477063305675975 3.0809868425130835 1.471128612756728 8.4995655976235849 34.860134948045015 41.388986427336931
leaf_count=492 24 11 387 39 27 17 28 20 39 20 28 23 19 24 25 20 20 20 20 76 1155 81 20 23 30 106 463 37 20 62 19 33 50 54 26 145 605 729
internal_value=0 0.194147 -0.0693253 0.0160491 0.230191 0.378023 -0.0289907 0.0413957 0.162135 0.0665281 0.372409 0.37817 -0.0456617 0.370952 0.377696 0.368993 0.363871 0.362315 -0.0882509 -0.0881541 -0.0877418 0.361756 -0.0879009 -0.0877796 -0.0878548 -0.0878684 -0.0878529 -0.0879133 -0.0880934 -0.0878812 -0.0877841 -0.0878804 -0.0879925 -0.0878619 -0.0878902 -0.087914 -0.0877473 -0.0877296
internal_weight=0 80.7737 250.377 44.4265 7.7203 4.44588 36.7062 16.7781 8.68432 6.34041 49.4938 47.6584 4.4627 43.2848 38.955 34.6047 30.72 26.5649 19.9282 8.09373 205.951 22.3389 6.75488 140.936 42.3875 40.752 38.122 31.2799 2.63003 18.0279 5.47429 32.1015 4.98073 16.7927 13.7117 12.2406 98.5485 63.6883
internal_count=5037 781 4256 655 83 44 572 241 106 78 252 241 58 213 190 165 145 125 331 135 3601 105 115 2446 725 695 652 529 43 307 95 546 83 287 233 207 1721 1116
is_linear=0
shrinkage=0.1


Tree=11
num_leaves=39
num_cat=0
split_feature=22 22 10 10 15 71 104 99 76 66 52 5 102 42 93 63 22 5 44 63 5 105 56 95 59 61 48 46 5 26 10 11 71 35 71 15 48 28
split_gain=1096.35 26.7483 21.9497 15.861 19.9053 24.8291 21.6391 8.93909 4.98902 4.42536 4.40109 1.53213 1.38185 0.9893 1.4909 0.573989 0.70554 0.474848 1.30526 4.24606 1.28422 4.30731 0.69984 1.95706 0.59526 0.201537 0.472163 0.129051 0.0603625 0.00429498 0.00104782 0.000532617 0.000298694 0.000173583 0.000101983 7.93651e-05 7.61276e-05 6.29807e-05
threshold=0.61525904162641809 0.17052972218315282 1.0743856191063297 1.0898927374906289 1.01700210107067 1.0136088591256387 1.3983819113945439 237.53795890068702 -16.165054407079982 36473667083956.023 469511.29844663187 10.484246699846883 94.775700366907856 -3188213539.6353049 441960.43461739155 157.15465527502718 0.97287137286263548 12.711067217137217 4.4983121340203134 314.26664438007663 13.562092595282513 -7.1744600193143899 41.632812473097026 148.24324310210667 31.563293209201294 1066854.2763446805 -1.0000000180025095e-35 30.360140614517828 17.681772063358469 33995.309895256934 1.0751196995669305 433.01995684637956 1.0189122232196972 -3.0535802933454606 0.14234274997008892 1.0563258387370993 17522990.852523517 292.97681401419914
decision_type=2 2 2 2 2 2 2 2 2 2 2 2 2 2 2 2 2 2 2 2 2 2 2 2 2 2 2 2 2 2 2 2 2 2 2 2 2 2
left_child=1 17 8 4 10 11 7 -7 -3 15 37 -6 -10 14 -14 -2 -17 25 19 -19 21 -20 24 -24 34 -1 -27 28 29 -18 -31 35 -32 -34 -22 -5 -23 -4
right_child=9 2 3 31 5 6 -8 -9 12 -11 -12 -13 13 -15 -16 16 27 18 20 -21 22 36 23 -25 -26 26 -28 -29 -30 30 32 -33 33 -35 -36 -37 -38 -39
leaf_value=-0.089120148618652736 0.34479290903597515 0.074312016453654997 -0.089737082254819869 -0.08915556581813612 -0.08947862599174923 -0.034092156268856082 0.47269382433827456 0.25882722118717882 0.0010007872613451245 0.27658669714254741 0.10935682949411248 0.044630256222379303 0.042803296910369659 -0.089118234599896373 -0.089605949460985324 0.42582228095267149 0.38133317309389614 -0.089197534296938219 0.1069608099570276 0.11051262453436327 -0.089390533705439923 -0.090036733567967722 -0.089075068904301544 0.04835143789220598 -0.028053331789729574 -0.021165901121380545 -0.089319923204559074 0.39612222370226563 0.39199833736078726 0.38020867667614311 0.37927980579096093 -0.091851651484513464 0.37873259231090201 0.37819635930030138 -0.088988094660641656 -0.090144964442981826 -0.08917150320380357 -0.088949378304411228
leaf_weight=188.00676952302456 3.7686549648642531 2.431807458400729 1.655889019370085 1.6045131385326379 1.9836825057864174 1.7656556814908979 3.5311945006251335 2.5413813963532448 2.2054914981126812 4.2155776247382155 1.5092823058366773 1.4930839985609052 1.5125609561801057 22.456844724714749 1.9424248710274694 3.9564835876226416 7.5822849869728079 3.6636336073279372 1.5267097428441045 1.500671327114105 6.8633510023355475 1.7951214164495457 3.6036230176687232 1.4544960409402845 1.6328554078936566 1.4699597954750059 3.295179955661296 5.7799597382545462 4.0172855556011191 4.1072904467582694 4.3202885538339642 1.6744228228926656 9.2673622667789441 17.316690504550937 76.297404818236828 1.6388513520359991 2.3456837683916092 2.6227341331541538
leaf_count=2585 19 29 21 22 26 20 32 20 28 28 20 20 20 309 25 21 37 50 20 20 91 22 50 20 22 20 44 29 20 20 21 18 45 84 1070 20 32 37
internal_value=0 -0.0739306 -0.00824098 0.067867 0.113376 0.190534 0.289192 0.138746 -0.0631018 0.375631 -0.0374634 -0.0318861 -0.0749864 -0.0814541 -0.0316384 0.382576 0.385103 -0.0856983 -0.0801322 -0.0311647 -0.0827796 -0.0366116 -0.0856918 -0.0495572 -0.0878473 -0.0886054 -0.0682956 0.382028 0.380281 0.379175 0.378708 -0.0904033 0.378509 0.378383 -0.0890213 -0.0896555 -0.0895466 -0.0892542
internal_weight=0 346.025 52.5698 22.0207 17.1029 11.315 7.83823 4.30704 30.5491 64.3319 5.78791 3.47677 28.1173 25.9118 3.45499 60.1163 56.3476 293.455 100.684 5.1643 95.5192 5.66751 89.8517 5.05812 84.7936 192.772 4.76514 52.3912 46.6112 42.5939 35.0116 4.91779 30.9043 26.5841 83.1608 3.24336 4.14081 4.27862
internal_count=5037 4713 667 256 196 118 72 40 411 324 78 46 382 354 45 296 277 4046 1397 70 1327 74 1253 70 1183 2649 64 256 227 207 170 60 150 129 1161 42 54 58
is_linear=0
shrinkage=0.1


Tree=12
num_leaves=39
num_cat=0
split_feature=5 10 46 22 22 71 45 15 19 44 101 10 44 5 15 15 15 15 90 19 71 2 49 15 19 15 59 5 22 41 22 85 5 10 10 45 22 10
split_gain=487.579 162.194 165.41 128.866 96.6721 99.073 66.4194 63.2031 82.992 45.0312 37.507 33.4322 28.0362 26.2326 26.1697 21.0422 20.4342 33.3037 16.1947 15.7908 14.7041 13.1342 13.8665 13.0749 12.4937 12.4018 12.3719 11.287 9.99977 7.5522 7.73099 7.3057 7.05889 6.42291 6.39544 7.52514 6.23304 6.85311
threshold=15.213196831721808 0.74536832911843598 29.206567557128174 0.93439957662379902 0.93439957662379902 0.11515547154824017 4.8506809777360695 0.98830419098322186 15.101462439902699 26.588588306501926 1653020050.7985122 1.0589078583582563 27.751110083326285 48.370052328136907 0.090301962838524721 0.877063646936315 0.10534289637312096 0.81902853255140617 758339.55414988613 36.327871192074461 0.97391982258548027 2.089851841610892 42.713397569020415 0.87945438308392132 55.62867778428533 1.0083784969812906 15.270620382010708 8.2243558536253989 0.17052972218315282 215.0397881322742 0.016513764315710704 0.0092379856268946011 12.282192286628488 1.0578766284057763 0.5326976499557986 2.5564339918510073 0.10963930601654136 1.0756361262134997
decision_type=2 2 2 2 2 2 2 2 2 2 2 2 2 2 2 2 2 2 2 2 2 2 2 2 2 2 2 2 2 2 2 2 2 2 2 2 2 2
left_child=1 10 3 6 5 13 7 8 14 19 18 21 36 -2 27 -16 -10 -18 -1 25 26 22 31 -17 32 -4 -14 -3 -22 30 -27 -9 -11 -19 -7 -36 -13 -38
right_child=4 2 9 -5 -6 34 -8 11 16 24 -12 12 20 -15 15 23 17 33 -20 -21 28 -23 -24 -25 -26 29 -28 -29 -30 -31 -32 -33 -34 -35 35 -37 37 -39
leaf_value=-0.13118624393546291 -0.11227120588999387 -0.029863651625795656 -0.087665363922221129 -0.12946515088373448 -0.12470683316796452 0.020213418637992479 -0.10786689092889501 -0.0073131679263871976 0.11130457295052483 -0.12387175777763104 0.10992706885779231 0.11671222720738478 0.023945501618981995 0.091447334768058178 -0.12382191054885616 -0.0011235305618693091 -0.11341685001856826 0.0084962011949074202 0.029663137130642021 0.069511093547774169 0.12773988932197744 -0.12008532329195856 -0.093556492819391379 -0.15911472382810907 0.026057088987954002 0.025914161921077213 -0.10779895365036096 0.1188978593083035 -0.020743566771129721 0.054632270581811609 -0.086013465996485086 0.075545858422359682 -0.032751048585667256 0.10272559653828664 0.12731535698034818 0.02927589317377487 0.10521360456774656 -0.00044325687719066033
leaf_weight=175.95998056232929 24.101682364940643 10.670672267675402 34.007696509361267 56.117811173200607 18.778433591127396 5.921606481075286 32.860740602016449 17.437674403190613 48.249507009983063 148.53619229793549 7.0299198031425467 139.24538147449493 32.052791029214859 8.5679587721824628 54.27093431353569 31.997314155101776 13.574097812175749 10.649581402540205 6.4903129935264579 14.870727986097334 18.868734568357471 7.5740245878696433 8.8793764114379865 6.2634600698947898 6.2006582319736472 10.880693674087526 9.1665976941585523 9.7703451216220838 5.9708366692066184 13.740539580583571 14.257101893424986 27.300666779279709 9.0177699923515302 22.55205699801445 335.68286064267159 8.0160774588584882 15.371486634016039 10.220824390649794
leaf_count=631 84 36 118 204 68 20 117 59 169 526 24 490 109 29 193 108 48 36 22 51 65 27 30 21 21 37 31 34 20 47 49 93 31 78 1195 27 54 35
internal_value=0 -0.0331527 -0.0143128 0.0146733 0.0968107 0.107692 0.0298507 0.0389001 -0.00322824 -0.082201 -0.116731 0.0689 0.0863165 -0.0588439 -0.0611606 -0.083782 0.0656459 0.0185486 -0.125464 -0.0244002 0.0312721 0.0031814 0.020594 -0.0269874 -0.113177 -0.0435606 -0.00535257 0.041241 0.092048 -0.00498123 -0.0375665 0.0432499 -0.118656 0.0725011 0.123254 0.125029 0.108376 0.0630173
internal_weight=0 1030.06 840.576 589.065 401.069 382.29 532.947 500.086 207.998 251.511 189.48 292.088 230.897 32.6696 112.973 92.5317 95.0252 46.7757 182.45 87.7568 66.059 61.1917 53.6177 38.2608 163.755 72.886 41.2194 20.441 24.8396 38.8783 25.1378 44.7383 157.554 33.2016 349.621 343.699 164.838 25.5923
internal_count=5037 3614 2937 2057 1423 1355 1853 1736 723 880 677 1013 804 113 392 322 331 162 653 302 225 209 182 129 578 251 140 70 85 133 86 152 557 114 1242 1222 579 89
is_linear=0
shrinkage=0.1


Tree=13
num_leaves=39
num_cat=0
split_feature=71 45 85 10 45 10 33 2 2 31 97 66 85 44 44 5 21 90 44 10 66 5 37 84 69 51 63 10 72 45 10 71 105 27 75 21 11 95
split_gain=345.509 168.943 95.7814 132.682 50.761 47.9026 35.9073 28.5808 16.5693 14.5009 12.4489 12.7117 10.7655 10.5583 9.90138 17.0468 11.2331 9.83814 9.65857 9.21217 8.8746 8.77405 7.34905 8.73026 10.1044 5.97164 5.95211 4.39244 2.47622 2.42912 1.27893 5.83923 11.327 3.28711 1.12448 1.03521 0.892294 0.508675
threshold=0.10147250562546072 2.5564339918510073 0.26392646883585774 1.0372073162201254 4.169311979088655 0.54216312502323516 36.853728286713398 1.7456015960845537 2.089851841610892 99.36784064926475 -11.724451484082421 38050830586048.805 0.18290519386171536 25.507089426993449 24.303529253228366 10.847026349832374 304508.60292544879 261093.18828809678 41.055262968074921 1.0741364498709927 -2202710083231.4243 5.9084289951928488 334747.10498669307 -94504238874986.141 341463.7861431904 112352697334575.23 283.27901904945594 1.0843891932395422 7593987.0287886346 5.4362799239129327 0.99538541499616739 0.81091148229445154 15.42921335692086 10.164695193604993 706.24165744323625 260403.81293345659 302.02984235321884 174.08204846758665
decision_type=2 2 2 2 2 2 2 2 2 2 2 2 2 2 2 2 2 2 2 2 2 2 2 2 2 2 2 2 2 2 2 2 2 2 2 2 2 2
left_child=2 5 3 6 7 9 10 27 30 17 13 14 19 -1 22 18 20 -2 25 -3 -17 -20 26 -24 -25 -16 -12 -5 -8 -4 31 32 33 -7 -32 -14 -31 -33
right_child=1 12 29 4 -6 8 28 -9 -10 -11 11 -13 35 -15 15 16 -18 -19 21 -21 -22 -23 23 24 -26 -27 -28 -29 -30 36 34 37 -34 -35 -36 -37 -38 -39
leaf_value=0.13318838006136482 0.31139111065397906 0.031154038796135982 0.33020834181341774 -0.091314216925935901 0.22790639456908213 -0.091734633514486408 -0.094297995461210787 0.21597797894440585 0.11410019189158599 -0.033586263022771894 0.12116756316548193 0.00093169972825619301 0.2490558469591283 -0.096917548056647998 0.23061184219195829 0.1469281292895239 0.26252997593939142 0.095657950555931251 0.059806062648795191 0.22599785340442216 -0.033781968074596769 0.27028908934966861 0.23297670069533424 -0.030766368412961789 0.13008969080475741 0.32942572666770253 0.26514187811980167 0.02930943403875837 0.028337752070612579 0.22380233672311123 -0.090558329921664196 -0.091031600560003811 0.1700791737608961 0.04891086588621963 -0.032611714518147886 0.30836165950682071 0.26637600821563368 -0.037577239442929407
leaf_weight=5.4259630888700467 3.6203737035393697 4.6361783891916293 5.2047745957970646 51.206263765692711 6.5068952292203894 7.869056433439253 5.5864680632948867 3.3681519627571097 4.1648164466023436 4.6328020170330992 4.9108449742197973 4.0022744163870803 6.8026225343346578 3.1526906043291092 11.20498548448086 6.7338024899363509 4.3887826204299918 5.0800050497055054 4.2514467909932128 5.0913053527474403 4.5564594268798819 3.7075594067573547 4.4235023781657246 5.9007757082581547 11.546664819121359 13.465584635734556 6.9144021421670914 3.2079705297946921 2.334516353905201 6.6666065752506283 253.35810150206089 48.865929886698723 2.6638018712401381 2.1065995320677757 3.3936912417411795 5.1879998221993446 18.822195544838905 1.8475274965167034
leaf_count=32 21 33 25 539 33 80 48 17 26 34 30 27 29 23 58 37 26 33 25 28 30 20 24 41 66 67 33 25 16 26 2761 529 25 20 35 23 73 19
internal_value=0 -0.0590445 0.105609 0.0757343 -0.0368868 -0.076436 0.146367 -0.0667053 -0.0840742 0.109328 0.163495 0.174952 0.211302 0.0486235 0.183445 0.212466 0.126771 0.185428 0.253644 0.133134 0.0739982 0.157856 0.14184 0.1075 0.0756877 0.284546 0.205352 -0.0842029 -0.0581541 0.267953 -0.0866526 -0.0739278 -0.0131155 -0.062034 -0.0897924 0.274716 0.255241 -0.0890842
internal_weight=0 359.321 197.49 166.796 64.2893 337.603 102.507 57.7824 324.27 13.3332 94.5857 86.0071 21.7181 8.57865 82.0048 48.3086 15.679 8.70038 32.6296 9.72748 11.2903 7.95901 33.6962 21.8709 17.4474 24.6706 11.8252 54.4142 7.92098 30.6936 320.105 63.3529 12.6395 9.97566 256.752 11.9906 25.4888 50.7135
internal_count=5037 3696 1341 1217 614 3583 603 581 3495 88 539 484 113 55 457 263 93 54 170 61 67 45 194 131 107 125 63 564 64 124 3469 673 125 100 2796 52 99 548
is_linear=0
shrinkage=0.1


Tree=14
num_leaves=39
num_cat=0
split_feature=71 46 10 45 33 44 19 85 2 44 27 71 71 76 44 104 6 43 44 46 35 9 2 10 13 97 97 4 105 14 26 39 3 105 55 89 59 87
split_gain=573.096 177.157 102.082 79.7363 51.5058 22.736 26.3645 20.6108 18.8521 18.0039 15.3985 15.0705 17.3162 16.0914 14.4748 14.2429 12.5388 12.0623 10.5218 10.1475 10.653 9.83407 9.93697 9.72226 9.75871 13.0011 9.62705 9.00591 8.74907 8.1403 8.0564 12.9407 9.10642 8.42426 7.29955 9.04988 7.20221 6.58617
threshold=0.99014321174407871 28.12850301475029 0.61713812902190923 2.5564339918510073 20.572721728161671 27.877682352679983 13.258521499323278 0.093710848901162422 1.1344907331766223 46.384905378337209 9.699925056960641 0.81091148229445154 0.28968463785805376 7.4365043748711752 19.326093689507307 1.262967753416649 -0.80721464954148292 1498438.0803124646 23.568565538700557 5.4558724930567548 2.7995886602263678 1142578643603793.5 1.1091721399339673 1.0615652622981122 0.54092837224208379 -0.57113397392251986 -1.0000000180025095e-35 227.85634900110347 13.877481012577709 5.2662239824896959 67891.393702970876 345272099.44479012 1.2143196768628655 3.8584631908443119 252101.46305350968 -32719686.788030367 17.158844949515586 15194810688.00783
decision_type=2 2 2 2 2 2 2 2 2 2 2 2 2 2 2 2 2 2 2 2 2 2 2 2 2 2 2 2 2 2 2 2 2 2 2 2 2 2
left_child=1 2 17 4 8 23 7 10 9 11 16 12 14 -14 28 -16 -7 21 -6 -18 -21 30 34 24 -4 -26 -12 -27 -3 -19 -1 32 37 -33 -23 -36 -8 -32
right_child=-2 3 5 -5 18 6 36 -9 -10 -11 26 -13 13 -15 15 -17 19 29 -20 20 -22 22 -24 -25 25 27 -28 -29 -30 -31 31 33 -34 -35 35 -37 -38 -39
leaf_value=0.21092738968089556 -0.095067722041361463 -0.025029798001715106 -0.061500697047850099 -0.081935108007654606 0.081806929101454498 -0.053076198860612947 -0.065409396675284698 -0.08261252666902387 -0.10058535297523424 0.2147974762299244 0.077885565796425291 0.26136321412662405 -0.081957723866138477 0.14355613420167521 0.21946902039118005 0.076444881677444926 -0.020347229938240102 0.13218382186150007 0.23486609201782582 0.034923297973715892 0.25199391381432945 0.22386472033622448 -0.027890228756164766 -0.065447412981450168 -0.04612609600841297 0.00577402784375485 0.27141811948006012 0.18335154505889603 0.14923618183404183 -0.046479484750756479 0.078872986160866895 0.10083380290069661 0.16686870298221118 0.26471396591665669 0.16577942557818004 -0.03606090078228389 0.062114404964622685 -0.083729228718924298
leaf_weight=18.499245494604111 350.21834708750248 8.9360455274581891 16.334020055830479 13.442650660872458 4.7599371075630179 6.3338084369897869 24.302510067820553 6.2197653204202643 3.8592882156372061 17.641724497079849 3.8276224881410599 5.2994230389595023 9.8119877502322179 4.6700318008661261 16.181907966732982 12.221225947141646 3.8342334330081966 4.0978916436433774 79.582337766885757 3.5853947103023511 6.1198078542947769 4.7489435821771648 6.3236993402242652 76.406138241291046 9.4638998955488223 4.8146662265062314 7.8247469663619977 7.0201738476753235 4.2516900449991217 6.7521004229784012 5.7926380038261431 5.1875787079334241 5.6991441398859015 7.9343846589326859 4.6992814242839813 4.2128677517175657 5.4157066345214835 4.3705030530691147
leaf_count=82 2659 51 109 95 25 39 164 41 24 68 21 23 58 23 73 58 25 19 299 20 31 21 32 540 61 32 37 42 21 36 27 24 25 35 22 21 32 22
internal_value=0 0.0763228 0.0234408 0.152377 0.171214 -0.0177336 0.0282823 0.0837518 0.115225 0.125765 0.116574 0.100173 0.0849387 -0.00923604 0.117731 0.157929 0.0630585 0.118862 0.226228 0.117387 0.171801 0.1346 0.0757514 -0.0449558 -0.00335151 0.0412431 0.207846 0.111109 0.0311531 0.0209992 0.159369 0.126461 0.0656874 0.199926 0.123727 0.0703674 -0.0421701 0.0089484
internal_weight=0 440.479 259.821 180.658 167.216 181.502 67.4636 37.7454 82.8733 79.014 31.5256 61.3723 56.0729 14.482 41.5909 28.4031 19.8732 78.3183 84.3423 13.5394 9.7052 67.4683 19.9848 114.039 37.6328 21.2987 11.6524 11.8348 13.1877 10.85 47.4835 28.9842 15.8623 13.122 13.6611 8.91215 29.7182 10.1631
internal_count=5037 2378 1560 818 723 1194 410 214 399 375 173 307 284 81 203 131 115 366 324 76 51 311 96 784 244 135 58 74 72 55 215 133 74 59 64 43 196 49
is_linear=0
shrinkage=0.1


Tree=15
num_leaves=39
num_cat=0
split_feature=15 5 15 15 15 71 5 10 19 19 15 19 31 19 59 45 18 31 5 48 93 85 46 15 19 28 74 15 98 36 22 8 15 84 5 5 10 46
split_gain=457.46 333.216 45.0202 29.6736 25.2288 21.8085 29.4872 19.411 14.796 12.3822 24.186 9.96008 13.9727 7.93045 5.77056 3.7821 2.9126 2.08959 1.75182 1.72103 1.65269 1.44449 1.37247 3.91943 1.33707 1.22132 0.828968 1.36989 1.16631 0.571424 0.0939573 0.0450276 0.00304307 0.000659642 0.000510746 0.000504872 0.000307911 0.000335915
threshold=0.60693311258062255 12.566307236966503 0.071032860362058872 0.3064520855007587 0.91012269573823967 0.73822558118950143 11.318939664171713 0.98368208819115488 23.945329838177756 25.438546512408848 0.096615002737381911 -16.964861785356884 65.578954800786235 8.5825045952702279 -4.5881954971357155 1.3064629844005173 178826.90315342855 -11.452385188899678 6.2671018524016695 -1008798714.6736747 620862.45135308255 0.015342089786121001 12.720149418902755 0.10036347066089917 -3.6169406388443401 197.72585123749607 1.6269808343367282 0.10534289637312096 173509.77964375683 10995439013316.014 -0.019800161249482248 231127.71128253467 0.10534289637312096 29403577607195.723 13.562092595282513 15.580051629960613 0.5387394144264942 25.485086442187733
decision_type=2 2 2 2 2 2 2 2 2 2 2 2 2 2 2 2 2 2 2 2 2 2 2 2 2 2 2 2 2 2 2 2 2 2 2 2 2 2
left_child=1 2 13 19 5 -2 7 -7 11 15 21 -9 -13 -1 -14 17 -10 -4 -12 -3 33 -11 23 -19 -21 -24 28 -28 -27 -8 -25 -32 34 -15 -26 36 -6 -38
right_child=4 3 9 -5 35 6 29 8 16 10 18 12 14 20 -16 -17 -18 22 -20 24 -22 -23 25 30 32 26 27 -29 -30 -31 31 -33 -34 -35 -36 -37 37 -39
leaf_value=0.14484348379308995 -0.090158592819039096 0.0072271196663491596 0.16577825131299243 0.29026050388763869 -0.090234815645612032 -0.08986433766457913 -0.089805032306748508 0.32615360865344828 0.071034347734322018 -0.091414391677306361 0.29244645157295673 -0.0066075803553701492 0.11608545981897507 -0.093005454381018524 0.28254041129963686 0.17091972826988402 -0.090582841486260113 0.1651141905243475 0.20459950165566326 -0.017124975667627825 0.025300301160191781 0.028239184685773244 0.3177787872142146 0.25326417467040951 -0.091140296140396523 0.2715584569216325 0.32634797702580626 0.26964314850745119 0.22949368754902277 -0.026402105813734412 0.26526810579257598 0.27670215725331487 -0.093998268053549328 -0.090482213401943373 -0.089513030392501122 -0.089535529136884132 -0.089745836329152201 -0.09003631268416766
leaf_weight=2.8892247155308706 27.857905462384224 2.054231882095336 2.1456845626234999 2.2207601293921462 24.061726585030556 4.9000305831432369 14.280537091195582 3.4655578657984796 1.8501894772052754 2.5082655176520339 4.38391265273094 4.5225481167435637 3.6537236422300374 2.0760178565979004 4.8436692953109688 4.6741719618439665 2.8065194562077522 4.8200758174061802 4.7078187540173531 2.6717127785086623 1.7016881704330442 1.6878727599978445 5.7667049169540396 5.072310268878943 2.0119091793894759 21.695485189557079 5.6958459615707424 16.904659241437912 9.4678777232766134 1.5786098614335049 10.858081489801402 5.0440793484449378 1.610588289797305 2.0682901293039322 46.695370607078075 47.239097848534584 108.14300570636988 63.006546035408974
leaf_count=21 334 25 11 10 285 61 179 19 20 27 18 37 21 20 23 24 32 32 22 27 18 20 25 20 22 86 26 66 39 20 42 20 15 24 606 612 1362 766
internal_value=0 0.128734 0.227472 -0.0681208 -0.0745808 -0.0215858 0.0240045 0.0894687 0.131032 0.245548 0.155303 0.175493 0.135392 0.00930877 0.210968 0.258561 -0.0263696 0.263245 0.246958 -0.0825798 -0.0576756 -0.0432844 0.265696 0.246428 -0.0860614 0.274044 0.269353 0.283934 0.258779 -0.0834939 0.265115 0.268895 -0.0897217 -0.0917462 -0.0895802 -0.0898289 -0.0898999 -0.0898528
internal_weight=0 171.433 114.168 57.2646 312.21 69.7593 41.9014 26.0422 21.1422 105.433 13.2879 16.4855 13.0199 8.73522 8.49739 92.145 4.65671 87.4708 9.09173 55.0438 5.846 4.19614 85.3251 25.7945 52.9896 59.5306 53.7639 22.6005 31.1634 15.8591 20.9745 15.9022 50.3179 4.14431 48.7073 242.45 195.211 171.15
internal_count=5037 1266 561 705 3771 746 412 213 152 478 87 100 81 83 44 391 52 367 40 695 62 47 356 114 670 242 217 92 125 199 82 62 643 44 628 3025 2413 2128
is_linear=0
shrinkage=0.1


Tree=16
num_leaves=39
num_cat=0
split_feature=10 10 10 49 2 71 5 15 12 82 15 42 21 49 33 5 50 71 3 70 10 75 5 46 46 22 44 15 19 15 15 71 19 13 31 19 53 44
split_gain=308.127 235.587 36.7692 28.638 14.8126 13.6575 19.1625 16.8923 16.7782 11.555 10.4831 2.55894 1.62538 0.715915 0.997629 0.235582 0.218298 0.0306552 0.00923983 0.00343864 0.00212398 0.000269599 0.000206165 7.56156e-05 3.39944e-05 2.89867e-05 2.75823e-05 3.03967e-05 2.58621e-05 2.04813e-05 3.17813e-05 3.35388e-05 2.05324e-05 1.84295e-05 1.24738e-05 1.22499e-05 1.31096e-05 1.20252e-05
threshold=0.74536832911843598 0.54216312502323516 0.99538541499616739 44.832105952457098 1.1126361758860377 1.0349084017364716 10.668165734952959 0.877063646936315 257077.99767271176 14651652508.59033 1.0553417213953094 3769939847.5845046 408057.05099866109 6.0177402770747621 16.752639146392731 7.8028102135115667 1.3572467987469661 1.0312632902351815 1.5307005677912027 157.05049471661394 0.92424748257971523 583.15587679639009 15.423054754179882 28.12850301475029 26.566878213000631 0.97287137286263548 28.084899458779592 0.98830419098322186 15.101462439902699 0.094307602940252713 0.60693311258062255 0.91455097844001532 30.307637928167466 70.108787765073728 51.269489818432014 18.417257789721244 2.3612325639414293 26.422845147196696
decision_type=2 2 2 2 2 2 2 2 2 2 2 2 2 2 2 2 2 2 2 2 2 2 2 2 2 2 2 2 2 2 2 2 2 2 2 2 2 2
left_child=1 33 3 5 10 20 7 -7 -9 -10 -5 12 13 -3 15 17 -17 -15 19 -19 -2 24 23 26 -8 29 27 28 34 -25 -31 -32 37 -1 -4 36 -22 -33
right_child=2 11 22 4 -6 6 21 8 9 -11 -12 -13 -14 14 -16 16 -18 18 -20 -21 35 -23 -24 25 -26 -27 -28 -29 -30 30 31 32 -34 -35 -36 -37 -38 -39
leaf_value=-0.087524665408031832 -0.091127237799439542 0.30675003066753409 -0.087566212952574482 0.10211929753065677 -0.047666522577761661 -0.089577093221099524 -0.087259691477006171 0.42973845927084264 -0.023869890086272046 0.2823584531698346 0.34946051978681292 0.19694192719357304 0.21325035780147356 0.26381194277323344 0.30855582481358867 0.26082953814386584 0.28853578010455555 0.25579247856887138 0.25879373027529545 0.2530025347251707 -0.087474885245831163 -0.089079719888542602 -0.087093657727481427 -0.087739284868864134 -0.087861123366135496 -0.087017670425885346 -0.087349363716133333 -0.087176364839548312 -0.087200343872278679 -0.08722644337732767 -0.087427101488379122 -0.087691736013042004 -0.087471716068133712 -0.087200297205308266 -0.087349513286093042 -0.087327264807867691 -0.087830666226984919 -0.088085360670098117
leaf_weight=26.797943700104955 1.7391261085867906 5.0216505154967299 4.1149344295263308 3.0155125446617586 2.3479667901992798 2.6683765016496199 4.9840814247727385 2.2763930112123489 2.9737935326993465 2.1039821207523346 3.9688053801655769 6.0511534139513961 5.4094834253191939 5.4438822120428112 5.1285521090030661 5.9981279671192151 5.4075310528278351 8.434002518653875 6.2864955663681021 9.2769109904766065 9.9587911404669303 1.0898883789777754 56.47489221021533 2.3305131755769244 1.1581831648945806 1.6009977869689453 29.259556818753481 37.278625909239054 8.9830522201955301 6.1711526475846759 25.574954967945818 1.7473473772406571 2.2663406170904636 1.8741034194827069 7.4939750172197819 5.3114434368908396 1.155879221856593 1.3963135555386541
leaf_count=492 24 23 75 28 31 37 97 17 36 16 24 27 23 21 22 23 22 32 24 35 185 18 1140 41 20 33 558 738 177 121 479 31 42 37 143 102 20 23
internal_value=0 0.149803 -0.0675474 0.0137769 0.169622 -0.0272845 0.0364287 0.125948 0.204149 0.103016 0.24267 0.258741 0.265371 0.270899 0.266984 0.261764 0.273965 0.257037 0.2555 0.254331 -0.087804 -0.0876303 -0.0872529 -0.087323 -0.0873731 -0.0874348 -0.0872702 -0.0872302 -0.0873277 -0.0874517 -0.0874337 -0.087475 -0.0877012 -0.0875035 -0.0874263 -0.0874522 -0.0875119 -0.0878666
internal_weight=0 91.1298 229.445 44.7522 9.33228 35.4199 17.2547 10.0225 7.35417 5.07778 6.98432 62.4578 56.4066 50.9972 45.9755 40.847 11.4057 29.4413 23.9974 17.7109 18.1652 7.23215 184.693 128.218 6.14226 41.0876 87.1301 57.8706 20.592 39.4866 37.1561 30.985 5.41 28.672 11.6089 16.4261 11.1147 3.14366
internal_count=5037 781 4256 655 83 572 241 106 69 52 52 252 225 202 179 157 45 112 91 67 331 135 3601 2461 117 770 1691 1133 395 737 696 575 96 529 218 307 205 54
is_linear=0
shrinkage=0.1


Tree=17
num_leaves=39
num_cat=0
split_feature=22 22 10 10 15 90 75 10 72 49 76 13 15 96 5 44 17 5 102 104 95 71 22 61 25 46 69 66 5 63 49 11 84 71 5 10 46 42
split_gain=721.516 26.1472 18.5816 12.5105 13.3561 15.1755 16.0614 7.40793 4.70551 4.54483 4.47503 2.20739 1.45932 4.74995 0.538846 1.32845 4.40132 1.3011 4.55456 0.78518 4.67355 0.430656 0.316316 0.217577 0.515209 0.181113 0.0377014 0.0311901 0.008563 0.00323582 0.0026243 0.000535745 0.000408961 0.000217299 0.000146754 0.000120582 0.000128961 0.000118523
threshold=0.61525904162641809 0.17052972218315282 1.0743856191063297 1.0898927374906289 1.01700210107067 518586.97251070611 424.60129674733088 1.0836994808400733 4114118.5053516859 -18.63482888014806 -16.165054407079982 19.905680629768572 1.0730891808523926 -234327.34888980357 12.711067217137217 4.4983121340203134 43697.482285949001 13.562092595282513 209.47273110701141 0.21331394113797952 148.24324310210667 1.088406021593215 0.97287137286263548 1066854.2763446805 103313.66605337716 25.183108638448385 475463.67142628785 28049808078870.098 17.331561815939992 183.63317512845884 -34.401914096721008 433.01995684637956 -24575468086105.285 0.14879941336102548 15.107528161992432 0.5387394144264942 29.206567557128174 -3188213539.6353049
decision_type=2 2 2 2 2 2 2 2 2 2 2 2 2 2 2 2 2 2 2 2 2 2 2 2 2 2 2 2 2 2 2 2 2 2 2 2 2 2
left_child=1 14 10 4 9 6 7 -6 -7 -4 -3 21 37 -14 23 16 -16 18 -17 20 -19 22 -2 35 -25 27 -27 28 29 -24 -31 -5 -32 -21 -35 -1 -37 -12
right_child=11 2 3 31 5 8 -8 -9 -10 -11 12 -13 13 -15 15 17 -18 19 -20 33 -22 -23 25 24 -26 26 -28 -29 -30 30 32 -33 -34 34 -36 36 -38 -39
leaf_value=-0.088764293614826725 0.2944370068836426 0.065269612382558309 0.11769987168347013 -0.08897943943186612 -0.045039204992917282 -0.094422759741649306 0.36443188138187776 0.218074909156313 0.11692346321275962 -0.088885595862827516 -0.089345141641166831 0.20900995841533368 0.08216764142995979 -0.088708602836380546 0.11913138117419848 -0.089160690017603988 -0.088921464125769345 -0.088340462914195533 0.11824761229687984 -0.088859028198026602 0.097744134291745624 0.24078602590876017 0.26611571960220037 -0.014538022342262567 -0.088802590991944014 0.2732471090727337 0.28409533091363781 0.27242340734201986 0.26808776179322952 0.26545095820575282 0.2626177934812734 -0.091284682822899865 0.26339428581114976 -0.088746382538725355 -0.088217823321545402 -0.088438151559802919 -0.088635844990388429 -0.088587971067971505
leaf_weight=19.837001379579306 4.8291165977716437 2.5652249976992634 1.4494389854371545 2.9180708006024352 2.0617197901010496 2.3976794406771651 4.3397018909454346 2.2247228696942329 1.8790522217750547 4.0142365768551889 2.3795277178287586 7.0460250079631797 2.3388166315853596 5.3433230854570857 1.4394536539912213 3.9773870892822734 3.4629579186439514 8.3721155114471895 1.4428210519254205 6.8575859405100337 1.6090617068111885 5.5444485098123542 5.4200000166892996 1.3485535793006409 3.0400016158819199 6.6116674989461881 6.2150629907846451 5.3493010699748984 5.3979514837265006 5.6855597496032635 10.91800063848495 1.5402970649302004 17.908211976289763 5.7833189368247977 57.280056923627853 102.11156599968672 48.750658165663481 15.758618075400587
leaf_count=289 20 29 20 42 22 23 38 18 17 58 32 34 34 79 20 55 50 131 19 99 24 23 21 20 44 26 25 21 21 22 42 18 69 85 914 1570 726 237
internal_value=0 -0.0721049 -0.00668506 0.0604896 0.0969656 0.152457 0.228819 0.0915206 -0.00156433 -0.0340813 -0.0607005 0.262489 -0.0732156 -0.0366856 -0.0847322 -0.0784542 -0.0278327 -0.0813628 -0.0339501 -0.0845791 -0.0583418 0.26759 0.269765 -0.0879673 -0.0659819 0.267888 0.278504 0.265202 0.26435 0.263844 0.263487 -0.0897759 0.2631 -0.0883244 -0.0882663 -0.0885325 -0.088502 -0.0886873
internal_weight=0 316.523 51.2104 22.8249 18.3666 12.9029 8.62614 4.28644 4.27673 5.46368 28.3855 80.9253 25.8203 7.68214 265.313 90.2248 4.90241 85.3223 5.42021 79.9021 9.98118 73.8793 68.3349 175.088 4.38856 63.5058 12.8267 50.679 45.3297 39.9318 34.5118 4.45837 28.8262 69.921 63.0634 170.699 150.862 18.1381
internal_count=5037 4713 667 256 196 118 78 40 40 78 411 324 382 113 4046 1397 70 1327 74 1253 155 290 267 2649 64 247 51 196 175 154 133 60 111 1098 999 2585 2296 269
is_linear=0
shrinkage=0.1


Tree=18
num_leaves=39
num_cat=0
split_feature=5 10 46 22 22 71 44 45 15 15 15 14 19 5 6 10 44 5 84 19 31 22 22 19 31 95 31 5 41 70 94 15 10 51 71 44 85 82
split_gain=386.996 131.074 128.248 97.4415 76.171 79.2796 57.852 37.5485 32.0034 51.3747 40.6881 31.5504 29.9141 22.2742 21.2695 18.5971 14.2928 13.82 13.7506 12.2882 12.0734 10.6993 10.5603 10.555 8.28353 8.20082 8.03532 7.99094 7.24609 6.89041 9.00579 6.93592 7.68777 6.85579 6.05533 6.035 8.81489 7.3243
threshold=15.213196831721808 0.74536832911843598 20.215075942074833 0.93439957662379902 0.93439957662379902 0.11515547154824017 32.178472523794746 6.0196988557637834 0.98830419098322186 0.10227953777292635 0.877063646936315 54.728144374180886 33.662850826279119 28.937382391983437 39.116810135816969 1.0589078583582563 27.751110083326285 6.4901949981944176 253974406240412.09 33.959898182796842 61.351406644822575 -0.018342071448886246 0.17052972218315282 23.64686854179347 67.512835847016362 97.633005771863353 83.489273394853072 7.9299798345723813 251.44224095877854 220.82224748109283 5304822.5087641077 1.0305462984157416 1.0578766284057763 9351017327890030 0.28968463785805376 13.002896302510063 0.009391199931140402 10419587178.814421
decision_type=2 2 2 2 2 2 2 2 2 2 2 2 2 2 2 2 2 2 2 2 2 2 2 2 2 2 2 2 2 2 2 2 2 2 2 2 2 2
left_child=1 11 3 7 5 13 12 8 9 17 -11 18 14 -2 21 35 -17 20 -1 33 -3 26 -14 24 -12 34 -4 -21 -27 31 -31 -23 -33 -8 -18 -10 -37 -38
right_child=4 2 6 -5 -6 -7 19 -9 15 10 23 -13 22 -15 -16 16 25 -19 -20 27 -22 29 -24 -25 -26 28 -28 -29 -30 30 -32 32 -34 -35 -36 36 37 -39
leaf_value=-0.12093668789466212 -0.10775307303046017 0.1077094855665388 0.044172233127778057 -0.11998649213373994 -0.11490544792508857 0.11369190614606516 -0.11137722452149863 -0.099202298561699043 0.069261797592663529 -0.10897543679065512 0.038486436430091676 0.10550877845434432 0.098395404167781003 0.074480422429677492 0.10372731403900276 0.10266262961198878 -0.0935922995956191 0.11102581395851228 0.041395213917067811 -0.074695987231070807 -0.083414517957415363 -0.091401325509424869 -0.026251628052432613 0.094456192260122973 -0.062419637022198028 0.085113788227718742 -0.071375015490232771 0.057707364895896257 -0.037537437313674329 0.092400544598478587 -0.081555995668794679 -0.10093716641387954 -0.017963531265819475 4.011136051820744e-05 0.038196480412544663 -0.07651504257569243 0.071131598599623355 -0.058280024247399066
leaf_weight=165.6484157294035 21.959787964820865 5.6483951210975629 19.827933952212337 42.247526854276657 17.42564383149147 329.06727030873299 148.79862277209759 18.497891187667847 13.96865054965019 41.72217383980751 18.45243901014328 6.692463129758834 25.616988360881805 9.6567923128604871 10.098761111497877 129.27349388599396 6.7519815862178785 44.431446880102158 5.3878327608108512 11.473301917314531 7.9673538208007812 56.184137061238289 9.2516481280326825 15.311291873455046 14.550613462924955 29.428190499544144 8.6413892507553083 7.5629977434873572 5.7595389187335959 6.5268253386020643 5.4704038798809052 15.575580343604086 39.447916761040688 5.7355822622776023 7.2086736857891083 12.206717222928999 14.069535791873934 6.3460067808628073
leaf_count=635 80 20 70 166 68 1242 558 70 49 158 63 23 92 33 36 479 23 163 19 41 28 204 33 55 50 103 31 27 20 23 20 55 141 21 25 42 49 22
internal_value=0 -0.0297721 -0.0125935 0.0242994 0.0892942 0.0991597 -0.0558273 0.0398658 0.0467607 0.0106582 -0.0366354 -0.107489 -0.018688 -0.0520927 -0.0367958 0.0705202 0.0852111 0.0840149 -0.115823 -0.0979032 -0.00412811 -0.0461521 0.065323 0.0258344 -0.00600173 0.0393087 0.00909979 -0.022093 0.0650382 -0.0589193 0.0130812 -0.0666868 -0.041451 -0.107242 -0.0255423 0.0142611 -0.0092898 0.030905
internal_weight=0 981.783 804.054 433.842 378.109 360.684 370.212 391.594 373.097 148.084 90.0365 177.729 196.642 31.6166 161.773 225.013 178.422 58.0472 171.036 173.571 13.6157 151.674 34.8686 48.3143 33.0031 49.1484 28.4693 19.0363 35.1877 123.205 11.9972 111.208 55.0235 154.534 13.9607 46.5909 32.6223 20.4155
internal_count=5037 3614 2937 1585 1423 1355 1352 1419 1349 537 326 677 705 113 580 812 650 211 654 647 48 544 125 168 113 171 101 68 123 443 43 400 196 579 48 162 113 71
is_linear=0
shrinkage=0.1


Tree=19
num_leaves=39
num_cat=0
split_feature=71 45 85 10 45 10 59 2 2 37 47 2 15 104 97 8 10 85 48 5 87 10 10 45 97 21 5 21 6 71 17 28 13 104 99 82 8 3
split_gain=271.636 113.832 70.0823 98.9451 46.0541 40.8265 26.0163 23.7492 14.8459 10.9435 8.80987 9.08222 9.84793 10.1358 10.8161 9.70044 8.25206 7.55991 7.36235 6.61981 5.61013 4.12086 2.02687 1.92704 1.02923 3.76468 0.85099 0.843843 0.673157 3.56502 0.562694 0.40695 0.404085 0.319121 0.17304 0.0259288 0.0264759 0.0072001
threshold=0.11515547154824017 2.5564339918510073 0.26392646883585774 1.0372073162201254 4.169311979088655 0.54216312502323516 36.894708906857097 1.7456015960845537 2.089851841610892 509900.34022018535 675546.95483476354 1.7456015960845537 0.99501620707237382 0.22275339963750074 -13.018944179185892 309944.78086437425 0.50634127213588576 0.18290519386171536 520776189.56763738 6.1394450502958149 30747118979.64323 1.0895089006729251 1.0708110551392498 5.4362799239129327 32.784077954997819 397393.48077917699 -2.6171129397263315 260403.81293345659 -12.123756857697483 0.81091148229445154 98671.716794467546 337.36735062854729 36.163128771355041 0.016611572919904505 92.666089844363654 -10802482742.648579 -242543.51220192612 0.97785133362366528
decision_type=2 2 2 2 2 2 2 2 2 2 2 2 2 2 2 2 2 2 2 2 2 2 2 2 2 2 2 2 2 2 2 2 2 2 2 2 2 2
left_child=2 5 3 6 7 9 10 21 24 -2 11 12 13 16 -15 -14 -1 19 -16 -3 -11 30 -4 -24 26 -26 -7 -19 29 -28 -5 -8 33 -30 -35 -25 -37 -38
right_child=1 17 22 4 -6 8 31 -9 -10 20 -12 -13 15 14 18 -17 -18 27 -20 -21 -22 -23 23 35 25 -27 28 -29 32 -31 -32 -33 -34 34 -36 36 37 -39
leaf_value=0.14167499568649361 0.20033386773585701 0.19835977790525117 0.16258445008563893 -0.090505550796026984 0.17964365011859271 0.00069503529786609257 -0.097036792643769007 0.17690445004930738 0.098211123920806942 0.08798693943760999 -0.0026586062451993829 0.22389685615207361 -0.074588376491973946 0.0021447241276290902 0.17156971492168815 0.16786164961281086 -0.021368684690169452 0.1937095518682744 0.080532576454104443 0.027385110990692487 -0.095281313836768688 0.060942228427210324 0.28188263926520224 0.21738028735922452 -0.090491229196184034 0.077794586075251318 0.020792235636769352 0.24748200006582086 -0.056906668552973105 -0.089934140587618741 -0.032767589333464874 -0.042428466883352181 -0.045471132444175881 -0.072291118072866922 -0.090088261664365316 0.21578800827214706 0.20520016521984472 0.21002209450890993
leaf_weight=5.5645226612687093 5.8329981714487058 3.8433371782302874 6.7755109816789618 51.984252631664276 8.6679976880550367 1.0974608808755864 4.3884753659367552 3.7374721914529792 4.4344900175929061 4.1723576858639717 4.9357533976435652 10.157668076455591 4.6258738785982123 4.7705141454935065 58.808994866907597 2.565434031188488 7.0209626406431198 6.4544821307063085 10.464045688509939 5.512728326022625 2.7853812053799629 1.907352291047572 4.7084036543965366 6.8009174466133144 5.3484689220786086 1.7690087556838987 3.5625696927309063 5.3269466012716293 3.0062909200787535 15.820254422724245 1.744554005563258 1.9805288985371587 2.1222920045256606 5.5897415280342093 241.28172602504492 5.6841297149658265 6.3663967847824043 6.0294965505599976
leaf_count=29 30 19 25 603 38 13 36 17 26 26 31 39 39 30 291 17 39 25 53 37 23 14 21 24 62 19 39 21 36 195 21 19 23 67 2927 20 22 21
internal_value=0 -0.0594882 0.0851065 0.0599511 -0.0356762 -0.0754552 0.116392 -0.0671108 -0.0833254 0.0993113 0.12788 0.134076 0.124351 0.133686 0.147788 0.0119035 0.0507191 0.164729 0.157818 0.097619 0.0146194 -0.0835031 0.211921 0.223218 -0.0862047 -0.0486647 -0.0871852 0.218023 -0.0875406 -0.0695826 -0.0886308 -0.0800556 -0.0889219 -0.0892909 -0.0896853 0.212117 0.210137 0.207546
internal_weight=0 317.961 219.689 183.324 68.0416 296.823 115.283 59.3736 284.032 12.7907 108.914 103.978 93.8203 86.629 74.0436 7.19131 12.5855 21.1375 69.273 9.35607 6.95774 55.6362 36.3649 29.5893 279.598 7.11748 272.48 11.7814 271.383 19.3828 53.7288 6.369 252 249.878 246.871 24.8809 18.08 12.3959
internal_count=5037 3588 1449 1316 693 3486 623 655 3407 79 568 537 498 442 374 56 68 102 344 56 49 638 133 108 3381 81 3300 46 3287 234 624 55 3053 3030 2994 87 63 43
is_linear=0
shrinkage=0.1


Tree=20
num_leaves=39
num_cat=0
split_feature=71 46 10 45 33 44 19 85 44 71 71 27 71 71 105 37 13 106 89 47 38 89 75 19 40 25 71 10 0 76 10 2 87 9 75 43 103 71
split_gain=471.347 120.874 72.6333 55.4861 34.379 18.3356 20.2081 15.4566 14.3994 12.5931 11.5866 10.438 11.153 10.1875 9.77952 9.73554 14.5241 9.41017 10.3178 9.28557 14.3142 8.97299 8.41091 8.01287 7.57246 7.05012 7.45068 7.04473 7.002 6.84447 6.25025 10.1292 8.05079 7.88078 7.59426 5.66255 5.43357 5.26774
threshold=0.99014321174407871 28.12850301475029 0.61713812902190923 2.5564339918510073 15.633730566026028 27.877682352679983 13.258521499323278 0.093710848901162422 46.384905378337209 0.81091148229445154 0.28968463785805376 15.083400037040894 0.080096040830417617 0.093626936711214373 11.262388020453114 463602.68307094945 12.718625038892638 128.98099206414216 590214287.50559545 505334.06473186013 21.783228170488727 714250452.91468728 431.7579040572071 -1.8206791671070366 41149.66149460771 86215.50430358095 0.28968463785805376 1.0637655422023826 38.440629910758453 8.387611697547408 0.49796392415304591 1.1092312712466388 -23394055477.563038 413992114671313.38 375.62383570114304 -100024.76167843297 2.3398404492823253 0.085073735889898819
decision_type=2 2 2 2 2 2 2 2 2 2 2 2 2 2 2 2 2 2 2 2 2 2 2 2 2 2 2 2 2 2 2 2 2 2 2 2 2 2
left_child=1 2 17 4 8 14 7 11 9 10 13 12 -7 15 -4 16 -3 -1 24 28 -21 -6 -14 -17 -19 26 -8 -24 -16 -12 32 37 -26 -33 -34 -15 -30 -32
right_child=-2 3 5 -5 21 6 25 -9 -10 -11 29 -13 22 35 19 23 -18 18 -20 20 -22 -23 27 -25 30 -27 -28 -29 36 -31 31 33 34 -35 -36 -37 -38 -39
leaf_value=0.0045229698551968907 -0.093462540930374802 -0.083767534496304349 -0.060421092622153443 -0.079011032395667091 0.18656605173934704 -0.043759532582898872 0.13292661834319658 -0.079728412416585751 0.16836775487187791 0.20717199662992747 -0.079029584423874866 0.18967001543197268 0.016490818846651274 0.22832063724453935 0.10714983982211142 0.0196774303763015 0.11324190874961158 -0.010665930123042826 -0.028527287788839086 0.20566071454933288 -0.066079924571135068 0.067141939531461178 0.049585276927024802 0.18161460982268146 0.16029893172331289 -0.072103696735992415 -0.0521605426289301 0.21750309554399827 -0.068144707500354035 0.086238996721778288 0.19798501135367311 0.14562156634608392 -0.053439576367048672 -0.039585679371834215 0.097256165690966401 0.088164506159059672 0.082689617071642726 0.094752051389278794
leaf_weight=9.4638844430446607 313.4785925000906 9.6923285797238368 75.042323671281338 12.259452186524866 95.690748021006584 6.883334785699847 4.1560934484004992 5.7182671055197707 17.870348110795021 5.6754604130983344 9.0853000655770284 9.0855337083339673 6.5403830558061626 5.580277219414711 3.3990710303187432 5.4385814070701599 6.0954977571964255 4.1418391168117514 4.9851549416780463 4.8970232978463155 3.2085529565811157 6.7342520207166663 3.8149018287658674 6.9736061394214612 9.2216794639825839 19.50218078494072 4.562532939016819 7.240174189209938 17.728496246039871 3.4602765291929236 26.201140373945236 4.9560983628034574 5.3733262866735449 4.2829020023345947 8.855289086699484 5.9629011452198011 2.7601047456264487 6.0923088341951361
leaf_count=45 2659 54 557 95 342 41 23 41 65 22 57 40 38 22 23 27 28 21 26 31 23 30 20 30 37 139 34 34 131 17 105 21 26 21 38 29 19 26
internal_value=0 0.0663572 0.0217622 0.126774 0.140926 -0.014945 0.0258684 0.0722435 0.0898889 0.0656939 0.0503378 0.0981346 0.0641604 0.0767854 -0.0406846 0.0443932 -0.00770446 0.0984233 0.110414 0.00560878 0.0980935 0.178714 0.106379 0.110659 0.120435 -0.0386845 0.0360689 0.159558 -0.0257732 -0.0334458 0.128791 0.152095 0.0875174 0.0597655 0.0403471 0.15592 -0.0478252 0.17851
internal_weight=0 448.632 258.113 190.519 178.26 174.539 67.5034 39.2826 75.8346 57.9642 52.2888 33.5643 24.4788 39.7432 107.036 28.2 15.7878 83.5736 74.1097 31.9932 8.10558 102.425 17.5955 12.4122 69.1246 28.2208 8.71863 11.0551 23.8877 12.5456 64.9827 41.5324 23.4503 9.239 14.2286 11.5432 20.4886 32.2934
internal_count=5037 2378 1560 818 723 1194 410 214 351 286 264 173 133 190 784 139 82 366 321 227 54 372 92 57 295 196 57 54 173 74 274 173 101 42 64 51 150 131
is_linear=0
shrinkage=0.1


Tree=21
num_leaves=39
num_cat=0
split_feature=15 5 15 15 71 5 10 15 19 10 19 15 87 105 35 50 46 50 5 67 19 45 15 15 12 42 55 45 90 3 30 12 5 5 15 10 44 71
split_gain=365.621 222.589 32.9461 24.2754 19.6616 23.8331 14.7687 13.1059 11.7324 8.85226 8.63897 18.6484 7.72202 9.03085 3.66868 3.52649 3.15066 2.71956 2.41751 1.74449 1.57763 1.49381 4.50883 1.11008 4.31727 0.97187 0.429646 0.341268 0.116005 0.126865 0.106369 0.0206459 0.00320483 0.000759149 0.000615021 0.000399504 0.000369294 0.000272507
threshold=0.60693311258062255 13.7224283106454 0.072295689991517517 0.91012269573823967 0.73822558118950143 12.282192286628488 0.98368208819115488 0.3064520855007587 23.945329838177756 1.0799669738519746 25.438546512408848 0.096615002737381911 -26377148491.466373 6.823178340899271 1.2030970960382168 1.3933862953080813 17.347303284394588 0.22674726900619613 4.6372075363755849 138.44387759055596 -5.6160948900112979 0.63450424029806984 0.10227953777292635 0.094307602940252713 292620.40786567132 -1231135269.5556278 500545.10567820811 0.87358071394569381 213846.5480544813 0.30949866379741381 -1.0000000180025095e-35 408346.42130008148 7.6283658639780878 15.580051629960613 0.10534289637312096 0.5387394144264942 26.910180154560098 0.11515547154824017
decision_type=2 2 2 2 2 2 2 2 2 2 2 2 2 2 2 2 2 2 2 2 2 2 2 2 2 2 2 2 2 2 2 2 2 2 2 2 2 2
left_child=1 2 9 4 -2 6 -6 20 12 26 17 19 14 -14 -8 -10 -13 18 -4 -12 -3 23 -23 24 -19 -24 32 -27 30 -30 -25 -31 -1 35 -22 -5 -37 -35
right_child=3 7 10 33 5 -7 8 -9 15 -11 11 16 13 -15 -16 -17 -18 21 -20 -21 34 22 25 28 -26 27 -28 -29 29 31 -32 -33 -34 37 -36 36 -38 -39
leaf_value=-0.096084793037737481 -0.089489576260625855 -0.0025443649906510121 0.21112851702241869 -0.089589955732638532 -0.089262407806392829 -0.088983429482287157 0.29481348365209253 0.22302472254355701 -0.090383194181862136 0.11318016634413255 -0.090208261688797975 0.12657220554473234 0.16025364964751299 -0.03034542342523382 0.15912635343717074 0.087361472066397938 0.23518127801014438 0.30791198163129407 0.12874235152131863 0.040836133919262878 -0.088671586832333171 0.10623714822457186 0.17528568594979371 0.19216969894006211 0.18232515876013733 0.21257827623076678 -0.03254344241916339 0.24440934040310563 0.22353937091687476 0.20894563138349231 0.21082447852488884 0.21463574633898555 -0.090538313025480585 -0.089430707690296013 -0.090798526549408065 -0.088997552757963824 -0.089309098476074031 -0.088625673567526819
leaf_weight=1.9494521170854548 25.387687973678112 2.2315270304679862 6.0796826779842368 22.072756808251143 4.6324595846235779 13.142190985381601 3.3787135183811241 1.4281890243291844 3.2994148880243293 4.2915657609701157 3.057891532778739 4.3812453448772413 6.3138877898454648 4.1002975702285767 4.8573819994926453 1.6869204044342039 6.8422679975628853 5.5998111814260465 8.5998494401574117 1.5212099701166151 42.431712485849857 5.241625331342223 5.7777921408414903 5.1805454716086388 5.3548303246498108 9.7149760127067513 1.6253263652324674 5.1555996835231772 10.609699130058287 19.846871852874759 7.4552153050899488 9.3952875435352308 2.2374100238084793 4.7454493418335906 1.4044999927282322 86.172859899699688 68.128339108079672 36.909439004957676
leaf_count=16 334 22 22 285 63 186 15 6 39 38 37 20 34 27 28 20 26 24 38 18 626 26 21 20 26 34 17 20 38 69 26 33 27 63 16 1212 916 549
internal_value=0 0.109937 0.177663 -0.0729422 -0.0201993 0.02228 0.074006 -0.0753153 0.106004 0.00425014 0.192286 0.123397 0.142434 0.0852105 0.21479 -0.0302506 0.192784 0.202753 0.162863 -0.0466744 -0.0845644 0.209308 0.189065 0.217568 0.246523 0.210091 -0.0761809 0.223614 0.211525 0.214172 0.203176 0.210774 -0.0931208 -0.0891013 -0.0887397 -0.089192 -0.0891351 -0.0887174
internal_weight=0 177.414 129.918 284.828 66.799 41.4113 28.2691 47.4959 23.6366 10.1038 119.814 15.8026 18.6503 10.4142 8.2361 4.98634 11.2235 104.012 14.6795 4.5791 46.0677 89.3323 25.89 63.4423 10.9546 20.6484 5.81219 14.8706 52.4876 39.8519 12.6358 29.2422 4.18686 218.029 43.8362 176.374 154.301 41.6549
internal_count=5037 1266 596 3771 746 412 226 670 163 98 498 101 104 61 43 59 46 397 60 55 664 337 101 236 50 75 60 54 186 140 46 102 43 3025 642 2413 2128 612
is_linear=0
shrinkage=0.1


Tree=22
num_leaves=39
num_cat=0
split_feature=10 10 10 71 5 15 49 12 39 49 14 71 33 33 49 50 51 67 74 10 49 5 5 3 46 44 15 19 15 15 22 71 19 46 53 71 85 4
split_gain=236.459 160.234 34.2036 20.1787 24.265 19.041 10.3748 9.25292 4.76246 3.19817 2.18596 0.918777 0.871325 0.672929 0.168387 0.105651 0.0107661 0.00944037 0.00363229 0.00181458 0.00122231 0.000334453 0.000298929 0.000247589 0.000104928 4.1935e-05 4.88561e-05 4.3378e-05 3.63795e-05 3.15242e-05 3.72666e-05 7.64447e-05 3.36908e-05 2.59453e-05 2.35084e-05 2.28701e-05 2.21326e-05 2.1162e-05
