tree
version=v3
num_class=6
num_tree_per_iteration=6
label_index=0
max_feature_idx=106
objective=multiclass num_class:6
feature_names=feature0 feature1 feature2 feature3 feature4 feature5 feature6 feature7 feature8 feature9 feature10 feature11 feature12 feature13 feature14 feature15 feature16 feature17 feature18 feature19 feature20 feature21 feature22 feature23 feature24 feature25 feature26 feature27 feature28 feature29 feature30 feature31 feature32 feature33 feature34 feature35 feature36 feature37 feature38 feature39 feature40 feature41 feature42 feature43 feature44 feature45 feature46 feature47 feature48 feature49 feature50 feature51 feature52 feature53 feature54 feature55 feature56 feature57 feature58 feature59 feature60 feature61 feature62 feature63 feature64 feature65 feature66 feature67 feature68 feature69 feature70 feature71 feature72 feature73 feature74 feature75 feature76 feature77 feature78 feature79 feature80 feature81 feature82 feature83 feature84 feature85 feature86 feature87 feature88 feature89 feature90 feature91 feature92 feature93 feature94 feature95 feature96 feature97 feature98 feature99 feature100 feature101 feature102 feature103 feature104 feature105 feature106
feature_infos=[-32.867995131952171:462.62782872267269] [-575880.08980878419:832595.27437607385] [-2.1575271315245659:3.2817369704331081] [-2.036992299032073:14.456152553860129] [-105.66825854060858:1662.7256768902971] [-27.202964321901771:143.50720945195098] [-42.635150217540613:134.121709092315] [-1838161783454.6863:5675041012972.6797] [-1928729.934231868:6449120.6170149157] [-11555874868356308:34419362625320340] [-1.8634514892860861:3.5000251917625063] [-158.73014494152886:2429.7311439901869] [-746382.1329851402:4266734.1708656074] [-68.427193443253799:222.45659970186892] [-70.340263201387103:230.28312378609701] [-1.2351996378947137:9.1177269021449714] [-76615021050738.625:306649747663432.44] [-98421.760557597678:673162.60577803338] [-638012.05822956539:3601973.4981176816] [-107.04671766689376:404.11475937742966] [-3942.8590785928391:5624.9868563160053] [-407269.66892461339:3101170.1737122792] [-0.1870936557878482:6.058424804330742] [-157.82169595807972:2421.8989256400764] [-3.6669596589321238:17.092228219897432] [-297384.52337299671:1760744.1235635951] [-180536.63852849384:1048776.5861311329] [-60.974660100449121:195.5657767217028] [-131.07663369475011:2317.9355308738109] [-1.2604877019817735:7.9258544865332752] [-60.70294953360559:200.02145744289663] [-231.07284377911469:1037.0535174372426] [-87.763636192737323:128.81707069241804] [-63.877722338665052:220.81452764354529] [-2.0008296089476438:18.48075856915785] [-67.608476254004216:229.69366641726063] [-40214847506185.844:132153566444240.78] [-758794.65835550125:5296483.7584517859] [-17.182350989437246:160.3269242789263] [-4736314769.9025574:13668052155.074932] [-708639.81159286038:4016714.4981974098] [-84.095290721189457:1430.9046790382015] [-12408580500.611732:39491238932.680763] [-4292216.2907481473:15926711.063552313] [-47.592515830170314:301.56125423733874] [-3.0960771925263328:32.721315369390496] [-64.814861653844133:287.17154190688524] [-819726.71697322:4484746.3082206957] [-2482308419.9118128:7590517706.3950977] [-152.28502995179997:478.13122033169282] [-2.9450767594242961:16.106167204267344] [-23599248682340976:75144810562657712] [-809948.66813543253:4552928.87975109] [-2.9036868063723009:14.321201857974806] [-568105.70860979846:851000.35481412476] [-673769.31818224117:4149488.6493837247] [-97.921423432853658:540.25273530567245] none [-404204.54081036872:1244097.87523669] [-55.725200775314988:189.97464401064624] [-127620201.24019425:218136202.9284603] [-2079599.4855358507:6482513.7873045299] [-1.6894705700914718:11.585084481013016] [-107.13841421302288:2008.5755091527551] [-2150.3637036925652:3294.0307456293308] [-20.73628613753765:32.990078623434911] [-97847230812226.688:310238657738612.19] [-242.82951082916051:1427.0879167131909] [-568020.62418572465:3405895.6114448663] [-886431.06590957427:5372572.743786864] [-78.691255691490056:1170.0584715751395] [-2.6762763471264286:11.959249096830726] [-26361481.592488967:79710518.007147491] [-2.9835260874320779:15.893152461187579] [-3.7313488171630862:20.664464946858992] [-135.70912361074852:3059.9461092479082] [-59.715198906694582:200.36501482943007] none [-8152.3230937688222:13291.803107587084] [-47302144556668224:1.4094718788468349e+17] [-1.7231294531440111:2.589137377395113] [-257.33395986801224:889.1860975896908] [-127244355315.87878:384393583807.55011] [-1.7215270999143892:8.428947472557601] [-484793327367386.88:1495451359893700.8] [-0.045907444163674399:5.0031243064153363] [-44358331142399.719:146524220772269.88] [-466711750308.81982:1422244336623.6606] [-35178.098023931052:52064.140535243307] [-1737608038.6451449:5309526849.856349] [-922549.95899715857:5016527.0188005175] [-45274416045659.523:138184443483141.09] [-2130.9096747861927:3347.2706466647901] [-1034271.8710799646:5525277.0714095486] [-85449824.062673867:263175763.51318991] [-51.597235473779648:821.43353253519956] [-3179075.109413153:9631943.0524353031] [-60.442987199511201:199.72554997243515] [-304922.23010696162:1708343.6883522731] [-82.406320489730177:1589.9766107932128] none [-2135493647.7211485:6500495516.8449059] [-49.696572317292805:1292.1663642463368] [-3.6421600851254778:16.981625910683814] [-3.1115558739336211:17.44434730783447] [-66.849871675887584:233.48407411078739] [-100.83769092590131:1602.4512270425605]
tree_sizes=4178 2491 3191 2088 1576 1682 4180 3948 4216 4313 4331 4233 4188 3529 4222 4304 4319 4333 4185 4261 4240 4307 4337 3778 4199 4170 4249 4310 4333 4111 4208 4271 4242 4308 4336 3878 4223 4268 4220 4311 4343 4222 4221 4294 4214 4314 4336 3673 4204 4292 4243 4298 4363 3901 4222 4289 4244 4309 4337 4346 4219 4267 4229 4319 4368 4347 4207 4264 4249 4324 4365 4353 4223 4290 4233 4323 4365 4353 4221 4270 4231 4319 4370 4365 4223 4281 4270 4332 4379 4377 4221 4286 4253 4339 4379 4366 4204 4299 4272 4324 4376 4366 4230 4287 4259 4336 4394 4372 4232 4305 4281 4350 4388 4375 4229 4281 4270 4351 4402 4354 4238 4312 4247 4363 4397 4369 4226 4311 4270 4353 4389 4379 4252 3879 4229 4354 4407 4356 4248 4313 4252 4345 4419 4349 4265 4134 4282 4345 4407 4360 4275 4303 4251 4362 4435 4378 4235 4316 4286 4375 4432 4387 4251 4319 4298 4341 4428 4391 4293 4341 4318 4366 4443 4405 4281 4338 4317 4368 4441 4416 4252 4353 4269 4423 4436 4409 4280 4318 4327 4385 4444 4407 4285 4364 4314 4403 4452 4427 4277 4375 4340 4392 4447 4415 4279 4363 4358 4407 4444 4429 4297 4360 4332 4387 4467 4422 4289 4380 4321 4409 4457 4450 4309 4373 4309 4386 4459 4451 4309 4371 4340 4404 4470 4466 4303 4371 4338 4420 4472 4457 4324 4356 4331 4410 4482 4466 4301 4348 4350 4415 4469 4430 4296 4413 4340 4426 4479 4480 4311 4386 4338 4405 4474 4472 4307 4383 4337 4455 4497 4465 4359 4373 4354 4437 4491 4469 4332 4382 4390 4453 4509 4478 4326 4375 4317 4446 4514 4464 4342 4415 4373 4430 4519 4469 4383 4397 4368 4439 4535 4480 4360 4387 4385 4427 4528 4477 4345 4445 4400 4448 4538 4495 4362 4396 4376 4492 4516 4508 4379 4414 4399 4465 4534 4520 4381 4430 4394 4456 4557 4498 4400 4421 4385 4469 4543 4528 4394 4403 4437 4477 4540 4518 4407 4467 4426 4459 4559 4519 4437 4476 4398 4460 4552 4532 4399 4457 4434 4488 4551 4532 4399 4412 4411 4470 4553 4544 4405 4489 4427 4500 4556 4534 4432 4442 4417 4499 4561 4555 4405 4462 4437 4456 4559 4545 4418 4440 4455 4498 4569 4587 4428 4454 4445 4535 4572 4542 4438 4485 4491 4475 4560 4562 4420 4459 4426 4498 4562 4585 4440 4503 4436 4523 4355 4585 4440 4481 4450 4524 3779 4550 4457 4495 4449 4512 4246 4579 4453 4507 4458 4545 4471 4593 4472 4499 4468 4539 4231 4587 4481 4517 4473 4530 2857 4588 4504 4463 4483 4536 2868 4131 4459 4494 4486 4557 3879 4253 4491 4513 4494 4435 2875 3551 4494 4543 4485 4576 2756 3328 4490 4520 4510 4554 2629 3106 4508 4525 4511 4560 2521 2992 4516 4531 4500 4579 2399 2861 4507 4529 4499 4546 2766 2767 4499 4547 4506 3663 2637 2523 4520 4529 4529 4351 1931 2066 4510 4543 4531 3773 1824 2419 4528 4539 4530 3312 2187 1948 4530 4223 4537 3751 1821 1837 4533 4572 3971 3198 1831 1834 4526 4539 4528 3196 1488 1835 4538 4552 3982 2638 1363 1592 4551 4568 4527 2876 1365 1607 4545 3447 4103 2857 1259 1384 4542 4562 4547 2642 1039 1154 4538 4565 4548 2623 1268 1261 4560 3883 4444 1941 1040 1044 4564 4452 4546 2063 1034 1040 4552 4128 3535 1957 933 932 4588 4026 4225 1951 929 816 4561 3564 3657 1607 811 932 4579 2628 4562 1610 815 704 4597 3692 3659 1616 695 708 4588 2884 4246 1494 705 704 4587 2655 3778 1261 592 702 4589 2888 3332 1156 589 585 3461 2181 3350 1162 587 588 4352 2414 3914 1043 699 475 3102 2544 2521 1040 584 473 4361 2302 3212 928 584 474 2867 2422 3236 927 471 591 3230 2079 2772 924 473 588 3228 2064 2420 813 591 473 2997 1855 2424 817 468 471 2549 1835 2422 817 474 477 2998 1622 2421 707 475 475 2654 1627 2191 703 473 478 2431 1502 2086 702 471 473 2318 1495 2211 705 474 475 2434 1508 1970 704 473 471 2426 1393 1843 706 477 474 2321 1158 1735 586 360 359 2320 1272 1728 706 474 362 2199 1270 1737 471 359 360 2086 1160 1733 586 358 361 1620 1053 1505 592 360 358 2082 1053 1619 588 359 358 1963 1046 1503 475 360 358 1735 929 1394 591 355 359 1744 1045 1277 473 358 359 1746 1045 1283 475 356 360 1511 935 1401 474 359 357 1623 1043 1269 472 359 362 1518 814 1276 473 356 358 1620 817 1273 474 358 360 1509 822 1279 475 358 357 1506 933 1157 470 359 360 1629 828 1167 475 358 358 1507 703 1045 470 359 362 1395 822 1269 471 356 357 1394 937 1163 474 358 361 1281 703 1044 472 359 359

Tree=0
num_leaves=39
num_cat=0
split_feature=5 10 46 22 44 71 22 45 15 15 15 22 15 10 13 19 5 68 44 105 10 26 49 51 61 89 47 2 45 23 38 13 23 15 5 56 4 2
split_gain=366.679 119.567 97.6236 109.888 50.9792 45.4618 44.2071 39.3197 35.1591 72.7361 28.6037 36.6556 26.6372 21.7499 18.1003 13.1784 12.2318 9.96329 9.34949 9.52528 9.07822 9.0753 7.14655 6.75089 6.54488 4.9805 4.44931 4.06801 3.71723 2.91665 2.86667 2.45555 2.42854 2.01773 0.703551 1.8475 0.616225 0.582165
threshold=15.907466988586732 1.0478246265129916 18.699072583175486 0.64528647102267411 33.876576824993926 0.14193997155414226 0.35535642299472797 4.8484277043184365 0.96604315818040887 0.09500665046820532 1.0029555132402421 0.29866954788705286 0.082903445873481765 1.089365235329155 41.170248010142643 16.012509175351671 11.717869496473227 438998.36180640577 14.031971120608787 14.919378714779283 0.77584235383460209 27268.175072290192 -28.421701025211323 9856834780055682 4029.0009092063742 194791151.62420115 201211.17522998064 1.1050822438618126 1.4603532328281557 289.38390812739368 24.645550798743919 0.11734655494895786 417.02509860938432 0.10988035361622665 17.146540361426592 4.2532838205863799 142.29658602546985 1.0975055332973849
decision_type=2 8 2 10 2 8 10 10 8 10 8 10 10 8 2 2 2 10 2 2 10 10 10 8 2 2 10 8 10 8 8 2 8 10 2 10 8 10
left_child=1 14 3 7 10 -2 28 8 9 26 12 13 -4 17 20 -15 31 22 29 23 36 -21 -12 25 -22 -20 -3 -24 34 -10 -11 32 -6 -14 35 -7 -1 -33
right_child=5 2 4 -5 16 6 -8 -9 18 30 11 -13 33 15 -16 -17 -18 -19 19 21 24 -23 27 -25 -26 -27 -28 -29 -30 -31 -32 37 -34 -35 -36 -37 -38 -39
leaf_value=-0.80443913284296531 -0.72660461411903643 -0.61035825498589569 -0.59519568640331211 -0.83362707736443875 -0.82389776252394764 -0.50422027490781074 -0.78776030740212344 -0.81396989023773225 -0.57323610431819105 -0.83779678372464927 -0.64225193372857148 -0.83779678372464927 -0.77108148196128146 -0.79014299675081512 -0.64718163582931287 -0.6042932275528623 -0.68490755051693153 -0.70436618019791386 -0.52624891228250759 -0.7310523009032609 -0.8211179582838074 -0.58205479363173973 -0.58761440211202043 -0.64225193372857148 -0.67826019255137859 -0.60846293391307271 -0.5111697855081615 -0.50422027490781063 -0.58761440211202032 -0.50752301261886845 -0.75440265652043959 -0.80443913284296542 -0.73772383107959771 -0.83779678372464927 -0.50422027490781063 -0.57093557667117834 -0.83779678372464927 -0.83779678372464927
leaf_weight=5.9956258535385158 11.691470414400099 6.5951884388923672 6.5951884388923672 23.982503414154053 7.194751024246214 13.490158170461656 5.9956258535385123 8.3938761949539167 8.6936574876308423 13.190376877784727 8.6936574876308388 9.5930013656616193 5.9956258535385158 10.4923452436924 6.295407146215438 5.9956258535385123 7.1947510242462149 5.9956258535385123 31.77681702375412 7.4945323169231441 5.9956258535385114 8.993438780307768 9.5930013656616282 8.6936574876308423 6.8949697315692902 9.5930013656616193 14.38950204849243 14.989064633846279 5.9956258535385123 30.277910560369492 5.9956258535385158 5.9956258535385123 5.9956258535385132 18.586440145969391 116.61492285132408 5.9956258535385123 72.54707282781601 41.070037096738815
leaf_count=20 39 22 22 80 24 45 20 28 29 44 29 32 20 35 21 20 24 20 106 25 20 30 32 29 23 32 48 50 20 101 20 20 20 62 389 20 242 137
internal_value=-0.666505 -0.713644 -0.685772 -0.634506 -0.741444 -0.536764 -0.521777 -0.603514 -0.591389 -0.671009 -0.694835 -0.657237 -0.773647 -0.626173 -0.811193 -0.722561 -0.808146 -0.585705 -0.56108 -0.583858 -0.822485 -0.649781 -0.564324 -0.562147 -0.744706 -0.545313 -0.542343 -0.536764 -0.510554 -0.522182 -0.811736 -0.822861 -0.784728 -0.821525 -0.507159 -0.524748 -0.83525 -0.833547
internal_weight=0 439.779 342.05 178.07 163.98 159.783 148.092 154.088 145.694 40.1707 96.5296 65.3523 31.1773 55.7593 97.7287 16.488 67.4508 39.2713 105.523 66.5514 91.4333 16.488 33.2757 50.0635 12.8906 41.3698 20.9847 24.5821 142.096 38.9716 19.186 60.256 13.1904 24.5821 136.101 19.4858 78.5427 47.0657
internal_count=2000 1467 1141 594 547 533 494 514 486 134 322 218 104 186 326 55 225 131 352 222 305 55 111 167 43 138 70 82 474 130 64 201 44 82 454 65 262 157
is_linear=0
shrinkage=1


Tree=1
num_leaves=23
num_cat=0
split_feature=45 10 2 9 35 71 95 82 66 69 71 10 105 34 62 59 13 2 0 0 0 0
split_gain=503.863 238.185 114.985 82.8994 36.9944 30.4485 19.9403 31.5908 18.7205 14.7879 7.15861 19.155 17.4618 3.15395 2.88566 1.60686 0.552031 1.29941 5.68434e-14 2.84217e-14 1.42109e-14 1.77636e-15
threshold=3.2529198210430739 0.53383558907393069 2.0960793041685499 7215770557669159 23.17148627274123 0.069965690455201415 104.95456169154315 17266106342.355793 3920083981731.0674 461737.23130926222 0.072908943132888607 1.0842807902171938 18.95209898682354 2.0899056324733309 3.4261037305987547 -6.4951595469749313 32.698981315225829 1.1078164653440321 56.998420353226557 102.17499944163382 94.42101649904582 44.445874969076179
decision_type=10 8 10 2 2 10 10 8 2 8 8 8 2 10 10 2 2 8 10 10 10 10
left_child=1 4 10 13 5 6 7 -1 -8 -6 11 15 -13 18 16 -3 19 -18 -2 20 -12 -17
right_child=3 2 -4 -5 9 -7 8 -9 -10 -11 14 12 -14 -15 -16 21 17 -19 -20 -21 -22 -23
leaf_value=-1.5521146877163701 -1.4716750719547913 -2.3162910374513532 -1.8046777823656222 -2.1473678443520408 -2.0688782798816532 -2.1695059266385606 -1.8129340479129983 -2.0347523822858329 -2.2224448190628463 -2.4101372558398602 -2.4101372558398602 -1.9632505016088755 -2.3632141466456065 -1.6124443995375519 -2.3095877361378885 -2.4101372558398602 -2.4101372558398602 -2.3162910374513532 -1.4716750719547917 -2.4101372558398602 -2.4101372558398602 -2.4101372558398602
leaf_weight=3.729505576193338 2.6639325544238073 2.1311460435390499 3.3032763674855223 2.6639325544238082 2.3442606478929511 4.1557347849011412 2.344260647892952 2.1311460435390472 2.1311460435390472 2.7704898566007614 143.63924333453178 2.2377033457160023 2.1311460435390472 2.1311460435390472 2.9836044609546652 3.0901617631316141 4.7950785979628554 2.1311460435390472 3.6229482740163803 2.1311460435390464 4.2622920870780936 9.5901571959257108
leaf_count=35 25 20 31 25 22 39 22 20 20 26 1348 21 20 20 28 29 45 20 34 20 40 90
internal_value=-2.3177 -2.35371 -2.38931 -1.66117 -2.02251 -1.94091 -1.84899 -1.72762 -2.00794 -2.25373 -2.40009 -2.34236 -2.15835 -1.50731 -2.40701 -2.39663 -2.40886 -2.38126 -1.47168 -2.41014 -2.41014 -2.41014
internal_weight=0 202.033 182.426 11.082 19.6065 14.4918 10.3361 5.86065 4.47541 5.11475 179.123 19.1803 4.36885 8.41803 159.943 14.8115 156.959 6.92622 6.28688 150.033 147.902 12.6803
internal_count=2000 1896 1712 104 184 136 97 55 42 48 1681 180 41 79 1501 139 1473 65 59 1408 1388 119
is_linear=0
shrinkage=1


Tree=2
num_leaves=30
num_cat=0
split_feature=71 46 10 45 2 44 45 71 76 76 95 31 29 27 3 9 79 71 10 89 97 105 30 44 34 18 0 4 0
split_gain=381.915 171.042 100.929 53.8623 34.0902 32.2486 41.1512 28.1614 32.8045 23.3548 22.3478 19.0949 19.805 16.8101 15.6723 16.6838 18.7696 14.7558 14.5576 13.3718 12.4949 10.7045 3.80876 3.60571 1.73233 1.13632 0.998101 0.31387 1.06581e-14
threshold=0.98824525826444398 42.169410171579827 1.0594044179343942 2.1129745025477082 1.1125022317777373 33.488959514886808 0.30973702032754646 0.98824525826444398 14.248547044808257 12.802779439743675 80.382143469237434 118.12629349911749 0.079607369438160422 12.352554103018855 1.2208638793149811 -1901012627304186.2 630095559432310.62 0.1879636920880188 0.71029675736040898 -43972320.267330438 7.6350187967187439 15.908596576784722 15.459625756440206 44.108158934507607 3.5800600168289827 1.0000000180025095e-35 34.246786920719856 404.76228739318907 53.466333977535477
decision_type=8 2 10 8 10 2 8 10 2 2 10 2 10 8 10 2 10 10 8 2 2 2 10 2 8 10 10 10 8
left_child=1 2 4 9 10 17 -7 8 18 -3 19 12 -12 -10 15 -14 -17 22 -2 -1 -21 -8 25 24 -20 -4 -11 -9 -27
right_child=7 3 5 -5 -6 6 21 27 13 26 11 -13 14 -15 -16 16 -18 -19 23 20 -22 -23 -24 -25 -26 28 -28 -29 -30
leaf_value=-1.8955021688610221 -1.7134541033469808 -1.5979083390102571 -1.9053426048347541 -1.830255799904756 -1.9437203051323089 -1.4459731618791754 -1.9493170530923689 -1.9693054386640121 -1.8413797710054964 -1.3936399342006918 -1.7217073722281755 -1.8093983540908674 -1.3601355926710812 -1.5243465946343926 -1.3296771003714341 -1.7494331973759383 -1.4459731618791754 -1.7256375002668394 -1.9693054386640121 -1.5331952080099813 -1.8093983540908676 -1.7134541033469808 -1.8661395776490801 -1.8413797710054964 -1.8982356232981699 -1.9693054386640119 -1.3296771003714341 -1.937324021749383 -1.9693054386640121
leaf_weight=4.064860612154007 3.1268158555030832 4.8465645760297802 3.1268158555030849 3.5958382338285473 3.908519819378852 3.4394974410533887 5.0029053688049299 165.09587717056274 3.1268158555030814 3.1268158555030814 4.8465645760297837 3.1268158555030814 3.2831566482782391 3.5958382338285446 4.3775421977043143 5.0029053688049299 3.4394974410533905 3.2831566482782355 18.291872754693031 3.4394974410533887 3.1268158555030823 3.1268158555030823 4.8465645760297766 3.1268158555030814 4.2212014049291673 8.286062017083168 11.10019628703594 3.1268158555030814 16.572124034166336
leaf_count=26 20 31 20 23 25 22 32 1056 20 20 31 20 21 23 28 32 22 21 117 22 20 20 31 20 27 53 71 20 106
internal_value=-1.8708 -1.71969 -1.78391 -1.47525 -1.66373 -1.88123 -1.73593 -1.95163 -1.87068 -1.40832 -1.6322 -1.57888 -1.54448 -1.6718 -1.49114 -1.55141 -1.6258 -1.92777 -1.91716 -1.75296 -1.66472 -1.8586 -1.94798 -1.942 -1.95598 -1.96216 -1.34373 -1.96871 -1.96931
internal_weight=0 108.97 86.3001 22.6694 38.6162 47.6839 11.5692 203.712 35.4894 19.0736 34.7077 24.0765 20.9497 6.72265 16.1031 11.7256 8.4424 36.1147 28.7667 10.6312 6.56631 8.12972 32.8316 25.6399 22.5131 27.985 14.227 168.223 24.8582
internal_count=2000 697 552 145 247 305 74 1303 227 122 222 154 134 43 103 75 54 231 184 68 42 52 210 164 144 179 91 1076 159
is_linear=0
shrinkage=1


Tree=3
num_leaves=19
num_cat=0
split_feature=15 15 5 31 19 10 15 71 14 5 43 48 56 0 0 0 0 0
split_gain=395.935 671.567 128.957 56.9699 28.3824 20.3034 12.1099 13.4151 25.0521 9.87677 4.09165 1.62872 0.431599 0.391605 2.27374e-13 1.42109e-14 3.55271e-15 1.77636e-15
threshold=0.53015197640609346 0.10988035361622665 8.9995103210097245 60.090423568201608 10.768483194880902 1.0834729095488054 0.53015197640609346 1.0597710136859051 -1.0000000180025095e-35 9.7912008825167351 -896949.425370952 -882419359.65783989 114.31452332370419 405.43178743060372 52.369028466642902 45.581395425822869 55.106976072199949 80.154350402618277
decision_type=8 10 2 2 2 10 10 8 2 2 8 8 10 8 10 8 8 10
left_child=1 2 3 -1 -5 11 7 10 -9 14 -2 -4 15 17 -3 -8 -13 -12
right_child=6 9 5 4 -6 -7 12 8 -10 -11 13 16 -14 -15 -16 -17 -18 -19
leaf_value=-2.3441500413045362 -2.2536739902814613 -1.4684101512132655 -2.3024481417763805 -1.5342552557314064 -1.9894453260959439 -2.0676006023283455 -2.3902416144672345 -2.0215090291656472 -2.3902416144672345 -1.6988680170267578 -2.3902416144672345 -2.3902416144672345 -2.3463448781218075 -2.3441500413045362 -1.4684101512132655 -2.3902416144672345 -2.3902416144672345 -2.3902416144672345
leaf_weight=2.1695940196514121 2.9289519265294075 5.9663835540413839 2.2780737206339836 3.0374316275119781 2.4950331225991249 2.1695940196514121 26.686006441712379 3.7967895343899727 3.5798301324248341 2.1695940196514121 9.763173088431353 10.522530995309355 2.2780737206339827 2.1695940196514174 7.0511805638670921 106.74402576684952 18.658508569002155 2.4950331225991258
leaf_count=20 27 55 21 28 23 20 246 35 33 20 90 97 21 20 65 984 172 23
internal_value=-2.2976 -2.06999 -2.27894 -1.90985 -1.73954 -2.36348 -2.37778 -2.31342 -2.20045 -1.50133 -2.36143 -2.38388 -2.3895 -2.38331 -1.46841 -2.39024 -2.39024 -2.39024
internal_weight=0 56.5179 41.3308 7.70206 5.53246 33.6287 160.441 24.7334 7.37662 15.1872 17.3568 31.4591 135.708 14.4278 13.0176 133.43 29.181 12.2582
internal_count=2000 521 381 71 51 310 1479 228 68 140 160 290 1251 133 120 1230 269 113
is_linear=0
shrinkage=1


Tree=4
num_leaves=14
num_cat=0
split_feature=10 10 10 49 14 52 19 13 50 0 0 85 0
split_gain=358.724 941.654 18.7677 27.7746 9.87167 9.08951 15.4914 2.81228 2.69003 2.27374e-13 1.42109e-14 1.77636e-15 4.44089e-16
threshold=0.77584235383460209 0.61316028481288753 0.77584235383460209 44.507846186278037 13.018937541178486 536857.18570363557 10.07915589059566 -9.8612337239965484 0.1596340780060834 77.722281338628264 96.342084137768992 0.0011259904714126503 104.96367150107746
decision_type=8 10 10 10 2 10 2 2 8 10 10 8 10
left_child=1 7 3 5 9 8 -7 -1 -2 -3 -4 -9 -12
right_child=2 4 10 -5 -6 6 -8 11 -10 -11 12 -13 -14
leaf_value=-2.7980385856436283 -2.7980385856436283 -1.402715759743121 -2.9530744551881289 -2.4719286531534714 -1.7127874988321234 -2.5189740204635269 -2.9530744551881289 -2.9530744551881289 -2.9530744551881289 -1.4027157597431219 -2.9530744551881289 -2.9530744551881289 -2.9530744551881289
leaf_weight=1.2900240719318414 1.2900240719318392 3.7410698086023322 89.97917901724577 1.8705349043011654 1.2900240719318388 1.6125300899147981 1.6770312935113905 2.5155469402670843 8.4496576711535418 1.2900240719318388 2.1930409222841258 10.062187761068342 1.7415324971079824
leaf_count=20 20 58 1395 29 20 25 26 39 131 20 34 156 27
internal_value=-2.8647 -2.47757 -2.93653 -2.83227 -1.466 -2.884 -2.74028 -2.93865 -2.93254 -1.40272 -2.95307 -2.95307 -2.95307
internal_weight=0 20.1889 108.814 14.8998 6.32112 13.0292 3.28956 13.8678 9.73968 5.03109 93.9138 12.5777 3.93457
internal_count=2000 313 1687 231 98 202 51 215 151 78 1456 195 61
is_linear=0
shrinkage=1


Tree=5
num_leaves=15
num_cat=0
split_feature=22 22 83 26 7 10 48 50 61 0 0 6 0 0
split_gain=1444.93 5.42631 10.9852 4.54974 4.15211 2.11079 1.26107 0.449548 0.228327 0.353868 2.27374e-13 2.84217e-14 1.77636e-15 8.88178e-16
threshold=0.64528647102267411 0.64528647102267411 2.3783793328927842 146265.63388015438 -556948165112.27087 1.0879781031768949 -1058398394.1173307 0.025835792027293952 1049559.6355938108 78.511867492445205 68.923594377341274 10.504524873805975 60.170032023725895 40.686253379758973
decision_type=10 8 8 10 8 10 8 8 2 10 10 2 10 8
left_child=1 6 4 10 -3 12 -1 -8 11 -10 -2 -9 13 -6
right_child=3 2 -4 -5 5 -7 7 8 9 -11 -12 -13 -14 -15
leaf_value=-2.5932974671677971 -1.4811399567879575 -2.4837668032667519 -2.4247887534738819 -1.6580741061665685 -2.6607009526453629 -2.5427448530596224 -2.6135185128110665 -2.6607009526453629 -2.6607009526453629 -2.6017229028524924 -1.481139956787958 -2.6607009526453629 -2.6607009526453629 -2.6607009526453629
leaf_weight=2.9672056064009666 7.1212934553623182 1.6955460608005521 2.9672056064009693 1.6955460608005513 1.7803233638405784 1.6955460608005513 2.1194325760006922 105.46296498179436 2.5433190912008277 1.6955460608005521 3.0519829094409943 22.126876093447208 6.9517388492822647 5.6800793036818567
leaf_count=35 84 20 35 20 21 20 25 1244 30 20 36 261 82 67
internal_value=-2.57046 -2.65055 -2.60293 -1.50642 -2.63262 -2.64828 -2.65778 -2.65921 -2.65994 -2.63711 -1.48114 -2.6607 -2.6607 -2.6607
internal_weight=0 157.686 20.7704 11.8688 17.8032 16.1077 136.915 133.948 131.829 4.23887 10.1733 127.59 14.4121 7.4604
internal_count=2000 1860 245 140 210 190 1615 1580 1555 50 120 1505 170 88
is_linear=0
shrinkage=1


Tree=6
num_leaves=39
num_cat=0
split_feature=5 10 46 22 44 71 22 45 15 15 19 10 13 71 67 5 91 22 44 19 68 10 25 19 0 3 11 69 47 19 49 23 0 14 71 68 45 106
split_gain=278.353 86.8463 75.3885 78.5293 38.4991 33.256 31.7962 28.2179 25.1337 53.6644 23.1588 24.3453 15.0695 12.8543 11.4597 9.47683 9.18126 7.82704 7.75349 7.84802 8.86113 6.60546 5.25744 5.21381 4.61985 4.45723 3.75778 3.5924 3.54699 2.90196 2.54689 2.46707 1.95152 0.890755 0.746437 0.63895 0.624255 0.157638
threshold=15.907466988586732 1.0478246265129916 18.699072583175486 0.64528647102267411 33.876576824993926 0.14193997155414226 0.35535642299472797 4.8484277043184365 0.96604315818040887 0.09500665046820532 33.687900560327336 1.076386703230541 41.170248010142643 0.14193997155414226 184.25275959739403 11.717869496473227 7822822322013.8857 0.09813955621577912 13.040236631701609 10.240448368740262 216114.71681847496 0.77584235383460209 141533.5322134413 6.00501126974246 28.757366693639742 0.71017594313843568 260.0356191939261 647000.16892897023 201211.17522998064 -8.0213445082179362 13.09685502048384 252.86917829530634 43.055222628533706 -5.1036012421305381 1.0775819520497907 479991.66060807486 -0.54888079155763403 268.57224612434169
decision_type=2 8 2 10 2 8 10 10 8 10 2 8 2 8 2 2 2 8 2 2 8 10 8 2 10 10 8 10 10 2 10 10 8 2 10 10 10 10
left_child=1 12 3 7 10 -2 29 8 9 28 11 13 21 25 16 32 27 -12 31 20 -20 34 -22 -23 -21 -4 -26 36 -3 -7 -11 -10 -6 -34 -1 -31 -13 -33
right_child=5 2 4 -5 15 6 -8 -9 18 30 17 14 -14 -15 -16 -17 -18 -19 19 24 22 23 -24 -25 26 -27 -28 -29 -30 35 -32 37 33 -35 -36 -37 -38 -39
leaf_value=-0.14690887844793296 -0.045797388458828726 0.050043842135415087 0.031899692717640919 -0.13977923388651381 -0.097206957015164949 0.07279539445549868 -0.097429288468450989 -0.12300488240534274 0.077526964802690002 -0.14722777666109094 0.15119717496182894 -0.11674712728059795 0.027248504113953659 -0.052024131582812029 0.021095779738170943 -0.013624479431777685 -0.013671862449953599 0.0026622355735474073 -0.035795652169495006 0.026497869659694313 0.11374774113749903 -0.12611767283762168 0.0083658658937727209 0.0018534574411820303 0.060701129454253204 0.13823568055517113 0.14163286926097299 -0.075044675689430185 0.13904822154288096 0.14469900882988943 -0.06807865875466694 0.14703555722376718 -0.11045484202527277 -0.14941738727991685 -0.1096563347661625 0.11843776062223464 -0.15375531608244791 0.12870109266770047
leaf_weight=71.053972452878952 11.627620428800581 6.5588426589965847 7.1010218858718899 23.40249091386795 10.960016846656799 6.2122258245944968 5.8991778790950766 8.2357758581638318 7.0800209343433371 12.959328442811968 8.8843098878860456 5.8937229514122 6.2778712511062613 10.381267428398134 8.9033878743648511 7.1713424921035758 9.1712671816349012 5.9060132801532736 10.998260229825972 6.2465621829032889 13.041107326745989 6.8322897851467115 7.4321536123752621 5.9617140293121338 7.7030500471591976 8.8604849874973279 22.479458421468735 10.080284029245375 14.109864741563795 122.98931211233139 5.9239877164363852 23.262394666671756 6.8295127451419821 41.661665409803391 5.8192662000656119 10.019582778215407 20.109983831644062 5.8735303282737723
leaf_count=242 39 22 24 80 37 21 20 28 24 44 30 20 21 35 30 24 31 20 37 21 44 23 25 20 26 30 76 34 48 419 20 79 23 141 20 34 68 20
internal_value=0 -0.0385849 -0.0147012 0.0307388 -0.0638997 0.116927 0.129965 0.057009 0.0673282 -0.000533196 -0.0231273 -0.0442582 -0.12253 0.0345931 -0.0826115 -0.122217 -0.103015 0.0918848 0.0931076 0.0731778 0.0366008 -0.133016 0.0754923 -0.066486 0.104777 0.0909285 0.120978 -0.125722 0.110804 0.139601 -0.122397 0.130474 -0.135316 -0.14393 -0.144089 0.142721 -0.145367 0.14334
internal_weight=0 433.166 337.221 175.307 161.914 156.748 145.12 151.904 143.669 39.552 95.2917 80.5014 95.9451 26.3428 54.1586 66.6225 45.2553 14.7903 104.117 67.9006 31.4715 89.6672 20.4733 12.794 36.4291 15.9615 30.1825 36.084 20.6687 139.221 18.8833 36.2159 59.4512 48.4912 76.8732 133.009 26.0037 29.1359
internal_count=2000 1467 1141 594 547 533 494 514 486 134 322 272 326 89 183 225 153 50 352 229 106 305 69 43 123 54 102 122 70 474 64 123 201 164 262 453 88 99
is_linear=0
shrinkage=0.1


Tree=7
num_leaves=36
num_cat=0
split_feature=45 10 2 101 85 98 9 83 51 19 71 10 19 62 71 15 13 5 47 5 10 46 59 22 14 105 44 51 53 70 45 87 5 56 71
split_gain=234.145 157.592 72.547 20.5217 19.9499 15.8105 15.1563 14.131 11.5835 9.57339 5.91277 15.8588 8.96238 2.96078 1.86789 1.892 0.571475 1.39864 0.43516 0.000200103 9.95275e-05 0.000119613 8.19818e-05 6.8303e-05 4.99169e-05 2.93942e-05 2.64167e-05 1.85781e-05 1.78825e-05 9.27197e-06 6.12446e-06 3.11687e-06 2.78593e-06 7.46818e-06 1.79125e-06
threshold=3.2529198210430739 0.53383558907393069 1.8430360668549997 663034302.98369467 0.20788537337875138 222575.01320424027 -2837411131105752 0.14680833773658844 2366603727183979.5 -5.2745635191788498 0.072908943132888607 1.0842807902171938 4.5726236572772363 3.4261037305987547 0.087039694118065114 0.97115707771388327 32.698981315225829 8.1879947253149901 676611.14717604138 15.907466988586732 0.77584235383460209 17.759588285073011 -5.8517757180787546 0.95784335573134094 12.340614929342054 13.509706001131283 14.91408397702371 -561261040762384.75 0.72719018174378269 187.72214683981954 1.3002576288510774 -38510444279.878395 17.146540361426592 4.2532838205863799 0.98824525826444398
decision_type=10 8 10 2 8 8 2 10 8 2 8 8 2 10 8 10 2 2 8 2 8 2 2 10 2 2 2 10 8 8 10 2 2 10 10
left_child=1 3 10 5 -2 6 -1 -8 9 -9 11 18 -13 16 15 -6 19 28 22 20 24 25 -3 -23 31 -22 -24 29 -18 -28 32 -12 33 -21 -34
right_child=4 2 -4 -5 14 -7 7 8 -10 -11 13 12 -14 -15 -16 -17 17 -19 -20 30 21 23 26 -25 -26 -27 27 -29 -30 -31 -32 -33 34 -35 -36
leaf_value=0.067029345244314573 0.12338080470054938 -0.092180177615201142 0.29261543149397234 -0.058558875947006567 0.39494596993849485 0.067345364541553585 0.49123825011311173 0.20853924226663945 0.14344314266143679 0.44873686550502223 -0.091072209472620375 0.25386444350001164 -0.012889269383411221 0.013132364849875995 0.42965211282666238 0.30421727565957496 -0.092129080001429525 0.0089815560536334587 -0.040722888835317848 -0.091115154943581522 -0.091281962734387642 -0.091615764287383231 -0.091180096940827793 -0.091185278470482287 -0.09153180342263853 -0.0914761710515129 -0.091873904255613731 -0.091404709694468136 -0.091727563407039581 -0.091568688377398302 -0.091300754777236842 -0.0909215609663237 -0.09105915083707658 -0.09134915577635605 -0.091126949980593577
leaf_weight=3.0535413995385232 3.6019137427210808 2.0775910913944253 5.3685798794031134 2.8178665712475768 5.5903422832488996 4.8707767874002519 3.3861867338418916 2.9299014508724266 4.9698155447840744 3.826279759407031 1.8622845187783239 2.5768992975354221 2.4636941179633141 2.8442045748233786 5.8050592392683056 3.903205618262291 2.0687025114893909 1.9855467230081556 1.9649641662836081 4.2172778397798529 35.265868529677391 32.787574797868729 2.1680082157254166 4.1525067612528792 1.9550646543502805 10.004208602011202 2.0208634734153752 3.3763156309723863 2.3915961608290668 1.9612625837326039 2.1939601004123679 5.231286250054838 4.4716576710343352 2.0158211514353752 30.311308138072491
leaf_count=23 25 20 35 24 28 36 22 20 35 24 20 20 21 27 31 20 20 20 20 45 370 333 23 44 20 103 20 35 24 20 23 57 48 21 323
internal_value=0 -0.0336356 -0.0690578 0.196175 0.335116 0.227335 0.270233 0.311292 0.259328 0.344572 -0.0810162 -0.0279774 0.123483 -0.0878821 0.384967 0.357644 -0.089921 -0.0608345 -0.0842418 -0.0913153 -0.0913992 -0.0914338 -0.091611 -0.0915674 -0.0910844 -0.0913249 -0.0914869 -0.0915773 -0.0919138 -0.0917236 -0.091138 -0.0909611 -0.0911293 -0.0911908 -0.0911182
internal_weight=0 193.591 167.737 25.8544 18.9005 23.0365 18.1657 15.1122 11.726 6.75618 162.368 18.6096 5.04059 143.759 15.2986 9.49355 140.915 6.44585 13.569 134.469 91.2588 82.2102 11.604 36.9401 9.04864 45.2701 9.52645 7.35844 4.4603 3.98213 43.21 7.09357 41.0161 6.2331 34.783
internal_count=2000 1896 1712 184 104 160 124 101 79 44 1677 179 41 1498 79 48 1471 64 138 1407 947 850 118 377 97 473 98 75 44 40 460 77 437 66 371
is_linear=0
shrinkage=0.1


Tree=8
num_leaves=39
num_cat=0
split_feature=71 44 10 45 71 76 46 94 71 87 90 79 10 68 2 33 105 30 104 85 4 15 44 41 10 12 6 59 49 46 5 30 10 46 22 34 14 5
split_gain=283.346 89.487 67.6236 59.0421 26.8388 23.1325 22.6912 16.1798 16.0231 15.5234 12.2063 13.7123 12.1387 11.5012 12.71 15.1321 11.2231 10.6193 6.53116 5.38425 11.9386 3.70646 3.48388 1.78766 1.11236 0.505361 0.416502 0.439844 0.345374 0.0017266 0.000714444 0.000422442 0.00032535 0.000232126 0.000273205 0.000217402 0.000208786 0.000149014
threshold=0.98824525826444398 33.488959514886808 1.0590436454796299 1.5073141270050792 0.98824525826444398 14.248547044808257 33.550750183091665 12895023.015684662 0.22240318079646712 14344689012.647913 413935.6801790336 -421728006213473.81 0.6903022296146718 469287.08994860807 1.1013794826829608 4.4309687621824585 10.854346896054734 13.494155669846647 0.40419618844764071 0.0018366775936373002 250.17626576447145 1.0527302122159179 44.108158934507607 254.29069109792621 1.0622644427403711 552901.43719287182 9.7577508697968494 35.056475085922557 -64.466926717750042 34.245416176790734 15.907466988586732 13.142145509169188 0.77584235383460209 16.933103819521332 0.95784335573134094 3.5800600168289827 13.018937541178486 9.2627914732499317
decision_type=8 2 10 10 10 2 2 2 8 2 10 8 8 8 10 2 2 8 10 8 8 8 2 10 10 8 2 2 8 2 2 10 8 2 10 8 2 2
left_child=1 2 7 6 5 12 10 13 19 -9 17 -12 -2 14 -1 -16 -7 -3 -17 20 -4 -8 23 35 -21 26 27 -23 -6 31 32 -26 36 -34 37 -14 -30 -35
right_child=4 3 8 -5 28 16 21 9 -10 -11 11 -13 22 -15 15 18 -18 -19 -20 24 -22 25 -24 -25 29 -27 -28 -29 30 -31 -32 -33 33 34 -36 -37 -38 -39
leaf_value=0.35204350252978989 0.13539690171657295 0.16270463636141796 -0.096940496266426368 -0.081988275612784697 -0.06111139035689557 0.030115353460010028 0.23463391281914703 0.14792551815764948 0.15756715539869687 -0.099866503263691786 -0.072301984062289132 0.20187685753608672 -0.096463410352135931 0.056181747984977284 0.052004149329633535 0.16779178000463621 0.27019619798108002 0.35866934182099081 0.35073812914201774 -0.032834895548526193 0.15593460357438435 0.36309087856810385 0.031954843639601598 -0.022366390200580826 -0.096570982315365303 0.36687007657078524 0.30321859535392698 0.32408998133585959 -0.095913623953922209 -0.099293675660674374 -0.096140503995452639 -0.097806959055033296 -0.096500546451549027 -0.096806127830855987 -0.096213152977108876 -0.09740911474241587 -0.096860714976127277 -0.097258320141225929
leaf_weight=5.6901149302721086 3.3721234500408181 7.125119388103486 4.6182312071323404 5.7487808167934409 2.8228588253259659 3.7931896299123755 4.3518095910549173 5.9266750216484052 3.4756954610347739 4.4090097844600677 3.4177421480417252 3.9118398129940024 13.668121054768564 4.9885049462318412 5.8195167481899244 3.6770891100168228 4.0009277611970901 4.5191899836063394 4.1579664051532745 3.0471331924200085 3.13393834233284 4.4527174830436733 3.0739784985780707 4.0262307077646247 16.586857616901405 4.2063793092966106 4.8129070103168479 8.2482064962387067 10.109084099531172 3.158770650625228 56.370267391204834 3.3185944706201544 40.111483454704285 22.099139019846916 5.8396853953599921 2.9566547423601213 3.0239279568195334 10.873107239603995
leaf_count=30 19 39 32 36 20 22 20 31 20 27 20 21 97 27 33 20 21 23 21 20 20 21 20 28 117 20 21 36 74 20 407 22 284 154 42 20 21 74
internal_value=0 0.118168 0.0464721 0.219806 -0.0775241 0.00153452 0.258321 0.147043 -0.0469061 0.0422221 0.175124 0.0740288 -0.0421347 0.191566 0.226478 0.174153 0.153355 0.238759 0.264879 -0.0678929 0.0052883 0.318868 -0.0673679 -0.0821525 -0.0896196 0.335745 0.32827 0.337763 -0.0957619 -0.0971217 -0.0964209 -0.096777 -0.0965926 -0.0966692 -0.0968436 -0.0966316 -0.0961317 -0.0969552
internal_weight=0 122.803 72.0081 50.7947 186.141 34.8912 45.0459 34.6689 37.3392 10.3357 18.9739 7.32958 27.0971 24.3332 19.3447 13.6546 7.79412 11.6443 7.83506 33.8635 7.75217 26.072 23.725 20.651 26.1114 21.7202 17.5138 12.7009 151.25 23.0642 148.427 19.9055 92.0564 78.9234 38.8119 16.6248 13.133 32.9722
internal_count=2000 697 440 257 1303 227 221 189 251 58 103 41 184 131 104 74 43 62 41 231 52 118 165 145 179 98 78 57 1076 159 1056 139 649 554 270 117 95 228
is_linear=0
shrinkage=0.1


Tree=9
num_leaves=39
num_cat=0
split_feature=15 5 15 15 14 71 21 31 50 44 53 15 49 5 82 4 49 15 5 10 43 10 46 10 5 22 45 76 71 48 105 73 44 71 56 105 51 5
split_gain=266.898 265.244 56.8224 12.0204 11.2595 16.677 10.5757 3.16808 3.02142 1.85844 1.69237 2.06746 1.66315 0.574068 0.46508 0.0100825 0.0135624 0.00227618 0.000158037 0.000161885 0.000121466 0.000109774 0.000113828 6.31011e-05 6.62892e-05 5.09881e-05 5.72335e-05 4.37048e-05 4.02128e-05 3.80276e-05 3.41561e-05 3.22828e-05 3.06886e-05 2.92598e-05 2.84052e-05 2.75689e-05 2.77131e-05 2.53064e-05
threshold=0.53015197640609346 13.671014400250469 0.082903445873481765 0.53015197640609346 0.14001967888184777 1.0592236061431193 157732.07227103258 26.857066390612314 0.29439950459207548 48.122539846917739 1.4092020688928986 0.10988035361622665 -25.39523658451046 8.9456879448402571 -53157199172.123726 279.52616319420997 5.3182126579284228 0.10067303501931847 15.907466988586732 0.61316028481288753 -681703.55673849781 0.77584235383460209 22.634822244409296 1.0654908076989174 15.907466988586732 0.95784335573134094 3.2529198210430739 1.3945274670727323 0.07535317750946556 -768046545.82285511 25.398563174527133 1.2879435840455435 13.412773119495585 0.10563245729390038 18.605164784427661 13.509706001131283 9445426006693222 54.049173782160437
decision_type=8 2 10 10 2 8 10 2 10 2 10 10 8 2 8 8 8 10 2 8 8 8 2 10 2 10 10 2 8 8 2 10 2 8 8 2 8 2
left_child=1 2 6 4 5 8 -1 -4 -2 17 11 -9 -6 15 -5 16 -13 23 19 28 -14 -21 32 24 -3 26 33 -10 31 -26 -22 34 -23 -24 -16 36 -34 -20
right_child=3 9 7 14 12 -7 -8 10 27 -11 -12 13 20 -15 18 -17 -18 -19 37 21 30 22 25 -25 29 -27 -28 -29 -30 -31 -32 -33 35 -35 -36 -37 -38 -39
leaf_value=-0.042364139774377793 0.056238760538501555 -0.091894055784786779 0.28861476397836788 -0.044067892286437926 0.0068781544080924175 0.20453036693162652 0.18264029015152761 0.45639108523875704 -0.091484192198549835 0.0099761623302966774 0.33845709504624799 0.37067189073444884 -0.092452255104336717 0.41433082756628387 -0.092100970664480211 0.36813459087942302 0.37810514265460365 -0.095072404244356062 -0.091313342726297222 -0.091216326787529181 -0.091488938721311919 -0.091401452561010094 -0.09174598995436524 -0.092027034038124247 -0.09178610697869849 -0.091331418289098701 -0.091410596011925332 -0.092123798790605366 -0.092167284139303376 -0.091324918292071733 -0.091928883242753889 -0.091519293600233656 -0.091465387566735182 -0.091961948179353478 -0.091723753710738834 -0.091739630743909006 -0.091781543949582434 -0.0916717198059189
leaf_weight=3.7780636772513372 2.0242611393332499 2.8318874686956539 4.0668114125728598 2.0958346948027611 2.0240787491202354 4.6655490100383759 4.6723447814583778 4.4804547205567422 1.9427830874919889 1.9321519136428822 6.7467376589775077 6.0646406710147813 2.1216434836387634 4.0468501299619666 4.2287334054708481 4.8334316909313229 4.1235551387071636 1.9232983663678158 20.948509313166145 7.4779641851782817 6.4218964874744398 15.534637473523615 12.472971647977831 2.0277158915996543 2.0040818005800247 2.4913336038589469 3.2827222570776931 2.3734979555010796 4.9816789403557769 16.573867931962017 2.4333934709429741 2.6333161890506736 17.190168112516407 12.623209394514566 3.7812751680612546 7.5759385377168647 3.3057404309511211 2.174955189228057
leaf_count=31 20 28 23 21 20 35 38 27 20 18 34 29 20 21 41 23 20 16 219 79 66 161 125 20 20 26 34 23 48 173 24 27 177 124 38 76 33 22
internal_value=0 0.159054 0.314358 -0.0781192 -0.0134028 0.0610297 0.0820438 0.371489 -0.0445621 -0.0845627 0.382614 0.395265 -0.0764141 0.380902 -0.0907712 0.371896 0.37368 -0.0917653 -0.0915821 -0.0916378 -0.0917727 -0.0915816 -0.0916182 -0.0914939 -0.0914434 -0.0917652 -0.0918033 -0.0918359 -0.0919328 -0.0913747 -0.0916098 -0.091823 -0.0915142 -0.0918546 -0.0919229 -0.0915766 -0.0915164 -0.0913471
internal_weight=0 70.1059 42.8129 146.806 24.0071 11.0061 8.45041 34.3625 6.34054 27.293 30.2957 23.5489 13.001 19.0685 122.799 15.0216 10.1882 25.3609 120.703 97.5797 10.9769 81.9547 74.4767 23.4376 21.4098 30.8702 28.3789 4.31628 15.625 18.5779 8.85529 10.6433 43.6065 25.0962 8.01001 28.0718 20.4959 23.1235
internal_count=2000 521 246 1479 228 98 69 177 63 275 154 120 130 93 1251 72 49 257 1230 989 110 835 756 241 221 309 283 43 154 193 90 106 447 249 79 286 210 241
is_linear=0
shrinkage=0.1


Tree=10
num_leaves=39
num_cat=0
split_feature=10 10 10 49 30 79 62 14 8 71 85 49 52 13 5 50 46 5 46 22 44 49 13 56 105 10 30 74 84 51 34 15 46 46 44 95 25 68
split_gain=169.291 158.263 17.6164 15.4523 11.8825 7.00463 5.4629 1.86699 0.791726 0.0938338 0.000698092 0.000220118 0.000109677 7.591e-05 4.01385e-05 2.63902e-05 1.75152e-05 1.27461e-05 1.06631e-05 8.14255e-06 8.2812e-06 7.4361e-06 5.6454e-06 5.85854e-06 5.38823e-06 4.19503e-06 5.42714e-06 4.23242e-06 4.07871e-06 4.04951e-06 4.01724e-06 3.69888e-06 3.61704e-06 3.60139e-06 3.12455e-06 2.80526e-06 2.75611e-06 2.74611e-06
threshold=0.77584235383460209 0.5412373130977205 0.77584235383460209 50.766592331347724 -12.368111681403047 -7951890473528537 2.9169074224940754 10.02879329933063 -620829.10805295769 1.075594284111894 0.011229039383214753 32.880410522556836 587683.80387445155 -8.8386240678523649 15.907466988586732 0.23738407569081413 17.483233266762504 16.913345052086033 31.305780544286467 0.95784335573134094 33.313730915081429 -30.519794990764577 33.690536572561058 18.605164784427661 13.509706001131283 1.0808899014152933 -13.032629565311263 0.66915408591460546 -2481120096082.5737 10876882082926498 0.83003396034365384 1.0620568116688125 23.675007692993507 42.169410171579827 16.307513552342353 97.77002208891092 53167.503191534757 508556.84094324376
decision_type=8 10 10 10 8 8 8 2 8 8 8 10 10 2 2 8 2 2 2 10 2 10 2 8 2 8 10 10 10 8 10 10 2 2 2 8 10 10
left_child=1 13 3 4 -2 -6 7 9 -7 10 -3 12 15 -1 16 -10 24 22 -17 20 21 36 23 30 29 31 -27 -28 32 -4 -15 -22 -25 -23 -31 -26 -18 -16
right_child=2 6 14 -5 5 8 -8 -9 11 -11 -12 -13 -14 17 37 18 19 -19 -20 -21 25 33 -24 28 35 26 27 -29 -30 34 -32 -33 -34 -35 -36 -37 -38 -39
leaf_value=-0.088724218000498831 0.2689719135554785 0.36238708698373084 -0.087757775110322178 0.30811236593394375 0.10912557294624621 0.0012256688491050435 0.25191113232995072 0.4485835993999116 -0.088361605794986961 0.38152693303935636 0.36415953819218311 -0.089553500622720356 -0.0889426000218764 -0.088009567276632505 -0.087695352613729155 -0.087752197942576549 -0.088083718673367617 -0.087639077898600343 -0.088099282889483932 -0.08772538803097274 -0.087873911251123996 -0.087851876974789106 -0.08778480999905347 -0.088104319614549911 -0.087969696877909703 -0.087888546111296595 -0.088020755446113708 -0.088259883037587472 -0.087806214845569525 -0.087755862097177825 -0.088206380391030667 -0.088009636671831537 -0.087883931089012976 -0.087686285466470115 -0.087957398928393396 -0.087831466602495301 -0.087922487742467442 -0.087852456037394513
leaf_weight=1.4313897602260102 1.3959432356059549 4.6748224496841386 19.345880553126335 1.7538708597421635 2.5257269591093063 1.1154952123761175 3.6402551196515587 3.8104453906416884 1.276805315166712 4.0889599621295956 4.2352707087993648 1.3337801024317739 1.417134068906307 2.2301504276692903 23.928837023675445 3.2663933448493454 1.6507558636367328 1.175010286271571 1.2141634486615656 2.281210880726575 4.0513741448521596 9.4693821631371993 1.2091285064816464 1.657077383249993 2.2113292142748824 1.2363140285015104 1.5097613856196397 1.4520287103950975 1.5643200948834417 1.2621435895562236 1.9386239685118196 3.9809428155422211 1.3525061160326002 1.5248897261917598 1.9699413217604158 4.368376687169075 2.9637679047882557 1.1668763309717167
leaf_count=21 20 22 337 19 38 18 21 22 20 20 20 18 21 37 422 57 27 21 20 40 69 162 21 27 37 21 25 23 27 22 31 66 23 27 33 75 50 20
internal_value=0 0.191383 -0.0699066 0.0288208 -0.00734201 -0.0390897 0.362977 0.387029 -0.0779883 0.368985 0.36323 -0.0883738 -0.0881545 -0.0880387 -0.0878087 -0.0879605 -0.0878535 -0.0879506 -0.0878463 -0.087907 -0.0879219 -0.0878736 -0.0879873 -0.0880153 -0.0877983 -0.0879835 -0.0880645 -0.088138 -0.0879372 -0.0877751 -0.0881011 -0.0879412 -0.0880053 -0.0878289 -0.0878787 -0.0878779 -0.0879802 -0.0877027
internal_weight=0 33.008 99.6731 15.2993 13.5454 12.1495 20.4498 16.8095 9.62377 12.9991 8.91009 8.50828 7.1745 12.5582 84.3738 5.75736 59.2781 11.1268 4.48056 30.1204 27.8392 15.6088 9.95181 8.74268 29.1577 12.2304 4.1981 2.96179 4.5739 22.578 4.16877 8.03232 3.00958 10.9943 3.23208 6.57971 4.61452 25.0957
internal_count=2000 313 1687 231 212 192 105 84 154 62 42 136 118 208 1456 97 1014 187 77 510 470 266 166 145 504 204 69 48 77 392 68 135 50 189 55 112 77 442
is_linear=0
shrinkage=0.1


Tree=11
num_leaves=38
num_cat=0
split_feature=22 22 83 96 34 84 48 26 50 61 98 44 37 5 5 7 10 10 46 10 45 105 71 10 83 46 0 14 96 45 36 10 45 50 29 56 28
split_gain=494.181 5.51196 8.9712 4.30389 1.86171 1.44548 1.28672 0.642768 0.4706 0.241215 0.396598 0.0178273 0.00354584 0.00195937 0.000125673 7.63121e-05 5.38977e-05 5.79147e-05 5.36488e-05 3.44484e-05 1.58437e-05 1.4895e-05 1.44741e-05 1.1615e-05 1.14518e-05 8.9592e-06 6.62585e-06 5.37871e-06 5.18611e-06 4.6311e-06 4.20195e-06 2.64234e-06 2.59542e-06 2.40631e-06 1.81717e-06 1.44642e-06 3.20093e-07
threshold=0.64528647102267411 0.64528647102267411 2.3783793328927842 -867484.73429547495 0.052475480983500154 233008752810648.97 -1058398394.1173307 136598.62279049182 0.025835792027293952 1049559.6355938108 116390.56022403653 32.539228162219331 248042.72419214473 12.66310965433763 15.907466988586732 -381375016721.68561 0.61316028481288753 0.77584235383460209 18.699072583175486 1.086339624341037 1.2570745829557937 13.696623182379801 0.07535317750946556 0.51525076290014771 0.86113429455291624 21.448078864902293 62.265594717110091 9.6789565651796483 -66155.640950188026 0.17280551502771169 19194560222962.918 0.53383558907393069 0.53667160724522744 0.70901826079898733 0.031592476396401357 21.603463942568606 296.86298789130768
decision_type=10 8 8 8 10 8 8 10 8 2 10 2 8 2 2 8 8 8 2 10 10 2 8 10 10 2 10 2 10 10 2 10 8 10 8 10 8
left_child=1 6 3 -3 -2 15 -1 11 -8 14 -11 12 -6 -14 16 -5 22 27 21 25 -20 -19 23 24 -10 28 -24 36 -17 -27 31 32 -16 -30 -33 -36 -18
right_child=4 2 -4 5 7 -7 8 -9 9 10 -12 -13 13 -15 30 19 17 18 20 -21 -22 -23 26 -25 -26 29 -28 -29 33 -31 -32 34 -34 -35 35 -37 -38
leaf_value=-0.019887284260315052 0.3163520073392127 0.095373567812522139 0.12118250101320734 -0.090278252843938103 0.38334404264446548 -0.0038390183956006222 -0.039649592633128145 0.42559521506949755 -0.089472494218062762 -0.024760661298954781 -0.089778664274981657 0.38831423668770271 0.37903414534171737 0.38174656469686974 -0.089274520397388785 -0.089515908421264667 -0.089100304674225694 -0.089384086373925697 -0.089628288253072508 -0.089980003691951693 -0.089409579169750911 -0.089539331411314274 -0.090044840541130058 -0.089840610979637678 -0.089778336811448076 -0.089690395418122348 -0.089759013534901108 -0.089352663283922551 -0.089223837106928536 -0.089477968376897032 -0.089429022126647925 -0.089195790683956722 -0.089124848283661989 -0.089400967741399495 -0.089287502294542923 -0.089353168274683037 -0.089155534731460387
leaf_weight=2.8544681444764137 4.0245084017515209 1.6190575212240217 3.2960598096251514 1.6925492361187933 4.2871770411729804 2.3251002207398459 1.9950240924954412 4.1560275405645362 3.6749949678778648 1.5434846803545945 2.3922504410147667 4.0449609458446494 7.6154846101999336 4.0953680723905563 2.6823874339461389 2.0790775120258331 1.7429988905787479 23.832390554249287 30.341824434697628 1.6334986090660084 3.7181459292769423 8.3440067395567876 1.6536184623837473 2.3322484642267227 1.8358570188283918 2.2101620510220528 1.5916725248098371 1.5054762065410612 1.552457109093661 1.9159264788031576 1.9775331392884243 1.8404593244194933 2.0394750162959099 1.5157637447118757 19.117184035480033 4.0682281181216231 2.6368707716464992
leaf_count=35 20 20 35 20 21 29 25 22 48 20 30 20 37 20 36 27 24 315 388 20 49 108 20 29 23 28 20 20 21 25 26 25 28 20 256 54 36
internal_value=0 -0.0784014 -0.0294697 -0.0594849 0.379331 -0.0762844 -0.086248 0.389805 -0.0878153 -0.0886236 -0.0642804 0.382383 0.380883 0.379983 -0.0894572 -0.0896535 -0.0895218 -0.0894902 -0.0895169 -0.0895566 -0.0896044 -0.0894243 -0.089727 -0.0896535 -0.0895744 -0.089482 -0.0899047 -0.0891896 -0.089394 -0.0895918 -0.0892879 -0.0892785 -0.0892099 -0.0893113 -0.0892914 -0.089299 -0.0891336
internal_weight=0 143.56 19.8397 16.5436 28.2235 14.9245 123.721 24.199 120.866 118.871 3.93574 20.043 15.998 11.7109 114.935 12.5994 83.2101 72.1217 66.2364 10.9069 34.06 32.1764 11.0884 7.8431 5.51085 9.27339 3.24529 5.88535 5.1473 4.12609 31.7253 29.7477 4.72186 3.06822 25.0259 23.1854 4.37987
internal_count=2000 1860 245 210 140 190 1615 120 1580 1555 50 98 78 57 1505 161 1080 940 860 141 437 423 140 100 71 121 40 80 68 53 425 399 64 41 335 310 60
is_linear=0
shrinkage=0.1


Tree=12
num_leaves=39
num_cat=0
split_feature=5 10 46 22 22 10 44 85 15 15 19 10 40 71 67 10 91 5 22 102 35 45 46 53 15 47 44 69 16 38 55 71 36 7 46 5 75 5
split_gain=219.404 67.9584 61.5361 58.3436 31.9131 32.6801 28.791 21.8673 19.6791 38.6947 17.468 17.9527 13.2334 10.9844 9.14591 7.69362 7.48975 6.3816 6.20564 6.05689 5.69405 5.24393 3.82567 3.73191 3.44276 3.33891 3.18068 3.07176 2.52104 2.40973 1.98403 1.14716 1.07877 0.586959 0.437875 0.384381 1.06695 0.202273
threshold=15.697956489621808 1.0478246265129916 18.699072583175486 0.95784335573134094 0.64528647102267411 0.53850518406888559 33.876576824993926 0.9844558632998156 0.97461036716690275 0.09500665046820532 33.687900560327336 1.076386703230541 582597.72581397055 0.14193997155414226 184.25275959739403 1.0590436454796299 7822822322013.8857 11.717869496473227 0.077675589391712971 193.33636307351676 24.721221151193046 1.6999717887026353 33.550750183091665 2.191444681253115 0.42641600487365355 201211.17522998064 27.24957055600655 647000.16892897023 31727187321388.82 23.915741050766439 635345.06968510465 1.0441183349953687 -16714124930180.869 -284588085975.62079 -3.6301900290325753 16.792291315301327 469.30554664117028 26.525268223597081
decision_type=2 8 2 10 10 8 2 10 8 10 2 8 10 8 2 10 2 2 8 8 2 10 2 10 8 10 2 10 2 8 8 10 2 8 2 2 10 2
left_child=1 12 3 7 5 -2 10 8 9 25 11 13 24 22 16 19 27 30 -12 -10 23 32 -4 26 -1 -3 -17 33 34 -11 31 -8 -7 -13 -26 36 -34 -37
right_child=4 2 6 -5 -6 21 17 -9 15 29 18 14 -14 -15 -16 20 -18 -19 -20 -21 -22 -23 -24 -25 28 -27 -28 -29 -30 -31 -32 -33 35 -35 -36 37 -38 -39
leaf_value=-0.046259389028767348 -0.069925772292403349 0.038390370754664817 0.11894670297074628 -0.13033335717973821 -0.11766531843417345 0.087225028923509682 -0.13564921022425233 -0.098591361153565982 0.092013115149820218 -0.13297718969755601 0.13819940566238781 -0.10493845985880541 0.03561879444590945 -0.053908944502630077 0.01885345118228017 0.1242982965137075 -0.011693782526880395 -0.018487557701086083 0.0025749401736982125 -0.024115076086479774 0.0080789236893379617 0.035890034422537652 0.016496809230683404 0.03148858110448452 -0.10968662791577753 0.12814278560415401 0.076136572966118032 -0.066648996477499931 -0.076481159758806691 -0.054250664929515795 -0.073681531930664734 -0.096825819627264387 0.13707100372833186 -0.14092290412461933 -0.13519485360946798 0.13296662674515128 0.083732245442632802 0.15094454762449738
leaf_weight=5.7889937162399301 9.0751376152038574 6.1967641413211849 9.7207917869091052 20.186983406543732 6.1957067847251883 5.6293485760688773 39.912285923957825 9.1612808406352979 7.8086691796779633 12.045234769582747 8.0016302764415723 5.9428498446941376 5.779165267944335 9.9753986299037951 8.8139055073261243 50.686205118894577 9.0564331114292127 6.815325826406478 5.8331826329231253 10.572086483240129 6.6567633152008048 6.1859501898288718 5.8314313292503348 6.4036495983600608 7.5306497514247885 12.517702221870421 18.798045635223389 9.9248373210430128 9.0686728656291944 5.7411296069622066 7.7050583064556113 9.404175251722334 10.239535659551622 19.106292963027958 63.265587091445923 105.16998606920242 5.9175387918949118 6.6543305814266196
leaf_count=20 31 21 34 73 22 20 141 32 27 43 28 21 20 34 30 178 31 23 20 36 23 21 20 22 27 44 65 34 32 20 27 33 36 67 225 375 21 23
internal_value=0 -0.0347374 -0.0131817 0.0290505 0.104709 0.113964 -0.0583182 0.0509997 0.060972 -0.00195207 -0.0225778 -0.040865 -0.110843 0.0279968 -0.0741302 0.0837292 -0.0927434 -0.109942 0.081016 0.0252195 0.0967579 0.125901 0.0805323 0.104537 -0.120725 0.0984238 0.111269 -0.113731 -0.126123 -0.107566 -0.120873 -0.128246 0.130069 -0.132386 -0.132482 0.131953 0.117536 0.134036
internal_weight=0 414.251 322.818 166.775 155.068 148.872 156.044 146.588 137.426 36.5008 92.2068 78.3719 91.4331 25.5276 52.8443 100.925 44.0304 63.8368 13.8348 18.3808 82.5447 139.797 15.5522 75.8879 85.6539 18.7145 69.4843 34.974 79.8649 17.7864 57.0215 49.3165 133.611 25.0491 70.7962 127.981 16.1571 111.824
internal_count=2000 1451 1127 584 549 527 543 511 479 128 319 271 324 88 183 351 153 224 48 63 288 496 54 265 304 65 243 122 284 63 201 174 475 88 252 455 57 398
is_linear=0
shrinkage=0.1


Tree=13
num_leaves=32
num_cat=0
split_feature=45 10 2 104 35 41 85 36 4 18 71 10 7 3 71 62 10 5 46 10 22 62 44 44 23 26 47 90 102 13 71
split_gain=153.101 117.785 55.7679 13.5549 12.89 9.35842 9.1682 6.16828 6.42503 5.37048 5.34566 13.81 6.85538 2.72593 1.1662 0.836512 0.507793 0.000816741 0.00044971 0.000164227 0.000162164 0.000115546 9.11887e-05 5.47336e-05 4.54603e-05 3.20533e-05 3.05527e-05 2.14715e-05 1.26753e-05 6.35097e-06 7.09644e-06
threshold=3.2529198210430739 0.5412373130977205 1.8430360668549997 1.992733522784603 23.17148627274123 254.29069109792621 0.20788537337875138 -5179476399478.9375 216.39301187084055 269801.92613561248 0.072908943132888607 1.0842807902171938 39061844674.928421 3.8336151613573279 0.055476941803230657 1.068105297176537 0.62827328721640863 15.907466988586732 22.177314115374894 0.77584235383460209 0.95784335573134094 2.9169074224940754 13.040236631701609 8.9749223677367365 397.78143419605493 15446.25607728851 591371.68140225916 593112.09808807191 178.2638988056114 23.896351398232397 0.98824525826444398
decision_type=10 8 10 10 2 10 8 2 10 10 8 8 10 10 8 10 8 2 2 8 10 10 2 2 8 8 8 8 10 2 10
left_child=1 3 10 4 5 7 -2 -1 -9 -5 11 23 -13 16 -8 -16 -12 18 22 -20 -21 29 27 -3 26 -24 28 -18 -25 30 -19
right_child=6 2 -4 9 -6 -7 14 8 -10 -11 13 12 -14 -15 15 -17 17 21 19 20 -22 -23 25 24 -26 -27 -28 -29 -30 -31 -32
leaf_value=0.31717295663600253 0.10152793428986394 -0.090229325552782291 0.21923990607627986 0.097868921613630699 0.028157688846491072 0.07212199848685226 0.22679667043017104 0.28121202447011612 0.12275555847759562 -0.096013256462008978 -0.038716611444043758 0.20542329249728764 -0.017786056667270386 0.0046755711181561497 0.26667114987148655 0.31829385847147651 -0.090133490072055011 -0.089907489296883747 -0.090154798371185452 -0.091021602866828463 -0.090200583284652497 -0.090831767622555071 -0.090804993199144646 -0.090291123492342668 -0.09110479337902129 -0.090487121449975894 -0.09096585568594634 -0.090386697530726923 -0.090634159567788114 -0.090207121946825286 -0.090036074427032403
leaf_weight=6.6116476431489088 3.9424531236290932 2.2829566821455947 6.482671730220317 2.9894472137093535 4.8399713039398184 4.0257666930556288 4.9224652647972107 4.6244909837842005 5.7289753705263138 2.7364821955561638 1.9263283908367173 2.9689029678702381 2.5645034536719322 3.1387214735150328 9.8278467953205162 4.6120875328779212 9.5224463492631894 5.037184812128543 2.7661899924278259 30.503340944647789 2.6117137223482123 1.8766979351639737 3.5137010961771034 1.957720473408697 2.8869806528091431 32.644800208508968 1.8406179770827291 5.1656871736049643 2.3947736248373985 1.8536785393953312 29.012081921100616
leaf_count=36 25 27 34 19 38 25 20 24 34 21 22 21 20 35 39 20 114 62 33 331 31 21 39 23 31 375 20 60 27 22 351
internal_value=0 -0.0314875 -0.0677792 0.144414 0.175271 0.209191 0.240528 0.241717 0.193532 0.00521058 -0.0804826 -0.0275788 0.101975 -0.0873813 0.26883 0.283159 -0.0896666 -0.0904549 -0.0906239 -0.090895 -0.0909569 -0.0900668 -0.0904327 -0.090667 -0.0907771 -0.090518 -0.0906243 -0.0902225 -0.0904799 -0.0900269 -0.0900171
internal_weight=0 184.508 152.952 31.5568 25.8309 20.9909 23.3049 16.9651 10.3535 5.72593 146.469 16.8965 5.53341 129.573 19.3624 14.4399 126.434 124.508 86.7279 35.8812 33.1151 37.7796 50.8466 11.363 9.08009 36.1585 6.19311 14.6881 4.35249 35.9029 34.0493
internal_count=2000 1896 1699 197 157 119 104 94 58 40 1665 169 41 1496 79 59 1461 1439 983 395 362 456 588 128 101 414 70 174 50 435 413
is_linear=0
shrinkage=0.1


Tree=14
num_leaves=39
num_cat=0
split_feature=71 35 45 10 46 71 33 71 82 74 45 69 15 21 85 12 76 98 34 41 26 25 2 79 104 59 49 41 44 5 46 22 10 15 19 5 104 85
split_gain=221.451 73.7241 47.002 30.2198 27.9085 18.2217 12.4365 10.7823 12.6524 10.265 9.52029 8.95426 8.50136 8.08893 7.99665 7.53686 6.52686 6.01982 4.05161 3.51831 2.00599 4.94329 2.62136 1.6731 0.952877 1.37935 0.362566 0.293328 0.00303846 0.00266767 0.000720774 0.000533428 0.000574795 0.000833098 0.000396803 0.000315652 0.000163832 0.000145188
threshold=0.98824525826444398 23.17148627274123 2.1129745025477082 0.61316028481288753 41.009690736835289 0.1879636920880188 11.883117498293016 0.053683627731324311 27512142301.622334 2.6587725788595136 0.78965507703170046 382754.40096193075 1.0470720678768595 386577.41041070642 -0.011086907857494648 380011.02282138058 18.921712012282793 123899.65622122456 0.98181048094484369 131.6234309829666 27268.175072290192 80116.253231816532 1.0986627870728134 -3529044135649822.5 1.6529535234068014 26.994347388673972 -64.466926717750042 213.62911171808861 34.042073505345492 15.907466988586732 18.699072583175486 0.95784335573134094 0.77584235383460209 1.0232941654871366 14.631262669966985 9.7912008825167351 1.3362882951085575 1.0161667234527487
decision_type=10 2 10 10 2 10 2 10 8 8 8 8 8 10 8 8 2 8 8 8 8 10 8 8 8 2 8 10 2 2 2 10 8 8 2 2 8 8
left_child=1 3 6 7 5 14 9 8 13 11 -6 -3 15 23 -5 17 20 -9 -17 -8 21 -16 -22 -1 25 -21 -2 -27 -24 30 37 32 -32 35 -35 -34 -36 -28
right_child=26 2 -4 4 10 -7 19 12 -10 -11 -12 -13 -14 -15 16 18 -18 -19 -20 24 22 -23 28 -25 -26 27 29 -29 -30 -31 31 -33 33 34 36 -37 -38 -39
leaf_value=-0.01085996538501658 -0.057201116562399415 0.060546146601132549 -0.097797127229502748 0.086899359113890212 0.20859695968389358 0.11386901733877984 0.16066632551162541 0.013961068235427369 0.16576595117786361 -0.018315706534866295 -0.0030185419488908969 0.26477422618386032 0.037104186193895765 0.10715728521984989 0.07005119650685375 0.15614440158273024 0.04518077579063505 0.18165654372796386 0.27758189885634699 0.31093654916031077 0.00066859495490271365 -0.095974542038064353 -0.09558223360633239 -0.10106548929757175 0.22693699879690277 0.26513120421182784 -0.094774406199332861 0.23727813661354272 -0.098140823674260774 -0.094187893699619579 -0.0946153456065459 -0.094423791934330412 -0.095067301138269056 -0.097130898602653837 -0.095427661479438916 -0.096060630958583262 -0.096441826796761013 -0.095287412046960451
leaf_weight=3.2254626005887985 2.6193376109004021 3.6064153090119353 5.5612349957227698 3.6884126141667366 7.1006212905049306 7.2804445326328269 4.6523199826478985 4.1476621776819194 5.448646783828738 3.5823209956288329 3.0345078483223915 5.3045323193073264 6.2285848259925869 3.7248351722955695 2.9446499794721639 4.8378937691450128 4.7719376236200324 4.4237320423126221 6.3581368029117611 5.1548237502574947 3.0645875558257103 4.5868146568536758 27.425969347357743 5.6717969402670843 8.8499551415443403 7.4730524718761426 39.638766042888165 7.6531282365322113 5.5869466289877883 49.752316020429134 5.275343820452691 4.5929260924458495 12.816557042300703 4.6633475720882434 3.2995588481426239 4.2631447389721862 3.0795172154903412 6.408723257482051
leaf_count=19 20 20 38 22 32 39 20 21 27 22 19 25 33 19 20 22 30 20 27 22 22 34 207 34 35 29 312 28 38 407 42 37 99 32 25 31 22 49
internal_value=0 0.0780693 0.176885 0.0329588 -0.00812391 -0.0343135 0.209894 0.0977385 0.0384097 0.124647 0.145238 0.18212 0.13898 -0.0165668 -0.0550327 0.17108 -0.0658532 0.100509 0.225108 0.241419 -0.0780031 -0.0310618 -0.0878025 -0.0683639 0.254316 0.266263 -0.0940469 0.251039 -0.0960152 -0.0947682 -0.0951118 -0.0954342 -0.0955732 -0.0957529 -0.0964298 -0.0953152 -0.0959173 -0.0948458
internal_weight=0 165.389 51.8378 113.552 69.4849 59.3498 46.2765 44.0668 18.0707 12.4933 10.1351 8.91095 25.996 12.6221 52.0693 19.7674 48.3809 8.57139 11.196 33.7833 43.609 7.53146 36.0775 8.89726 29.131 20.281 136.41 15.1262 33.0129 133.79 84.0379 37.9904 33.3975 28.1221 11.0424 17.0797 6.37908 46.0475
internal_count=2000 924 239 685 463 412 201 222 99 67 51 45 123 72 373 90 351 41 49 134 321 54 267 53 114 79 1076 57 245 1056 649 288 251 209 79 130 47 361
is_linear=0
shrinkage=0.1


Tree=15
num_leaves=39
num_cat=0
split_feature=15 5 15 19 15 14 19 71 87 79 15 37 67 15 56 15 5 73 38 5 10 46 10 5 5 10 71 22 44 10 44 71 22 73 9 70 36 5
split_gain=205.087 159.581 27.7796 12.5764 11.819 9.53253 12.3069 22.0063 5.66714 2.60891 1.98912 1.75965 0.862294 1.95032 0.481479 0.406032 0.0961827 0.0274393 0.0236529 0.000506178 0.000314023 0.000233423 0.000229157 0.000208989 9.31848e-05 9.03505e-05 0.000119185 0.000222991 9.19337e-05 8.42845e-05 7.49788e-05 6.45969e-05 6.31801e-05 5.66279e-05 4.57305e-05 4.30742e-05 3.56624e-05 3.26017e-05
threshold=0.53015197640609346 13.671014400250469 0.088222109946111557 13.910968337579336 0.53015197640609346 0.14001967888184777 20.741740709728237 1.0546928248021139 -26192119182.519909 -334781527098049.38 0.10159166386492197 153054.62839716711 85.664253314895532 0.11374023467206781 114.31452332370419 0.19175043035205033 8.3634816507048129 0.82412922744642148 20.539556444837093 15.907466988586732 0.61316028481288753 22.634822244409296 1.0748778264828209 15.907466988586732 14.508301948012107 0.77584235383460209 0.35441371229550306 0.95784335573134094 33.313730915081429 0.52151466437883309 13.412773119495585 0.14193997155414226 0.019197668432477454 0.78781067277246397 241475656935572.06 155.65541247802381 2351976983206.9775 11.717869496473227
decision_type=8 2 10 2 10 2 2 8 2 8 10 8 2 10 10 8 2 10 8 2 8 2 10 2 2 8 8 10 2 10 2 8 10 10 2 10 2 2
left_child=1 2 3 -1 5 6 7 9 -5 -2 22 -7 15 -14 19 -4 18 -15 -17 20 29 30 23 -3 32 -23 36 28 -28 33 37 -21 34 35 -13 -6 -27 -22
right_child=4 10 12 8 14 11 -8 -9 -10 -11 -12 24 13 17 -16 16 -18 -19 -20 31 21 25 -24 -25 -26 26 27 -29 -30 -31 -32 -33 -34 -35 -36 -37 -38 -39
leaf_value=0.20489553235963676 0.064984339282091963 -0.091161312026048505 0.30216027286841335 0.10262150560183014 -0.091018767985217547 0.014188537963065862 -0.094664540863600155 0.31854430824812946 -0.094122655538941641 -0.091170406543903487 0.021787123406941389 -0.091187555847295251 0.1865904226440348 0.26189047669541177 -0.041023470605836575 0.26269723591541083 0.28214147479460899 0.27104526917120858 0.27104389713270088 -0.090700284302203532 -0.090319440959849048 -0.090353584475094978 -0.091530732988137103 -0.090257837452508982 -0.090404675561420733 -0.090914355587561113 -0.091223260343198387 -0.090323903840302464 -0.091914166799858407 -0.091674291362103311 -0.090648666426041177 -0.090155432210296635 -0.091413994073876681 -0.090820569531593065 -0.090507801539479973 -0.091521024000576184 -0.090621073515251879 -0.090763381340329408
leaf_weight=4.8403996601700765 1.9091047272086141 2.9919815510511496 5.0135646164417285 2.5205238983035088 3.4239581376314145 1.8938472419977168 3.7622258439660072 3.351468563079834 3.4929999187588692 2.433989346027376 1.6961887776851643 1.8785861209034904 4.0227155834436443 7.0275565385818464 1.9878807291388501 8.5759633928537369 4.9902233332395545 6.1296243965625763 5.6201047897338876 2.4913521111011505 13.413790106773375 2.6611085534095764 1.9177842587232579 17.74568697810173 2.5855633839964867 10.606677547097208 6.0298515632748657 2.2237465158104888 2.8297081664204597 3.0612442046403894 28.47149546444416 17.189509525895122 3.4606334120035172 4.7828077748417854 2.0916323587298393 3.4061904922127724 6.8068701848387709 1.8869063407182682
leaf_count=29 19 32 21 20 37 20 32 21 30 26 14 20 20 27 21 33 20 24 22 28 157 31 20 209 30 116 64 26 28 31 321 205 36 53 24 35 77 21
internal_value=0 0.128747 0.227308 0.0849154 -0.0762193 -0.0115651 0.0535574 0.12603 -0.0116588 -0.0225291 -0.0826647 -0.0742082 0.264658 0.247525 -0.0897964 0.276821 0.270199 0.266155 0.266002 -0.0906836 -0.0907845 -0.0907016 -0.0904849 -0.0903882 -0.0909218 -0.0909108 -0.0909629 -0.0912192 -0.0914439 -0.0912075 -0.0905527 -0.0902244 -0.0911017 -0.0910845 -0.0908294 -0.0912692 -0.0907997 -0.0903742
internal_weight=0 76.5853 52.2337 10.8539 134.64 23.3671 11.4568 7.69456 6.01352 4.34309 24.3516 11.9103 41.3798 17.1799 111.273 24.1999 19.1863 13.1572 14.1961 109.285 89.6044 74.9302 22.6555 20.7377 10.0164 31.158 28.4969 11.0833 8.85956 14.6742 43.7722 19.6809 7.43085 11.613 3.97022 6.83015 17.4135 15.3007
internal_count=2000 521 246 79 1479 228 98 66 50 45 275 130 167 71 1251 96 75 51 55 1230 997 841 261 241 110 342 311 118 92 156 499 233 80 125 44 72 193 178
is_linear=0
shrinkage=0.1


Tree=16
num_leaves=39
num_cat=0
split_feature=10 10 71 5 15 12 81 61 8 5 70 49 49 5 52 10 30 46 22 71 15 46 56 5 10 10 44 19 56 22 44 68 44 79 15 49 74 19
split_gain=123.774 100.568 19.2102 23.5995 23.8708 15.9313 3.29466 0.841914 0.511412 0.207935 0.0713776 0.00104549 0.000364217 0.000121638 8.25596e-05 0.000191087 5.25086e-05 4.84244e-05 1.91061e-05 2.20369e-05 2.62009e-05 1.79749e-05 2.42439e-05 1.5713e-05 1.50281e-05 1.45801e-05 1.33182e-05 1.54226e-05 1.20525e-05 1.20232e-05 1.16984e-05 1.1154e-05 1.08564e-05 9.60534e-06 9.01588e-06 5.98219e-06 5.48078e-06 5.25169e-06
threshold=0.77584235383460209 0.5412373130977205 1.0260279034152722 10.952874042117783 1.0451933290604902 363422.66029260558 189.66906240675868 845399.44508758944 -675618.44240117969 6.3590636282151847 153.17346571591278 43.36369258853675 20.38059266836482 15.907466988586732 559276.3034142768 0.52789207423359918 -3.9398236885153719 18.699072583175486 0.95784335573134094 0.93804858951804271 1.0275560109224016 19.784265441557192 3.7492567291523478 9.7912008825167351 1.047504435276388 0.51525076290014771 33.313730915081429 38.811588820768527 -3.8558141942882891 0.040578971998988307 13.040236631701609 508556.84094324376 34.042073505345492 1960912862861002.8 0.090853189104072321 -20.755175622026787 3.3382296239358737 11.832296241094491
decision_type=10 10 10 2 8 8 8 2 10 2 8 10 10 2 10 8 8 2 10 8 8 2 8 2 8 10 2 2 8 8 2 10 2 10 8 10 8 2
left_child=1 2 7 4 -4 -6 8 11 -3 10 -10 14 16 17 21 -16 -5 24 19 32 23 25 -23 37 -2 28 27 35 -1 -24 -26 -15 -19 -30 -32 -22 -34 -21
right_child=13 6 3 12 5 -7 -8 -9 9 -11 -12 -13 -14 31 15 -17 -18 18 -20 20 26 22 29 -25 30 -27 -28 -29 33 -31 34 -33 36 -35 -36 -37 -38 -39
leaf_value=-0.08720241678870401 -0.087678823037579789 0.29414548752158054 -0.088934150229924125 -0.08826985509625826 0.56974708728445056 0.14926185519507656 0.16013495404984088 0.0018755932727728593 0.25984445655182958 0.24426319641198846 0.27613684675363631 -0.090163286275978818 -0.089890229222195139 -0.087108259272073399 -0.087576152240566085 -0.089078635436054265 -0.087397930359591675 -0.087311503642618291 -0.087188427090885923 -0.087331015177064 -0.087947410677901156 -0.08811128812065544 -0.087491412296813093 -0.087754428080838637 -0.087192260743288216 -0.087799404898295047 -0.088000050671446284 -0.087349515876081599 -0.087675112566856603 -0.087891002074907909 -0.087150940250997108 -0.087440612763622985 -0.087453925397688412 -0.087322667400176135 -0.087364026754206583 -0.087668185093910153 -0.087663329945914831 -0.087548921971840027
leaf_weight=1.4162347316741941 1.0670696347951887 5.5631840229034486 1.5806563757359962 1.1687139645218847 1.9625289067626002 1.665926571935415 3.2513799667358425 1.1093027144670475 5.7488869279622952 6.0128932297229758 5.0521054416894975 2.0973550155758849 1.1082814522087572 20.981701001524929 2.0328070111572734 1.45044556632638 1.6885570995509631 4.9388852193951607 1.8219773434102524 3.6655199676752099 1.3098368868231771 1.577948350459337 2.1068431176245217 1.6035176441073415 7.7044958248734536 1.5581183917820451 1.7368017770349977 1.1026314496994016 2.1778168007731531 1.1717984937131403 2.255615618079895 1.0608452223241318 4.8363619744777679 1.1989844776690004 16.588407739996917 1.8523214049637347 1.685470040887594 1.5839289054274557
leaf_count=28 19 23 24 19 20 21 15 19 22 25 20 28 16 422 37 21 32 95 36 70 22 26 39 28 152 27 29 21 39 20 45 20 90 23 315 33 30 29
internal_value=0 0.112218 -0.022188 0.0954659 0.235401 0.37669 0.254197 -0.0824996 0.267864 0.259168 0.267465 -0.0880747 -0.0883514 -0.0873221 -0.0877766 -0.0882018 -0.0877546 -0.0874032 -0.0875008 -0.0875242 -0.0876141 -0.0876444 -0.0877892 -0.0874805 -0.0873109 -0.0875337 -0.0877666 -0.0876716 -0.0874473 -0.0876342 -0.0872961 -0.0871243 -0.0874233 -0.08755 -0.0873385 -0.0877838 -0.087508 -0.0873968
internal_weight=0 52.7008 27.0723 9.17466 5.20911 3.62846 25.6284 17.8977 22.3771 16.8139 10.801 16.7884 3.96555 75.7954 14.691 3.48325 2.85727 53.7528 26.1373 24.3153 12.8546 11.2077 4.85659 6.85297 27.6156 6.35115 6.00159 4.26479 4.79304 3.27864 26.5485 22.0425 11.4607 3.3768 18.844 3.16216 6.52183 5.24945
internal_count=2000 544 439 132 65 41 105 307 90 67 42 288 67 1456 260 58 51 1014 483 447 232 202 85 127 531 117 105 76 90 59 512 442 215 62 360 55 120 99
is_linear=0
shrinkage=0.1


Tree=17
num_leaves=39
num_cat=0
split_feature=22 22 10 7 73 48 39 51 50 61 4 26 46 0 59 83 5 6 46 10 49 44 34 45 10 15 10 44 10 71 63 96 52 11 42 75 74 71
split_gain=326.679 5.58703 9.06014 16.2669 1.83021 1.32351 1.24229 0.615411 0.491254 0.253531 0.431767 0.0799758 0.0570993 0.00942555 0.00268464 0.000943996 0.000381129 0.000139398 0.00012644 0.000104236 5.8975e-05 3.27477e-05 3.74108e-05 3.23036e-05 3.92176e-05 5.06807e-05 3.77234e-05 2.9169e-05 2.40072e-05 2.00944e-05 1.43941e-05 1.20881e-05 1.19504e-05 1.12747e-05 1.08916e-05 8.91938e-06 8.65361e-06 6.12564e-06
threshold=0.64528647102267411 0.64528647102267411 1.0770426860183442 -149884784843.13742 0.7233315524177375 -1058398394.1173307 1011505583.6141008 5253873373430315 0.025835792027293952 1049559.6355938108 242.85775329264973 136598.62279049182 21.104442099053632 74.745648102006129 6.6223169657086141 2.2143000791983467 15.907466988586732 0.88685359495346461 18.699072583175486 0.61316028481288753 -40.97284117775034 25.452795679852205 1.0659550204996793 0.92239740595037023 1.0828983923610223 1.0232941654871366 0.61316028481288753 13.614768232102351 0.51525076290014771 0.14193997155414226 254.92248226299316 -33095.586641941765 477537.66778771474 431.37847690976042 -409890008.16923517 460.98292187364262 1.5532365120258491 0.98824525826444398
decision_type=10 8 10 8 8 8 2 10 8 2 8 10 2 8 2 8 2 2 2 8 10 2 8 10 8 8 10 2 10 8 10 8 10 8 10 8 8 10
left_child=1 5 7 -4 -5 -1 11 15 -7 16 -11 12 13 14 -2 20 18 -6 19 28 -3 31 -23 24 26 -26 -20 32 30 -18 -10 -22 -21 -29 36 -36 -25 -31
right_child=6 2 3 4 17 8 -8 -9 9 10 -12 -13 -14 -15 -16 -17 29 -19 23 27 21 22 -24 34 25 -27 -28 33 -30 37 -32 -33 -34 -35 35 -37 -38 -39
leaf_value=-0.016566166809622938 0.26648905373087228 -0.089692580742374545 0.26677133102281592 0.044085827738172316 -0.088997707206235219 -0.036416049697990394 0.21888838147968515 -0.019877318469722377 -0.088807031680871756 -0.089378626308892983 -0.019118712020387965 0.28349650077822081 0.27677214564917718 0.26981693953236191 0.26326793965397166 -0.091600794269759658 -0.088776179349700876 -0.090305993763827599 -0.089249540252175033 -0.088488764126739755 -0.088970932837191499 -0.089531729946604827 -0.088876868947984716 -0.0887800047041159 -0.08897100525345035 -0.089410625139724809 -0.088929036856072882 -0.088815024537954423 -0.089490834896635341 -0.088335108239019355 -0.089219164477920804 -0.088579234208861268 -0.088730733199874054 -0.088655041588694902 -0.088849659661501337 -0.088507242603125202 -0.089129751799305865 -0.088472021387918556
leaf_weight=2.7358595579862595 5.1578313112258929 1.6365582011640061 2.5150903537869453 1.4915135949850071 1.7035385519266131 1.887792609632015 5.0239685326814643 1.4431099034845818 1.5199352912604811 2.2518673837184897 1.430126875638962 5.4756955206394187 8.5826209336519224 6.1467727124691072 5.1921423077583313 1.9464437812566746 2.0603992491960526 1.5604329481720922 4.6498142890632215 6.7025989443063754 1.702752001583576 1.9119390174746529 1.6044172085821613 1.3781808875501154 4.4720060452818817 6.3401004150509834 17.469739276915789 15.996144335716961 1.7620221152901647 3.8385891765356126 1.9153489246964452 1.4663606956601172 2.9348170235753059 6.0792984366416958 1.6034394875168789 1.4474137388169768 1.4535840973258021 21.978130165487528
leaf_count=35 20 21 28 19 24 25 20 20 22 30 20 22 34 24 20 20 30 19 63 102 24 25 23 20 63 84 248 231 23 60 26 22 43 90 23 22 20 335
internal_value=0 -0.0767548 -0.0265906 0.061093 -0.0476866 -0.0852639 0.26497 -0.0810247 -0.0869855 -0.0878753 -0.0620889 0.272547 0.270157 0.266715 0.264873 -0.0896182 -0.0887918 -0.0896232 -0.0889081 -0.0887756 -0.0891545 -0.0890228 -0.0892329 -0.0890341 -0.0890727 -0.0892288 -0.0889964 -0.0887076 -0.0891907 -0.0884756 -0.0890368 -0.0887897 -0.0885624 -0.088771 -0.0888183 -0.0886872 -0.0889595 -0.0884517
internal_weight=0 130.889 18.9822 7.27058 4.75549 111.907 35.579 11.7116 109.171 107.284 3.68199 30.5551 25.0794 16.4967 10.35 10.2685 103.602 3.26397 75.7244 36.9102 8.32203 6.68547 3.51636 38.8143 32.9317 10.8121 22.1196 31.7129 5.19731 27.8771 3.43528 3.16911 9.63742 22.0754 5.88262 3.05085 2.83176 25.8167
internal_count=2000 1860 245 90 62 1615 140 155 1580 1555 50 120 98 64 40 135 1505 43 1080 537 115 94 48 543 458 147 311 466 71 425 48 46 145 321 85 45 40 395
is_linear=0
shrinkage=0.1


Tree=18
num_leaves=39
num_cat=0
split_feature=5 10 46 22 44 10 22 45 19 15 15 10 22 15 10 56 75 91 5 44 15 27 15 19 22 75 28 44 13 47 67 95 56 47 71 79 5 2
split_gain=174.695 54.9771 52.2961 47.2584 23.3619 22.1807 19.1234 17.2903 16.3573 14.3685 40.5304 13.7713 12.946 12.092 7.608 7.22718 6.51629 6.39069 6.35255 6.34228 5.9827 5.77371 7.91121 5.32059 4.0791 3.30642 3.13986 3.78652 2.99982 2.96012 2.87163 2.73309 1.70711 1.24344 0.984066 0.772908 1.45533 0.528675
threshold=15.907466988586732 0.71029675736040898 18.699072583175486 0.64528647102267411 31.98890519834487 0.5269216804959308 0.35535642299472797 6.0341462089096281 33.687900560327336 0.7868549786405189 0.09500665046820532 0.48126881005808059 0.021367445632670502 0.97461036716690275 1.0590436454796299 -9.0011084128635748 427.00303677911739 -2426710962468.9829 12.476287856038754 33.488959514886808 0.11374023467206781 9.4462405812716508 1.0692335385110321 6.5013932549588302 0.087051739095039174 574.19126515090807 378.29747898656348 14.238713758502518 29.021392074985496 422491.92924754642 79.919820680488712 126.66061822822684 27.558324052947526 319443.16739670298 1.0404206650500123 23982450242186268 18.611060072065541 1.1042527214486884
decision_type=2 8 2 10 2 8 10 10 2 8 10 10 8 8 10 10 10 2 2 2 10 8 8 2 8 10 8 2 2 10 2 8 10 8 10 8 2 10
left_child=1 11 3 7 8 -2 28 9 12 10 30 -1 13 20 15 -11 -17 -15 25 26 -4 22 29 -21 -10 32 27 -16 35 -14 -3 -19 34 -23 -6 -7 -37 -12
right_child=5 2 4 -5 18 6 -8 -9 24 14 37 -13 21 17 19 16 -18 31 -20 23 -22 33 -24 -25 -26 -27 -28 -29 -30 -31 -32 -33 -34 -35 -36 36 -38 -39
leaf_value=0.039362784591656021 -0.069408375023072719 0.046455982702936632 0.0067822155789123602 -0.11625137417350162 -0.12751573087980117 0.12385463140449166 -0.058407536851603464 -0.11162901427737933 0.12767122961691652 0.086215959430903155 -0.08770862465931957 -0.12291712261211465 -0.12610477330041031 -0.025517988999434922 0.11550882492774095 0.03628388074545847 -0.10758146587023734 0.052773672497667706 -0.0072587201031608433 -0.040137409803308106 -0.12923831798916816 -0.087612361062426744 0.02469188480799607 0.074603045637688756 0.016754806467745815 -0.037095869217970423 0.12797922138868051 0.052892554453489206 0.0547153792915002 -0.040577423895829669 0.12432778037086832 0.13988113212896947 -0.061719069950938982 -0.1450018432734777 -0.092627771953802271 0.057670194192623474 0.11856085595338808 -0.12587013106645673
leaf_weight=5.6817408502101889 7.4417926967144012 7.5503718554973629 5.780006140470503 20.564774304628372 41.284027054905891 100.52618217468262 6.5732793509960166 6.6825303584337226 7.8248832821845991 9.4842401146888751 5.2519286423921612 65.671884670853615 9.3281894773244911 7.1474218368530282 18.481402188539505 6.9207718670368177 5.7759943902492523 8.4982244968414307 7.0186842978000632 6.3634133040905025 7.339908242225647 6.1174550056457502 9.7375302612781507 11.074964106082914 5.7537423074245453 6.0188399553298941 25.505510836839676 20.227410525083542 7.4082847833633414 7.147270441055297 12.702290415763853 6.2518655061721793 5.429278850555419 9.8611164689064008 10.053749054670332 5.345473617315295 14.772980064153669 11.756944060325621
leaf_count=20 26 27 20 80 154 381 24 25 29 33 20 250 34 25 69 24 20 30 24 22 27 22 35 39 20 22 94 72 26 26 46 22 20 35 37 20 56 44
internal_value=0 -0.0304248 -0.0131641 0.0257803 -0.053988 0.0986521 0.107942 0.0455455 -0.0205438 0.0529895 -0.000281255 -0.109995 -0.0383445 0.0066029 0.0721062 0.0201711 -0.0291631 0.0520887 -0.0974854 0.0862144 -0.0693142 -0.0756491 -0.0467672 0.0327333 0.080672 -0.107572 0.100738 0.0827885 0.116481 -0.0890019 0.0952965 0.0896944 -0.115044 -0.12303 -0.120683 0.120274 0.102382 -0.114087
internal_weight=0 400.288 328.935 168.343 160.592 142.068 134.626 147.778 90.7876 141.095 37.2615 71.3536 77.209 35.0174 103.834 22.181 12.6968 21.8975 69.8046 81.6527 13.1199 42.1916 26.213 17.4384 13.5786 62.7859 64.2143 38.7088 128.053 16.4755 20.2527 14.7501 56.7671 15.9786 51.3378 120.645 20.1185 17.0089
internal_count=2000 1467 1197 615 582 533 507 535 325 510 137 270 276 124 373 77 44 77 257 296 47 152 95 61 49 233 235 141 483 60 73 52 211 57 191 457 76 64
is_linear=0
shrinkage=0.1


Tree=19
num_leaves=39
num_cat=0
split_feature=71 45 85 10 105 10 85 28 104 2 16 47 2 42 45 47 43 31 96 9 10 5 10 46 3 22 10 44 44 70 33 21 10 44 62 47 71 37
split_gain=111.64 67.7779 32.7425 32.8939 11.7537 11.3034 8.94724 10.0821 9.27435 8.53268 8.2346 6.74707 5.66599 4.98779 4.86176 2.82318 2.40537 2.05586 0.694081 0.59972 0.44196 0.00115917 0.0011024 0.00057208 0.000279263 0.000262061 0.000235889 7.48198e-05 5.97825e-05 3.95102e-05 3.50698e-05 2.92767e-05 1.97879e-05 1.81249e-05 1.48059e-05 1.12392e-05 1.03011e-05 7.90643e-06
threshold=0.096128998834272519 2.1129745025477082 0.25424172552564173 1.037904232183968 30.176779448120552 0.51341216528841405 0.011077441175946902 263.53164583294478 1.992733522784603 1.8430360668549997 -10011454825655.604 441856.13125574408 2.1026061978970856 180220002.52248695 1.3002576288510774 328726.55003263551 817629.26817565376 139.03299275756834 381220.89685962891 6131332389105075 0.61316028481288753 15.907466988586732 1.0785471326411391 18.699072583175486 3.5761349780149341 0.95784335573134094 1.0478246265129916 22.702841105383268 13.040236631701609 145.34230623897213 16.390132184801747 200439.30256413008 1.0510881401695811 12.505068938789369 2.856568432280143 290126.88712407771 1.0010307128625373 376232.50980490563
decision_type=8 10 8 10 2 8 8 8 10 10 2 10 10 8 8 10 8 2 8 2 8 2 10 2 10 10 8 2 2 10 2 10 8 2 10 10 8 10
left_child=2 5 3 4 6 -2 8 -8 10 17 -1 -12 19 -9 -4 -3 18 22 -16 20 -7 23 27 28 34 26 -25 33 32 31 -30 -29 -22 -5 36 -35 -23 -27
right_child=1 15 14 9 -6 12 7 13 -10 -11 11 -13 -14 -15 16 -17 -18 -19 -20 -21 21 24 -24 25 -26 37 -28 29 30 -31 -32 -33 -34 35 -36 -37 -38 -39
leaf_value=0.098262621572096157 0.078640665939998244 0.26569552673812247 0.11410167624007257 -0.089389855633927012 -0.049247362856056812 -0.03870978902827852 0.18836332575858727 0.074105059830969974 0.023437938763403939 0.1387047434304127 0.33125983626241862 0.16630813894355057 0.075835618980070574 -0.098442559928582862 0.22194062418950106 0.15391220777841799 0.15088411225984427 0.031513354304932205 0.26840021936259012 -0.026397400641687243 -0.089728709525553937 -0.088803931723522925 -0.092550612113782044 -0.089568027487173657 -0.09041069190931815 -0.089104817877675213 -0.09035884121401172 -0.089963091567362041 -0.089635922625521072 -0.089746792582311205 -0.089989072418219296 -0.090532401222302203 -0.089346319916736805 -0.089524191893113225 -0.089391739640958423 -0.08990153554406928 -0.089083009846668115 -0.089427448763417294
leaf_weight=4.4684633612632778 4.3964131549000758 4.1136326342821103 5.8327810689806938 3.629480026662355 3.9779231771826735 1.7317833974957486 3.9566811472177523 3.320674791932106 3.2007597312331191 2.0240251868963233 5.8368157222866994 4.3113453015685081 2.1535973101854315 3.3810270503163338 8.7536952048540044 5.0122724324464798 3.9908577203750673 1.5326443910598744 5.0826380252838179 1.5609746947884549 1.5793017148971538 1.3850981742143651 1.6026098504662503 4.3980303928256044 1.6726193577051152 1.4486728981137269 26.494276084005833 1.8752561286091807 25.056517414748672 3.0065734162926674 3.1674702093005171 1.7427389994263647 9.4559363052248937 1.5413057878613474 1.5042984783649433 1.6178877800703046 29.317446693778038 1.5968187004327772
leaf_count=28 28 18 37 48 30 13 20 18 22 10 27 23 10 24 33 23 18 13 20 19 20 20 16 57 20 20 312 23 321 38 39 20 126 20 20 20 405 21
internal_value=0 -0.0581737 0.0961149 0.0510284 0.111767 -0.0786605 0.13426 0.0617857 0.177614 -0.0551063 0.211376 0.261182 -0.0848065 -0.0129457 0.193351 0.2043 0.21928 -0.0788111 0.239007 -0.0879411 -0.088824 -0.0896345 -0.0900718 -0.0898583 -0.0891509 -0.090159 -0.0902463 -0.0897756 -0.0895984 -0.0900147 -0.0896756 -0.0902373 -0.089401 -0.0895423 -0.0890854 -0.0897174 -0.0890704 -0.089274
internal_weight=0 126.045 74.6862 51.0262 32.4537 116.919 28.4758 10.6584 17.8174 18.5725 14.6166 10.1482 112.523 6.7017 23.66 9.12591 17.8272 16.5485 13.8363 110.369 108.808 107.076 15.0159 73.197 33.8795 33.9378 30.8923 13.4132 39.2592 6.62457 28.224 3.618 11.0352 6.78867 32.2068 3.15919 30.7025 3.04549
internal_count=2000 1492 508 400 192 1451 162 62 100 208 78 50 1423 42 108 41 71 198 53 1413 1394 1381 185 916 465 410 369 169 506 81 360 43 146 88 445 40 425 41
is_linear=0
shrinkage=0.1


Tree=20
num_leaves=39
num_cat=0
split_feature=71 35 45 10 46 71 43 105 95 45 76 43 43 17 4 27 68 102 14 85 17 7 52 44 43 4 105 105 5 39 46 22 10 15 5 51 15 23
split_gain=182.132 49.2577 32.132 21.6396 20.5502 15.0043 10.2517 9.80328 8.96111 8.87484 7.85103 7.50102 7.27506 8.62659 8.33664 5.76208 5.29848 5.06829 3.47194 3.26116 2.02178 2.47702 5.47582 1.97936 0.505385 0.390137 0.220811 0.0499404 0.00424905 0.0021589 0.00131244 0.000848251 0.000872704 0.00147741 0.000543463 0.000427043 0.000259075 0.000229633
threshold=0.98824525826444398 23.17148627274123 2.1129745025477082 0.5412373130977205 39.419326026333174 0.1879636920880188 1166941.4720708895 -0.22643306571543984 77.832550598544699 1.3848293595399246 17.683504864084693 -28234.517711879223 770826.49046424206 84212.045266234243 187.98556577907621 1.2456904985246848 323515.58972643776 192.91929477416224 7.7720593669645668 -0.011086907857494648 96687.763970196029 303510636809.15607 438720.23985322315 38.543258258633522 -494540.71810395806 404.76228739318907 38.821340359842743 55.830464290003057 15.907466988586732 -1253898197.0591166 18.699072583175486 0.95784335573134094 1.0828983923610223 1.0381801655603355 13.045569695834347 -685527266180589.88 0.099494591240900973 456.83253529706258
decision_type=10 2 10 10 2 10 10 2 10 8 2 8 8 10 10 8 8 10 2 8 10 10 10 2 8 10 2 2 2 2 2 10 8 8 2 10 10 8
left_child=1 3 7 6 5 10 8 -3 11 -6 19 -1 13 14 -10 -9 -8 -16 -17 -5 21 29 -23 -20 -25 28 -26 -28 30 -21 -2 32 34 36 37 -35 -34 -32
right_child=25 2 -4 4 9 -7 16 15 12 -11 -12 -13 -14 -15 17 18 -18 -19 23 20 -22 22 -24 24 26 -27 27 -29 -30 -31 31 -33 33 35 -36 -37 -38 -39
leaf_value=0.097026798712459825 -0.093405909046674118 0.050326704893140888 -0.09608812314805619 0.035677278871765354 0.16710860568118674 0.098687826024157793 0.058783055919150666 0.079363339630254756 0.027781779676039554 -0.033342738968362727 0.051546115731633403 -0.07933024245643204 0.21752357605623135 -0.030675995318612072 0.23425415678175671 0.11669813275246753 -0.10460268910986777 0.096486891238812378 0.26550396495780104 -0.097181722939642806 0.0063056539322006687 -0.09487676631111179 0.081763645657612377 0.17701789752420524 0.22135016343978831 -0.052709786767631585 0.20558536294921101 0.19408559023036109 -0.092552257017619821 -0.094277422609784695 -0.093320422073552498 -0.092883122598458795 -0.094634543135321283 -0.096885363588362028 -0.095247996832568751 -0.095340371080704311 -0.093493233586733782 -0.094199059811191144
leaf_weight=5.7430397048592567 41.196980006992817 6.1437999606132498 5.0386733561754218 2.8653675690293312 8.5712168887257558 7.6962679624557486 4.103077068924903 4.6182422637939471 5.0677875354886153 2.9754894226789466 6.4032508283853522 4.1578225642442685 7.5518940836191168 3.9210774898529044 7.0466413944959623 4.7049430236220351 3.8446417450904846 4.2997823059558868 5.1409045904874793 2.8393684476613954 2.8478434532880774 4.7978676408529273 2.7671303525567055 8.1075470298528654 6.7114665210247102 2.4110426679253569 7.2064237296581251 7.9339703917503357 43.748783081769943 25.963125266134746 8.4540738910436612 4.0805383622646323 3.6263521909713727 3.0042209699749947 2.4673001393675813 4.4229114800691613 4.404822863638401 4.5891558229923239
leaf_count=28 359 31 38 17 36 39 20 23 26 20 39 24 30 20 29 22 21 21 20 21 21 39 19 29 24 20 25 27 407 215 74 37 29 21 19 34 38 38
internal_value=0 0.0676246 0.144728 0.0298379 -0.00604984 -0.0310225 0.0829815 0.168723 0.104694 0.115454 -0.0516125 0.0229665 0.13371 0.102585 0.134418 0.185097 -0.0202534 0.182047 0.197365 -0.0673097 -0.0748347 -0.0811886 -0.0302651 0.208178 0.198341 -0.0925376 0.206252 0.199559 -0.0933378 -0.0945637 -0.0937886 -0.0942384 -0.094417 -0.0949487 -0.093887 -0.0959653 -0.0940086 -0.0936296
internal_weight=0 169.069 55.606 113.463 67.7269 56.1802 45.7358 50.5673 37.788 11.5467 48.484 9.90086 27.8872 20.3353 16.4142 44.4235 7.94772 11.3464 39.8053 42.0807 39.2153 36.3675 7.565 35.1003 29.9594 122.406 21.8519 15.1404 119.995 28.8025 76.2464 35.0494 30.9688 15.4583 15.5105 7.42713 8.03118 13.0432
internal_count=2000 924 239 685 466 410 219 201 178 56 371 52 126 96 76 170 41 50 147 332 315 294 58 125 105 1076 76 52 1056 236 649 290 253 122 131 55 67 112
is_linear=0
shrinkage=0.1


Tree=21
num_leaves=39
num_cat=0
split_feature=15 5 19 15 15 19 71 104 55 15 46 15 82 5 38 48 14 15 5 46 15 5 22 71 10 44 19 5 6 50 71 10 56 10 101 63 10 44
split_gain=164.462 109.293 21.3409 12.6338 11.5098 8.37373 17.0662 13.6093 0.935057 1.88639 0.972012 1.81343 0.521496 0.330506 0.0295195 0.011004 0.00200867 0.00176515 0.000680953 0.000364346 0.000296168 0.000229294 0.000218975 0.000231665 0.000231471 0.000145675 0.000192919 0.000125035 0.000120437 0.000119457 0.000114656 8.69345e-05 9.04657e-05 8.5467e-05 6.39925e-05 6.3367e-05 6.13007e-05 6.10989e-05
threshold=0.53015197640609346 14.764736943266126 33.08893579287205 0.075521450072342816 0.53015197640609346 16.77012525218673 1.0137158730585147 0.68193235739217517 372954.3309305791 0.19175043035205033 8.2597864062505835 0.10159166386492197 -53157199172.123726 7.8730244015323274 19.494618054199595 107207515.04003255 -0.73554422984922518 0.10067303501931847 15.907466988586732 18.699072583175486 0.99501620707237382 15.907466988586732 0.95784335573134094 0.35441371229550306 0.77584235383460209 33.313730915081429 38.811588820768527 14.508301948012107 5.930642600116629 0.75746696940586478 0.14193997155414226 1.037904232183968 3.7492567291523478 1.0722861126479726 169417760.38248429 298.06705392286932 0.63833071025183286 28.622468236796689
decision_type=8 2 2 10 10 2 8 10 10 10 2 10 8 2 8 10 2 10 2 2 10 2 10 8 8 2 2 2 2 10 8 8 8 10 2 8 10 2
left_child=1 2 3 -1 5 6 28 -8 10 -10 -5 -12 -6 15 -11 -13 -7 21 19 20 34 -3 23 31 36 26 -26 -18 29 -2 -20 32 -21 -23 35 -14 -25 -33
right_child=4 17 -4 8 12 16 7 -9 9 14 11 13 18 -15 -16 -17 27 -19 30 22 -22 33 -24 24 25 -27 -28 -29 -30 -31 -32 37 -34 -35 -36 -37 -38 -39
leaf_value=0.050312792292303933 -0.091407974490875205 -0.090502600118476245 -0.031324018247659187 0.18390627130034987 -0.035997860822168666 -0.093387499280070146 -0.015265124144611251 0.24174386877303836 0.13854493450386487 0.20888164039951912 0.28534772107341361 0.20840804914677891 -0.089747120455812304 0.23931142431525912 0.21840735565974626 0.21376677814055631 -0.090585968567032119 -0.092904246422327405 -0.08993191563624052 -0.090991960950542294 -0.089678892150465817 -0.089268648553332414 -0.089377660589534794 -0.090387123812047387 -0.09094208980442535 -0.09150068906868071 -0.089671165452223728 -0.089536156210786325 -0.089959867700708254 -0.090267392337601324 -0.089221413391756821 -0.089714972035178642 -0.090158587417653369 -0.090032433127616565 -0.090696386113370983 -0.090493558633101115 -0.089574934305451104 -0.090122093887654187
leaf_weight=5.334941290318965 1.9050494432449361 1.8956765979528487 4.4485206604003897 5.3618485853076008 1.8293816894292829 3.3025070950388908 3.6815597862005216 4.6787227541208267 4.5613234937191036 7.1898091137409184 4.9191705510020283 9.2114725410938281 2.2944344133138648 5.3945337533950797 5.9417073130607614 6.5617004036903372 2.9530890956521016 1.6167281866073597 2.6657317951321602 1.9308998286724115 34.556096389889717 15.174111649394037 2.7907583117485038 1.78540477901697 5.0135783329606038 2.7981656342744827 1.5678652375936506 1.8422760106623171 2.5115112438797951 1.7726801708340643 15.348485857248308 5.5977077260613468 4.0029888525605202 1.6216325983405102 3.2833615243434906 2.2551117390394211 1.9380035102367399 10.79517589509487
leaf_count=39 20 22 36 21 21 31 32 35 21 25 21 32 29 20 21 23 34 16 33 21 440 204 37 21 55 29 20 24 31 21 208 71 48 20 37 26 25 130
internal_value=0 0.110324 0.179273 0.196471 -0.0743823 -0.00998374 0.0353803 0.128567 0.212338 0.193947 0.222685 0.230655 -0.0889011 0.217945 0.213192 0.210637 -0.0914897 -0.0897343 -0.0898824 -0.0900066 -0.0898047 -0.0894601 -0.0902305 -0.0902977 -0.0906315 -0.0908963 -0.0906393 -0.0901827 -0.0904937 -0.0908582 -0.0893266 -0.0901018 -0.0904298 -0.0893424 -0.0903599 -0.0901171 -0.0899644 -0.0899831
internal_weight=0 79.2332 58.925 54.4765 123.101 22.6474 14.5495 8.36028 49.1416 17.6928 31.4487 26.0869 100.453 21.1677 13.1315 15.7732 8.09787 20.3081 98.6238 80.6096 42.389 18.6914 38.2205 35.4298 13.103 9.37961 6.58144 4.79537 6.18924 3.67773 18.0142 22.3268 5.93389 16.7957 7.83291 4.54955 3.72341 16.3929
internal_count=2000 521 259 223 1479 228 139 67 184 67 117 96 1251 75 46 55 89 262 1230 989 532 246 457 420 150 104 75 58 72 41 241 270 69 224 92 55 46 201
is_linear=0
shrinkage=0.1


Tree=22
num_leaves=39
num_cat=0
split_feature=10 10 71 5 95 62 49 13 22 24 49 49 5 46 79 13 51 68 10 30 71 22 15 15 97 44 44 29 19 101 44 72 33 106 105 41 90 22
split_gain=99.106 67.682 15.6189 15.0353 12.5062 1.91301 0.926083 0.296776 0.104951 0.0416246 0.000687922 0.000287421 0.000204379 8.36163e-05 4.70975e-05 4.30913e-05 5.26294e-05 4.11337e-05 4.08418e-05 3.26166e-05 2.86165e-05 4.25002e-05 5.21055e-05 2.62662e-05 2.4625e-05 2.10512e-05 1.56739e-05 1.49361e-05 1.34643e-05 1.17e-05 1.08049e-05 8.31472e-06 8.15363e-06 7.55953e-06 7.09166e-06 7.43835e-06 6.9692e-06 6.83612e-06
threshold=0.77584235383460209 0.5412373130977205 1.0260279034152722 10.952874042117783 114.71041472172699 2.9169074224940754 60.608945146151974 -9.2128668629712926 0.044670616377271356 1.1197095525716496 43.36369258853675 20.38059266836482 15.907466988586732 21.448078864902293 -8890055021543503 -0.61060541160971959 -876633626647311.5 316828.23936496192 1.0464863478762687 -3.9398236885153719 0.6697939551692037 0.95784335573134094 0.53015197640609346 0.099494591240900973 5.5830712350410083 31.817669369127206 13.040236631701609 0.039806378239659511 25.854973791918198 257848910.17817745 34.042073505345492 2054007.2270667066 5.3495358372309756 197.43030945026882 13.509706001131283 202.19449423863361 509601.38597027335 0.12780091116632639
decision_type=10 10 10 2 8 8 10 2 8 8 10 10 2 2 8 2 8 8 8 8 8 10 8 10 2 2 2 10 2 2 2 2 2 10 2 8 8 10
left_child=1 2 6 4 -4 7 10 -3 9 -9 14 19 13 18 17 16 -16 -1 -2 -5 30 22 23 -22 25 28 -20 -17 -24 31 -15 -29 -32 -31 -28 36 -36 -14
right_child=12 5 3 11 -6 -7 -8 8 -10 -11 -12 -13 37 20 15 27 -18 -19 26 -21 21 -23 24 -25 -26 -27 34 29 -30 33 32 -33 -34 -35 35 -37 -38 -39
leaf_value=-0.087402120638988862 -0.087495058105820089 0.23226735538804688 0.29229570261110027 -0.08767556582037371 0.011970733047647553 0.14332197261556209 0.012820855968907686 0.20630511485238198 0.21622053410110481 0.19423914517940677 -0.089863117048676056 -0.089239691721597431 -0.086592694625313799 -0.086880202869961259 -0.087174411370202487 -0.087475506460465757 -0.088027162304022161 -0.088183363489445873 -0.086727306438637186 -0.086949383170263961 -0.087369060793035358 -0.08669892935196348 -0.087683803208341238 -0.086898414220044171 -0.087221626163149546 -0.088008492020711954 -0.086862840894811097 -0.087121471159844255 -0.087215410511292057 -0.087101684986756037 -0.087328363959223151 -0.086845630451178449 -0.087035046417428819 -0.087473440618191789 -0.086956395339206308 -0.08689649492568205 -0.087330412872309693 -0.086858349678857971
leaf_weight=1.5155746787786482 1.0185404494404791 5.7150024473667207 3.5903175696730596 1.0451627448201177 2.8586417473852634 4.8228662237525013 0.97711437940597612 5.77372539043425 6.5291669964790406 5.6636268794536653 1.2066803686320788 1.0074649564921854 18.228801697492603 3.8747169189155084 1.3834699317812917 1.3842172212898711 1.5177097842097311 1.2136199213564398 7.4675178751349511 1.5151507332921035 1.883996464312079 1.293722815811633 1.5708029009401796 3.1996384374797344 1.9184975586831567 1.1954643242061136 13.694871984422209 3.3599312305450439 1.0072355680167673 0.98549714684486422 1.1984771266579626 1.619495742022991 4.5293102748692036 1.2293007746338842 0.95464465394616016 2.6743118762969971 1.0419522821903227 1.0230279080569733
leaf_count=29 19 21 31 19 34 21 15 20 23 20 17 16 420 83 28 26 26 20 166 32 36 29 28 68 38 20 294 68 20 20 23 35 93 23 20 57 20 22
internal_value=0 0.0938667 -0.0214715 0.0769085 0.168036 0.200728 -0.0815868 0.212419 0.206105 0.20033 -0.0875708 -0.0878088 -0.0868825 -0.0869919 -0.0873761 -0.0872874 -0.0876205 -0.0877495 -0.086874 -0.0872458 -0.087138 -0.0872405 -0.0873055 -0.0870728 -0.0875133 -0.0876616 -0.0868495 -0.0871747 -0.0875008 -0.0871168 -0.0870092 -0.0870318 -0.0870964 -0.087308 -0.0868991 -0.0870055 -0.0871516 -0.0866068
internal_weight=0 54.9137 26.4093 10.0167 6.44896 28.5044 16.3926 23.6815 17.9665 11.4374 15.4155 3.56778 67.7755 48.5237 14.2088 11.4796 2.90118 2.72919 26.8518 2.56031 21.6719 12.0694 10.7756 5.08363 5.692 3.7735 25.8333 8.57844 2.57804 7.19422 9.6025 4.97943 5.72779 2.2148 18.3658 4.67091 1.9966 19.2518
internal_count=2000 544 439 132 65 105 307 84 63 40 292 67 1456 1014 275 226 54 49 576 51 438 239 210 104 106 68 557 172 48 146 199 103 116 43 391 97 40 442
is_linear=0
shrinkage=0.1


Tree=23
num_leaves=34
num_cat=0
split_feature=22 22 10 7 37 74 62 27 95 16 61 96 46 15 66 83 5 48 6 46 10 10 45 71 56 44 106 48 71 102 12 86 71
split_gain=239.973 5.61044 8.00545 12.2595 19.4354 1.3688 1.74265 1.07663 0.659839 0.520094 0.31624 0.432432 0.058766 0.0218727 0.0120928 0.0006153 0.000607353 0.000225298 0.000177262 0.000174125 0.000126773 5.51685e-05 7.21367e-05 5.20225e-05 4.83834e-05 4.36792e-05 3.68239e-05 2.84482e-05 2.95439e-05 2.84083e-05 2.35194e-05 7.06093e-06 5.75427e-06
threshold=0.64528647102267411 0.64528647102267411 1.0770426860183442 23118325725.425827 425853.40004018805 6.6976354796413622 1.5505091897102481 -23.158627864334633 75.173876924571445 -48711863943386.164 1049559.6355938108 258394.25821333649 19.60617061360719 1.0935030231465801 1083509408702.2429 1.730702737910025 15.907466988586732 -1058398394.1173307 2.9475205460324951 18.699072583175486 0.61316028481288753 1.0761139929797363 0.94008698026441129 0.050581304415668757 9.9809802544804977 13.040236631701609 263.57113793061723 -917412380.46457803 0.14193997155414226 175.41922406477528 476761.15787231753 15288213556426.49 0.98824525826444398
decision_type=10 8 10 8 10 10 8 10 8 2 2 8 2 8 2 8 2 8 2 2 8 8 10 10 10 2 8 8 8 8 8 10 10
left_child=1 5 8 4 -4 9 -7 -2 -3 -1 16 -12 13 14 -9 24 17 -11 -5 20 30 23 -23 -21 26 -22 29 -18 -29 -10 -19 32 -30
right_child=7 2 3 18 -6 6 -8 12 15 10 11 -13 -14 -15 -16 -17 27 19 -20 21 25 22 -24 -25 -26 -27 -28 28 31 -31 -32 -33 -34
leaf_value=-0.032972078269802085 0.16815989365677905 -0.013889829311954439 -0.044330320403778274 -0.088627616011776753 0.38451703740840781 0.073176558110075535 -0.0885401815272438 0.21326897591046501 -0.088947549991934508 -0.089638631560103016 -0.0120903563090948 -0.089107943325809735 0.2214702249901771 0.2179865827305878 0.20799435924627319 -0.090699525127786673 -0.08826341154145606 -0.088820749493703735 -0.090093473610873664 -0.088686455476046852 -0.087912636859280399 -0.088742826169226172 -0.088208576529180849 -0.088294641476098196 -0.08896471508822365 -0.088188296315802536 -0.088067823044990612 -0.088171611476678569 -0.08759463258143152 -0.088350729212140988 -0.088367332270110732 -0.087943563025485547 -0.087747654653888438
leaf_weight=1.8008861318230618 5.607307791709899 1.3362978175282485 2.1368256174027911 1.7150338366627695 2.0908258557319641 1.2390966787934292 1.4415932856500151 9.4238321781158501 1.5369394794106503 1.3979656249284742 1.3084232211112965 1.6462790966033938 10.970553547143934 5.663056105375289 8.067488491535185 1.750950451940297 1.2532693073153494 3.1713930629193783 1.589571814984083 4.5016597621142926 8.0814934186637419 13.565126754343508 3.1060680709779254 13.706265594810246 2.6555521413683891 19.908808808773756 1.7563189491629594 1.7285199984908106 2.8821659423411026 1.6578274779021733 1.7895543053746221 1.6006149314343918 16.675812322646379
leaf_count=28 20 20 25 26 19 20 22 33 22 18 20 23 39 20 28 20 20 46 20 67 137 200 50 217 38 321 29 28 52 26 28 27 291
internal_value=0 -0.0750591 -0.0240013 0.0549666 0.16776 -0.0842906 -0.0137898 0.208769 -0.0796225 -0.0862166 -0.0872121 -0.0550024 0.215441 0.212585 0.210836 -0.0890094 -0.0882314 -0.088382 -0.0893327 -0.0883561 -0.0881913 -0.0885119 -0.0886433 -0.0883915 -0.0886203 -0.0881087 -0.0884356 -0.0877995 -0.0877741 -0.0886378 -0.0886572 -0.0877416 -0.0877251
internal_weight=0 119.031 18.2261 7.53226 4.22765 100.805 2.68069 39.7322 10.6939 98.1243 96.3234 2.9547 34.1249 23.1544 17.4913 9.35759 93.3687 69.2283 3.30461 67.8304 32.9512 34.8791 16.6712 18.2079 7.60664 27.9903 4.95109 24.1404 22.8871 3.19477 4.96095 21.1586 19.558
internal_count=2000 1860 245 90 44 1615 42 140 155 1573 1545 43 120 81 61 135 1502 1084 46 1066 532 534 250 284 115 458 77 418 398 48 74 370 343
is_linear=0
shrinkage=0.1


Tree=24
